<?xml version="1.0"?>
<MethodSetup Method="BDT::BDTG_ETauKine">
  <GeneralInfo>
    <Info name="TMVA Release" value="4.2.0 [262656]"/>
    <Info name="ROOT Release" value="6.02/05 [393733]"/>
    <Info name="Creator" value="cadamuro"/>
    <Info name="Date" value="Wed Jan 13 12:03:02 2016"/>
    <Info name="Host" value="Linux vocms029.cern.ch 2.6.32-504.12.2.el6.x86_64 #1 SMP Thu Mar 12 07:33:00 CET 2015 x86_64 x86_64 x86_64 GNU/Linux"/>
    <Info name="Dir" value="/grid_mnt/vol__vol_U__u/llr/cms/cadamuro/HHKlubAnalysis/CMSSW_7_4_7/src/KLUBAnalysis"/>
    <Info name="Training events" value="9792"/>
    <Info name="TrainingTime" value="4.60889697e+00"/>
    <Info name="AnalysisType" value="Classification"/>
  </GeneralInfo>
  <Options>
    <Option name="V" modified="No">False</Option>
    <Option name="VerbosityLevel" modified="No">Default</Option>
    <Option name="VarTransform" modified="No">None</Option>
    <Option name="H" modified="No">False</Option>
    <Option name="CreateMVAPdfs" modified="Yes">True</Option>
    <Option name="IgnoreNegWeightsInTraining" modified="No">False</Option>
    <Option name="NTrees" modified="Yes">300</Option>
    <Option name="MaxDepth" modified="Yes">3</Option>
    <Option name="MinNodeSize" modified="No">5%</Option>
    <Option name="nCuts" modified="Yes">2000</Option>
    <Option name="BoostType" modified="Yes">Grad</Option>
    <Option name="AdaBoostR2Loss" modified="No">quadratic</Option>
    <Option name="UseBaggedBoost" modified="No">False</Option>
    <Option name="Shrinkage" modified="Yes">1.000000e-01</Option>
    <Option name="AdaBoostBeta" modified="No">5.000000e-01</Option>
    <Option name="UseRandomisedTrees" modified="No">False</Option>
    <Option name="UseNvars" modified="No">2</Option>
    <Option name="UsePoissonNvars" modified="No">True</Option>
    <Option name="BaggedSampleFraction" modified="No">7.000000e-01</Option>
    <Option name="UseYesNoLeaf" modified="Yes">False</Option>
    <Option name="NegWeightTreatment" modified="No">ignorenegweightsintraining</Option>
    <Option name="Css" modified="No">1.000000e+00</Option>
    <Option name="Cts_sb" modified="No">1.000000e+00</Option>
    <Option name="Ctb_ss" modified="No">1.000000e+00</Option>
    <Option name="Cbb" modified="No">1.000000e+00</Option>
    <Option name="NodePurityLimit" modified="No">5.000000e-01</Option>
    <Option name="SeparationType" modified="Yes">giniindex</Option>
    <Option name="DoBoostMonitor" modified="No">False</Option>
    <Option name="UseFisherCuts" modified="No">False</Option>
    <Option name="MinLinCorrForFisher" modified="No">8.000000e-01</Option>
    <Option name="UseExclusiveVars" modified="No">False</Option>
    <Option name="DoPreselection" modified="No">False</Option>
    <Option name="SigToBkgFraction" modified="No">1.000000e+00</Option>
    <Option name="PruneMethod" modified="Yes">nopruning</Option>
    <Option name="PruneStrength" modified="Yes">5.000000e+00</Option>
    <Option name="PruningValFraction" modified="No">5.000000e-01</Option>
    <Option name="nEventsMin" modified="No">0</Option>
    <Option name="UseBaggedGrad" modified="Yes">False</Option>
    <Option name="GradBaggingFraction" modified="Yes">7.000000e-01</Option>
    <Option name="UseNTrainEvents" modified="No">0</Option>
    <Option name="NNodesMax" modified="No">0</Option>
  </Options>
  <Variables NVar="5">
    <Variable VarIndex="0" Expression="HH_deltaPhi" Label="HH_deltaPhi" Title="HH_deltaPhi" Unit="" Internal="HH_deltaPhi" Type="F" Min="1.65176392e-03" Max="3.14155865e+00"/>
    <Variable VarIndex="1" Expression="tauHMet_deltaPhi" Label="tauHMet_deltaPhi" Title="tauHMet_deltaPhi" Unit="" Internal="tauHMet_deltaPhi" Type="F" Min="6.83069229e-05" Max="3.14153457e+00"/>
    <Variable VarIndex="2" Expression="bHMet_deltaPhi" Label="bHMet_deltaPhi" Title="bHMet_deltaPhi" Unit="" Internal="bHMet_deltaPhi" Type="F" Min="4.13000584e-04" Max="3.14136577e+00"/>
    <Variable VarIndex="3" Expression="ditau_deltaR" Label="ditau_deltaR" Title="ditau_deltaR" Unit="" Internal="ditau_deltaR" Type="F" Min="3.98633838e-01" Max="3.99829340e+00"/>
    <Variable VarIndex="4" Expression="dib_deltaR" Label="dib_deltaR" Title="dib_deltaR" Unit="" Internal="dib_deltaR" Type="F" Min="4.56495613e-01" Max="3.86070418e+00"/>
  </Variables>
  <Spectators NSpec="2">
    <Spectator SpecIndex="0" Expression="HH_mass" Label="HH_mass" Title="F" Unit="" Internal="HH_mass" Type="F" Min="1.39760010e+02" Max="1.08508704e+03"/>
    <Spectator SpecIndex="1" Expression="HHKin_mass" Label="HHKin_mass" Title="F" Unit="" Internal="HHKin_mass" Type="F" Min="0.00000000e+00" Max="1.60012939e+03"/>
  </Spectators>
  <Classes NClass="2">
    <Class Name="Signal" Index="0"/>
    <Class Name="Background" Index="1"/>
  </Classes>
  <Transformations NTransformations="0"/>
  <MVAPdfs>
    <PDF Name="BDTG_ETauKine_PDFSig" MinNSmooth="0" MaxNSmooth="0" InterpolMethod="2" KDE_type="1" KDE_iter="1" KDE_border="1" KDE_finefactor="1.0000000000000000e+00">
      <Histogram Name="BDT_tr_S_original" NBins="195" XMin="-9.7786003351211548e-01" XMax="7.6264888048171997e-01" HasEquidistantBins="1">
        0.00000000e+00 0.00000000e+00 0.00000000e+00 4.05928251e-01 4.05928251e-01 0.00000000e+00 0.00000000e+00 0.00000000e+00 4.05928251e-01 0.00000000e+00 4.05928251e-01 0.00000000e+00 0.00000000e+00 0.00000000e+00 0.00000000e+00 0.00000000e+00 0.00000000e+00 0.00000000e+00 0.00000000e+00 0.00000000e+00 0.00000000e+00 0.00000000e+00 0.00000000e+00 0.00000000e+00 4.05928251e-01 0.00000000e+00 0.00000000e+00 0.00000000e+00 4.05928251e-01 0.00000000e+00 0.00000000e+00 0.00000000e+00 0.00000000e+00 0.00000000e+00 0.00000000e+00 0.00000000e+00 0.00000000e+00 1.21778475e+00 0.00000000e+00 0.00000000e+00 0.00000000e+00 0.00000000e+00 0.00000000e+00 0.00000000e+00 0.00000000e+00 4.05928251e-01 4.05928251e-01 4.05928251e-01 4.05928251e-01 4.05928251e-01 0.00000000e+00 0.00000000e+00 4.05928251e-01 0.00000000e+00 0.00000000e+00 0.00000000e+00 4.05928251e-01 0.00000000e+00 4.05928251e-01 0.00000000e+00 4.05928251e-01 8.11856502e-01 4.05928251e-01 0.00000000e+00 4.05928251e-01 4.05928251e-01 0.00000000e+00 8.11856502e-01 0.00000000e+00 0.00000000e+00 4.05928251e-01 0.00000000e+00 0.00000000e+00 0.00000000e+00 4.05928251e-01 4.05928251e-01 0.00000000e+00 0.00000000e+00 0.00000000e+00 4.05928251e-01 0.00000000e+00 0.00000000e+00 0.00000000e+00 0.00000000e+00 0.00000000e+00 0.00000000e+00 4.05928251e-01 8.11856502e-01 0.00000000e+00 4.05928251e-01 0.00000000e+00 0.00000000e+00 0.00000000e+00 4.05928251e-01 4.05928251e-01 4.05928251e-01 0.00000000e+00 0.00000000e+00 8.11856502e-01 4.05928251e-01 0.00000000e+00 4.05928251e-01 0.00000000e+00 4.05928251e-01 8.11856502e-01 8.11856502e-01 0.00000000e+00 4.05928251e-01 0.00000000e+00 8.11856502e-01 4.05928251e-01 0.00000000e+00 0.00000000e+00 0.00000000e+00 0.00000000e+00 0.00000000e+00 4.05928251e-01 0.00000000e+00 4.05928251e-01 0.00000000e+00 0.00000000e+00 4.05928251e-01 4.05928251e-01 4.05928251e-01 4.05928251e-01 0.00000000e+00 0.00000000e+00 0.00000000e+00 0.00000000e+00 0.00000000e+00 4.05928251e-01 8.11856502e-01 0.00000000e+00 1.21778475e+00 0.00000000e+00 4.05928251e-01 0.00000000e+00 1.21778475e+00 4.05928251e-01 8.11856502e-01 0.00000000e+00 0.00000000e+00 4.05928251e-01 4.05928251e-01 8.11856502e-01 4.05928251e-01 0.00000000e+00 8.11856502e-01 1.21778475e+00 4.05928251e-01 4.05928251e-01 0.00000000e+00 4.05928251e-01 4.05928251e-01 4.05928251e-01 0.00000000e+00 0.00000000e+00 0.00000000e+00 1.21778475e+00 8.11856502e-01 8.11856502e-01 8.11856502e-01 1.21778475e+00 8.11856502e-01 4.05928251e-01 1.21778475e+00 0.00000000e+00 4.05928251e-01 1.21778475e+00 1.21778475e+00 8.11856502e-01 1.21778475e+00 2.02964125e+00 4.05928251e-01 4.05928251e-01 4.05928251e-01 4.05928251e-01 1.21778475e+00 2.02964125e+00 3.65335426e+00 1.21778475e+00 8.11856502e-01 1.62371300e+00 1.21778475e+00 1.21778475e+00 2.84149776e+00 3.65335426e+00 2.02964125e+00 2.43556951e+00 1.21778475e+00 2.84149776e+00 3.24742601e+00 4.05928251e+00 4.46521076e+00 2.27319821e+01 
      </Histogram>
    </PDF>
    <PDF Name="BDTG_ETauKine_PDFBkg" MinNSmooth="0" MaxNSmooth="0" InterpolMethod="2" KDE_type="1" KDE_iter="1" KDE_border="1" KDE_finefactor="1.0000000000000000e+00">
      <Histogram Name="BDT_tr_B_original" NBins="195" XMin="-9.7786003351211548e-01" XMax="7.6264888048171997e-01" HasEquidistantBins="1">
        3.19157768e+00 1.32391370e+00 4.90557310e+00 7.78981367e+00 3.49891479e+00 4.03084440e+00 4.85829047e+00 3.94809980e+00 2.94334386e+00 1.71399542e+00 2.60054478e+00 2.06861516e+00 2.18682174e+00 1.83220200e+00 1.69035410e+00 1.27663107e+00 1.73763674e+00 1.02839725e+00 8.03804749e-01 1.22934844e+00 9.92935278e-01 1.18206581e+00 1.20570712e+00 8.15625407e-01 1.21752778e+00 1.06385923e+00 9.57473304e-01 9.33831988e-01 8.86549356e-01 9.10190672e-01 8.03804749e-01 5.31929613e-01 8.86549356e-01 1.00475594e+00 6.97418827e-01 7.80163433e-01 6.73777510e-01 8.98370014e-01 7.56522117e-01 5.31929613e-01 6.61956852e-01 5.91032904e-01 6.14674220e-01 6.73777510e-01 7.09239485e-01 5.08288297e-01 4.84646981e-01 5.79212246e-01 3.30978426e-01 5.31929613e-01 6.38315536e-01 4.01902375e-01 4.37364349e-01 3.42799084e-01 4.13723033e-01 3.54619742e-01 5.55570930e-01 4.01902375e-01 4.84646981e-01 6.14674220e-01 2.83695794e-01 3.54619742e-01 3.30978426e-01 2.71875136e-01 4.49185007e-01 3.78261058e-01 2.36413162e-01 4.61005665e-01 2.71875136e-01 2.48233820e-01 1.77309871e-01 4.13723033e-01 2.36413162e-01 1.89130529e-01 4.25543691e-01 1.89130529e-01 4.01902375e-01 4.49185007e-01 3.66440400e-01 2.48233820e-01 2.48233820e-01 2.95516452e-01 3.19157768e-01 1.77309871e-01 1.41847897e-01 3.19157768e-01 2.36413162e-01 2.60054478e-01 8.27446065e-02 2.71875136e-01 1.30027239e-01 1.89130529e-01 2.12771845e-01 2.60054478e-01 3.42799084e-01 1.53668555e-01 2.48233820e-01 2.36413162e-01 2.12771845e-01 2.12771845e-01 1.77309871e-01 2.60054478e-01 2.36413162e-01 2.60054478e-01 1.65489213e-01 1.77309871e-01 1.77309871e-01 3.19157768e-01 1.77309871e-01 2.12771845e-01 1.30027239e-01 1.65489213e-01 1.18206581e-01 1.89130529e-01 1.77309871e-01 1.53668555e-01 2.12771845e-01 1.53668555e-01 1.06385923e-01 2.24592503e-01 1.77309871e-01 2.36413162e-01 1.65489213e-01 2.71875136e-01 2.24592503e-01 1.53668555e-01 2.12771845e-01 2.00951187e-01 2.71875136e-01 2.36413162e-01 2.24592503e-01 1.65489213e-01 1.89130529e-01 2.24592503e-01 1.06385923e-01 7.09239485e-02 1.30027239e-01 2.60054478e-01 4.84646981e-01 1.89130529e-01 2.00951187e-01 2.36413162e-01 1.06385923e-01 1.41847897e-01 1.30027239e-01 1.18206581e-01 1.65489213e-01 9.45652646e-02 1.41847897e-01 1.41847897e-01 1.30027239e-01 1.30027239e-01 9.45652646e-02 1.53668555e-01 1.53668555e-01 1.53668555e-01 2.12771845e-01 1.53668555e-01 2.00951187e-01 2.24592503e-01 2.36413162e-01 2.24592503e-01 2.71875136e-01 1.53668555e-01 2.12771845e-01 2.24592503e-01 1.30027239e-01 2.12771845e-01 9.45652646e-02 2.00951187e-01 2.24592503e-01 1.41847897e-01 2.00951187e-01 3.07337110e-01 2.83695794e-01 2.00951187e-01 1.89130529e-01 1.18206581e-01 2.00951187e-01 1.77309871e-01 1.77309871e-01 3.66440400e-01 2.24592503e-01 1.65489213e-01 2.00951187e-01 1.65489213e-01 2.12771845e-01 2.12771845e-01 9.45652646e-02 7.09239485e-02 1.41847897e-01 1.65489213e-01 4.37364349e-01 2.24592503e-01 4.37364349e-01 
      </Histogram>
    </PDF>
  </MVAPdfs>
  <Weights NTrees="300" AnalysisType="1">
    <BinaryTree type="DecisionTree" boostWeight="1.0000000000000000e+00" itree="0">
      <Node pos="s" depth="0" NCoef="0" IVar="3" Cut="1.7640219926834106e+00" cType="1" res="1.0521721509806751e-16" rms="5.0000000000000000e-01" purity="5.0000000000000000e-01" nType="0">
        <Node pos="l" depth="1" NCoef="0" IVar="4" Cut="1.8453367948532104e+00" cType="1" res="2.9132902622222900e-01" rms="4.0635871887207031e-01" purity="7.9132902622222900e-01" nType="0">
          <Node pos="l" depth="2" NCoef="0" IVar="3" Cut="1.4622098207473755e+00" cType="1" res="3.6795309185981750e-01" rms="3.3854177594184875e-01" purity="8.6795306205749512e-01" nType="0">
            <Node pos="l" depth="3" NCoef="0" IVar="-1" Cut="0.0000000000000000e+00" cType="1" res="5.7220575399696827e-03" rms="2.6472002267837524e-01" purity="9.2417371273040771e-01" nType="-99"/>
            <Node pos="r" depth="3" NCoef="0" IVar="-1" Cut="0.0000000000000000e+00" cType="1" res="3.1284538563340902e-03" rms="4.7004577517509460e-01" purity="6.7046099901199341e-01" nType="-99"/>
          </Node>
          <Node pos="r" depth="2" NCoef="0" IVar="0" Cut="2.5039839744567871e+00" cType="1" res="-2.1358722820878029e-02" rms="4.9954360723495483e-01" purity="4.7864130139350891e-01" nType="0">
            <Node pos="l" depth="3" NCoef="0" IVar="-1" Cut="0.0000000000000000e+00" cType="1" res="2.5668728630989790e-04" rms="4.9988305568695068e-01" purity="5.1081359386444092e-01" nType="-99"/>
            <Node pos="r" depth="3" NCoef="0" IVar="-1" Cut="0.0000000000000000e+00" cType="1" res="-1.4401086373254657e-03" rms="4.9712973833084106e-01" purity="4.4650205969810486e-01" nType="-99"/>
          </Node>
        </Node>
        <Node pos="r" depth="1" NCoef="0" IVar="1" Cut="1.3146439790725708e+00" cType="1" res="-3.1604394316673279e-01" rms="3.8744834065437317e-01" purity="1.8395604193210602e-01" nType="0">
          <Node pos="l" depth="2" NCoef="0" IVar="3" Cut="2.1745545864105225e+00" cType="1" res="-1.7551119625568390e-01" rms="4.6818351745605469e-01" purity="3.2448878884315491e-01" nType="0">
            <Node pos="l" depth="3" NCoef="0" IVar="-1" Cut="0.0000000000000000e+00" cType="1" res="-1.1061389523092657e-04" rms="4.9997949600219727e-01" purity="4.9547150731086731e-01" nType="-99"/>
            <Node pos="r" depth="3" NCoef="0" IVar="-1" Cut="0.0000000000000000e+00" cType="1" res="-1.9278943538665771e-02" rms="3.8471671938896179e-01" purity="1.8063648045063019e-01" nType="-99"/>
          </Node>
          <Node pos="r" depth="2" NCoef="0" IVar="3" Cut="2.3003194332122803e+00" cType="1" res="-4.3169069290161133e-01" rms="2.5227591395378113e-01" purity="6.8309292197227478e-02" nType="0">
            <Node pos="l" depth="3" NCoef="0" IVar="-1" Cut="0.0000000000000000e+00" cType="1" res="-3.2033551484346390e-02" rms="3.2487103343009949e-01" purity="1.1992263048887253e-01" nType="-99"/>
            <Node pos="r" depth="3" NCoef="0" IVar="-1" Cut="0.0000000000000000e+00" cType="1" res="-9.2839956283569336e-02" rms="1.7548258602619171e-01" purity="3.1805746257305145e-02" nType="-99"/>
          </Node>
        </Node>
      </Node>
    </BinaryTree>
    <BinaryTree type="DecisionTree" boostWeight="1.0000000000000000e+00" itree="1">
      <Node pos="s" depth="0" NCoef="0" IVar="3" Cut="1.7640219926834106e+00" cType="1" res="8.9727183803915977e-03" rms="4.9062988162040710e-01" purity="5.0000000000000000e-01" nType="0">
        <Node pos="l" depth="1" NCoef="0" IVar="4" Cut="1.8453367948532104e+00" cType="1" res="2.8932017087936401e-01" rms="4.0580686926841736e-01" purity="7.9132902622222900e-01" nType="0">
          <Node pos="l" depth="2" NCoef="0" IVar="3" Cut="1.4622098207473755e+00" cType="1" res="3.6537945270538330e-01" rms="3.3837452530860901e-01" purity="8.6795306205749512e-01" nType="0">
            <Node pos="l" depth="3" NCoef="0" IVar="-1" Cut="0.0000000000000000e+00" cType="1" res="5.6836488656699657e-03" rms="2.6472002267837524e-01" purity="9.2417371273040771e-01" nType="-99"/>
            <Node pos="r" depth="3" NCoef="0" IVar="-1" Cut="0.0000000000000000e+00" cType="1" res="3.0997761059552431e-03" rms="4.7004577517509460e-01" purity="6.7046099901199341e-01" nType="-99"/>
          </Node>
          <Node pos="r" depth="2" NCoef="0" IVar="0" Cut="2.5039839744567871e+00" cType="1" res="-2.1062649786472321e-02" rms="4.9951645731925964e-01" purity="4.7864130139350891e-01" nType="0">
            <Node pos="l" depth="3" NCoef="0" IVar="-1" Cut="0.0000000000000000e+00" cType="1" res="2.5364110479131341e-04" rms="4.9988305568695068e-01" purity="5.1081359386444092e-01" nType="-99"/>
            <Node pos="r" depth="3" NCoef="0" IVar="-1" Cut="0.0000000000000000e+00" cType="1" res="-1.4207288622856140e-03" rms="4.9712970852851868e-01" purity="4.4650205969810486e-01" nType="-99"/>
          </Node>
        </Node>
        <Node pos="r" depth="1" NCoef="0" IVar="1" Cut="1.3146439790725708e+00" cType="1" res="-2.9515805840492249e-01" rms="3.8137784600257874e-01" purity="1.8395604193210602e-01" nType="0">
          <Node pos="l" depth="2" NCoef="0" IVar="3" Cut="2.1745545864105225e+00" cType="1" res="-1.7025150358676910e-01" rms="4.6660614013671875e-01" purity="3.2448878884315491e-01" nType="0">
            <Node pos="l" depth="3" NCoef="0" IVar="-1" Cut="0.0000000000000000e+00" cType="1" res="-1.0926280810963362e-04" rms="4.9997949600219727e-01" purity="4.9547150731086731e-01" nType="-99"/>
            <Node pos="r" depth="3" NCoef="0" IVar="-1" Cut="0.0000000000000000e+00" cType="1" res="-1.8704062327742577e-02" rms="3.8471668958663940e-01" purity="1.8063648045063019e-01" nType="-99"/>
          </Node>
          <Node pos="r" depth="2" NCoef="0" IVar="4" Cut="1.8053861856460571e+00" cType="1" res="-3.9794576168060303e-01" rms="2.5014171004295349e-01" purity="6.8309292197227478e-02" nType="0">
            <Node pos="l" depth="3" NCoef="0" IVar="-1" Cut="0.0000000000000000e+00" cType="1" res="-2.4522231891751289e-02" rms="3.4274008870124817e-01" purity="1.4078110456466675e-01" nType="-99"/>
            <Node pos="r" depth="3" NCoef="0" IVar="-1" Cut="0.0000000000000000e+00" cType="1" res="-6.6759258508682251e-02" rms="2.1298076212406158e-01" purity="4.7802623361349106e-02" nType="-99"/>
          </Node>
        </Node>
      </Node>
    </BinaryTree>
    <BinaryTree type="DecisionTree" boostWeight="1.0000000000000000e+00" itree="2">
      <Node pos="s" depth="0" NCoef="0" IVar="3" Cut="1.7640219926834106e+00" cType="1" res="1.6511004418134689e-02" rms="4.8285391926765442e-01" purity="5.0000000000000000e-01" nType="0">
        <Node pos="l" depth="1" NCoef="0" IVar="4" Cut="1.8453367948532104e+00" cType="1" res="2.8732523322105408e-01" rms="4.0526202321052551e-01" purity="7.9132902622222900e-01" nType="0">
          <Node pos="l" depth="2" NCoef="0" IVar="3" Cut="1.4622098207473755e+00" cType="1" res="3.6282405257225037e-01" rms="3.3820870518684387e-01" purity="8.6795306205749512e-01" nType="0">
            <Node pos="l" depth="3" NCoef="0" IVar="-1" Cut="0.0000000000000000e+00" cType="1" res="5.6458641774952412e-03" rms="2.6472002267837524e-01" purity="9.2417371273040771e-01" nType="-99"/>
            <Node pos="r" depth="3" NCoef="0" IVar="-1" Cut="0.0000000000000000e+00" cType="1" res="3.0714203603565693e-03" rms="4.7004580497741699e-01" purity="6.7046099901199341e-01" nType="-99"/>
          </Node>
          <Node pos="r" depth="2" NCoef="0" IVar="0" Cut="2.5039839744567871e+00" cType="1" res="-2.0770668983459473e-02" rms="4.9949005246162415e-01" purity="4.7864130139350891e-01" nType="0">
            <Node pos="l" depth="3" NCoef="0" IVar="-1" Cut="0.0000000000000000e+00" cType="1" res="2.5063031353056431e-04" rms="4.9988305568695068e-01" purity="5.1081359386444092e-01" nType="-99"/>
            <Node pos="r" depth="3" NCoef="0" IVar="-1" Cut="0.0000000000000000e+00" cType="1" res="-1.4016149798408151e-03" rms="4.9712970852851868e-01" purity="4.4650205969810486e-01" nType="-99"/>
          </Node>
        </Node>
        <Node pos="r" depth="1" NCoef="0" IVar="1" Cut="7.5433468818664551e-01" cType="1" res="-2.7727779746055603e-01" rms="3.7686935067176819e-01" purity="1.8395604193210602e-01" nType="0">
          <Node pos="l" depth="2" NCoef="0" IVar="3" Cut="2.3440999984741211e+00" cType="1" res="-1.0040598362684250e-01" rms="4.8471537232398987e-01" purity="3.8944724202156067e-01" nType="0">
            <Node pos="l" depth="3" NCoef="0" IVar="-1" Cut="0.0000000000000000e+00" cType="1" res="6.4282747916877270e-04" rms="4.9858173727989197e-01" purity="5.2357500791549683e-01" nType="-99"/>
            <Node pos="r" depth="3" NCoef="0" IVar="-1" Cut="0.0000000000000000e+00" cType="1" res="-1.6545660793781281e-02" rms="3.9414453506469727e-01" purity="1.9234746694564819e-01" nType="-99"/>
          </Node>
          <Node pos="r" depth="2" NCoef="0" IVar="3" Cut="2.2164311408996582e+00" cType="1" res="-3.4020534157752991e-01" rms="3.0640158057212830e-01" purity="1.1084624379873276e-01" nType="0">
            <Node pos="l" depth="3" NCoef="0" IVar="-1" Cut="0.0000000000000000e+00" cType="1" res="-1.3959903270006180e-02" rms="3.9988842606544495e-01" purity="2.0912699401378632e-01" nType="-99"/>
            <Node pos="r" depth="3" NCoef="0" IVar="-1" Cut="0.0000000000000000e+00" cType="1" res="-5.9667073190212250e-02" rms="2.1953520178794861e-01" purity="5.1765270531177521e-02" nType="-99"/>
          </Node>
        </Node>
      </Node>
    </BinaryTree>
    <BinaryTree type="DecisionTree" boostWeight="1.0000000000000000e+00" itree="3">
      <Node pos="s" depth="0" NCoef="0" IVar="3" Cut="1.7640219926834106e+00" cType="1" res="2.3223355412483215e-02" rms="4.7597840428352356e-01" purity="5.0000000000000000e-01" nType="0">
        <Node pos="l" depth="1" NCoef="0" IVar="4" Cut="1.8453367948532104e+00" cType="1" res="2.8534406423568726e-01" rms="4.0472409129142761e-01" purity="7.9132902622222900e-01" nType="0">
          <Node pos="l" depth="2" NCoef="0" IVar="3" Cut="1.4622098207473755e+00" cType="1" res="3.6028686165809631e-01" rms="3.3804428577423096e-01" purity="8.6795306205749512e-01" nType="0">
            <Node pos="l" depth="3" NCoef="0" IVar="-1" Cut="0.0000000000000000e+00" cType="1" res="5.6086871773004532e-03" rms="2.6472002267837524e-01" purity="9.2417371273040771e-01" nType="-99"/>
            <Node pos="r" depth="3" NCoef="0" IVar="-1" Cut="0.0000000000000000e+00" cType="1" res="3.0433814972639084e-03" rms="4.7004577517509460e-01" purity="6.7046099901199341e-01" nType="-99"/>
          </Node>
          <Node pos="r" depth="2" NCoef="0" IVar="0" Cut="2.5039839744567871e+00" cType="1" res="-2.0482702180743217e-02" rms="4.9946433305740356e-01" purity="4.7864130139350891e-01" nType="0">
            <Node pos="l" depth="3" NCoef="0" IVar="-1" Cut="0.0000000000000000e+00" cType="1" res="2.4765598936937749e-04" rms="4.9988302588462830e-01" purity="5.1081359386444092e-01" nType="-99"/>
            <Node pos="r" depth="3" NCoef="0" IVar="-1" Cut="0.0000000000000000e+00" cType="1" res="-1.3827634975314140e-03" rms="4.9712973833084106e-01" purity="4.4650205969810486e-01" nType="-99"/>
          </Node>
        </Node>
        <Node pos="r" depth="1" NCoef="0" IVar="1" Cut="7.5433468818664551e-01" cType="1" res="-2.6113441586494446e-01" rms="3.7314563989639282e-01" purity="1.8395604193210602e-01" nType="0">
          <Node pos="l" depth="2" NCoef="0" IVar="3" Cut="2.1487360000610352e+00" cType="1" res="-9.7254395484924316e-02" rms="4.8338294029235840e-01" purity="3.8944724202156067e-01" nType="0">
            <Node pos="l" depth="3" NCoef="0" IVar="-1" Cut="0.0000000000000000e+00" cType="1" res="1.4714668504893780e-03" rms="4.9524292349815369e-01" purity="5.6880736351013184e-01" nType="-99"/>
            <Node pos="r" depth="3" NCoef="0" IVar="-1" Cut="0.0000000000000000e+00" cType="1" res="-1.1252047494053841e-02" rms="4.2593064904212952e-01" purity="2.3882897198200226e-01" nType="-99"/>
          </Node>
          <Node pos="r" depth="2" NCoef="0" IVar="3" Cut="2.2164311408996582e+00" cType="1" res="-3.1943973898887634e-01" rms="3.0444994568824768e-01" purity="1.1084624379873276e-01" nType="0">
            <Node pos="l" depth="3" NCoef="0" IVar="-1" Cut="0.0000000000000000e+00" cType="1" res="-1.3605043292045593e-02" rms="3.9989840984344482e-01" purity="2.0912699401378632e-01" nType="-99"/>
            <Node pos="r" depth="3" NCoef="0" IVar="-1" Cut="0.0000000000000000e+00" cType="1" res="-5.6067407131195068e-02" rms="2.1954193711280823e-01" purity="5.1765270531177521e-02" nType="-99"/>
          </Node>
        </Node>
      </Node>
    </BinaryTree>
    <BinaryTree type="DecisionTree" boostWeight="1.0000000000000000e+00" itree="4">
      <Node pos="s" depth="0" NCoef="0" IVar="3" Cut="1.7640219926834106e+00" cType="1" res="2.9352134093642235e-02" rms="4.6979936957359314e-01" purity="5.0000000000000000e-01" nType="0">
        <Node pos="l" depth="1" NCoef="0" IVar="4" Cut="1.8453367948532104e+00" cType="1" res="2.8337657451629639e-01" rms="4.0419295430183411e-01" purity="7.9132902622222900e-01" nType="0">
          <Node pos="l" depth="2" NCoef="0" IVar="3" Cut="1.4622098207473755e+00" cType="1" res="3.5776764154434204e-01" rms="3.3788126707077026e-01" purity="8.6795306205749512e-01" nType="0">
            <Node pos="l" depth="3" NCoef="0" IVar="-1" Cut="0.0000000000000000e+00" cType="1" res="5.5721015669405460e-03" rms="2.6471999287605286e-01" purity="9.2417371273040771e-01" nType="-99"/>
            <Node pos="r" depth="3" NCoef="0" IVar="-1" Cut="0.0000000000000000e+00" cType="1" res="3.0156536959111691e-03" rms="4.7004580497741699e-01" purity="6.7046099901199341e-01" nType="-99"/>
          </Node>
          <Node pos="r" depth="2" NCoef="0" IVar="0" Cut="2.5039839744567871e+00" cType="1" res="-2.0198736339807510e-02" rms="4.9943926930427551e-01" purity="4.7864130139350891e-01" nType="0">
            <Node pos="l" depth="3" NCoef="0" IVar="-1" Cut="0.0000000000000000e+00" cType="1" res="2.4471635697409511e-04" rms="4.9988305568695068e-01" purity="5.1081359386444092e-01" nType="-99"/>
            <Node pos="r" depth="3" NCoef="0" IVar="-1" Cut="0.0000000000000000e+00" cType="1" res="-1.3641712721437216e-03" rms="4.9712973833084106e-01" purity="4.4650205969810486e-01" nType="-99"/>
          </Node>
        </Node>
        <Node pos="r" depth="1" NCoef="0" IVar="1" Cut="1.3146439790725708e+00" cType="1" res="-2.4622249603271484e-01" rms="3.7009632587432861e-01" purity="1.8395604193210602e-01" nType="0">
          <Node pos="l" depth="2" NCoef="0" IVar="3" Cut="2.1745545864105225e+00" cType="1" res="-1.4627510309219360e-01" rms="4.5903399586677551e-01" purity="3.2448878884315491e-01" nType="0">
            <Node pos="l" depth="3" NCoef="0" IVar="-1" Cut="0.0000000000000000e+00" cType="1" res="1.5109383639355656e-05" rms="4.9889236688613892e-01" purity="4.9547150731086731e-01" nType="-99"/>
            <Node pos="r" depth="3" NCoef="0" IVar="-1" Cut="0.0000000000000000e+00" cType="1" res="-1.6433048993349075e-02" rms="3.8100117444992065e-01" purity="1.8063648045063019e-01" nType="-99"/>
          </Node>
          <Node pos="r" depth="2" NCoef="0" IVar="0" Cut="2.6833612918853760e+00" cType="1" res="-3.2847088575363159e-01" rms="2.4759513139724731e-01" purity="6.8309292197227478e-02" nType="0">
            <Node pos="l" depth="3" NCoef="0" IVar="-1" Cut="0.0000000000000000e+00" cType="1" res="-5.7565916329622269e-02" rms="2.1363662183284760e-01" purity="4.7864127904176712e-02" nType="-99"/>
            <Node pos="r" depth="3" NCoef="0" IVar="-1" Cut="0.0000000000000000e+00" cType="1" res="-2.0448161289095879e-02" rms="3.3455857634544373e-01" purity="1.4014466106891632e-01" nType="-99"/>
          </Node>
        </Node>
      </Node>
    </BinaryTree>
    <BinaryTree type="DecisionTree" boostWeight="1.0000000000000000e+00" itree="5">
      <Node pos="s" depth="0" NCoef="0" IVar="3" Cut="1.7640219926834106e+00" cType="1" res="3.5383395850658417e-02" rms="4.6373462677001953e-01" purity="5.0000000000000000e-01" nType="0">
        <Node pos="l" depth="1" NCoef="0" IVar="4" Cut="1.5846607685089111e+00" cType="1" res="2.8142264485359192e-01" rms="4.0366852283477783e-01" purity="7.9132902622222900e-01" nType="0">
          <Node pos="l" depth="2" NCoef="0" IVar="-1" Cut="0.0000000000000000e+00" cType="1" res="5.3533785976469517e-03" rms="3.0069035291671753e-01" purity="8.9895784854888916e-01" nType="-99"/>
          <Node pos="r" depth="2" NCoef="0" IVar="1" Cut="1.1194244623184204e+00" cType="1" res="6.8194992840290070e-02" rms="4.9282860755920410e-01" purity="5.7213163375854492e-01" nType="0">
            <Node pos="l" depth="3" NCoef="0" IVar="-1" Cut="0.0000000000000000e+00" cType="1" res="3.8280806038528681e-03" rms="4.4142255187034607e-01" purity="7.3164337873458862e-01" nType="-99"/>
            <Node pos="r" depth="3" NCoef="0" IVar="-1" Cut="0.0000000000000000e+00" cType="1" res="-1.7582887783646584e-02" rms="3.9451482892036438e-01" purity="1.9314642250537872e-01" nType="-99"/>
          </Node>
        </Node>
        <Node pos="r" depth="1" NCoef="0" IVar="1" Cut="7.5433468818664551e-01" cType="1" res="-2.3152863979339600e-01" rms="3.6695840954780579e-01" purity="1.8395604193210602e-01" nType="0">
          <Node pos="l" depth="2" NCoef="0" IVar="3" Cut="2.3440999984741211e+00" cType="1" res="-9.0197153389453888e-02" rms="4.8123770952224731e-01" purity="3.8944724202156067e-01" nType="0">
            <Node pos="l" depth="3" NCoef="0" IVar="-1" Cut="0.0000000000000000e+00" cType="1" res="6.9333543069660664e-04" rms="4.9786517024040222e-01" purity="5.2357500791549683e-01" nType="-99"/>
            <Node pos="r" depth="3" NCoef="0" IVar="-1" Cut="0.0000000000000000e+00" cType="1" res="-1.5364203602075577e-02" rms="3.9414453506469727e-01" purity="1.9234746694564819e-01" nType="-99"/>
          </Node>
          <Node pos="r" depth="2" NCoef="0" IVar="4" Cut="1.8498165607452393e+00" cType="1" res="-2.8181165456771851e-01" rms="3.0089408159255981e-01" purity="1.1084624379873276e-01" nType="0">
            <Node pos="l" depth="3" NCoef="0" IVar="-1" Cut="0.0000000000000000e+00" cType="1" res="-1.1205703020095825e-02" rms="3.9142957329750061e-01" purity="2.1011470258235931e-01" nType="-99"/>
            <Node pos="r" depth="3" NCoef="0" IVar="-1" Cut="0.0000000000000000e+00" cType="1" res="-4.0340494364500046e-02" rms="2.4977420270442963e-01" purity="7.1130581200122833e-02" nType="-99"/>
          </Node>
        </Node>
      </Node>
    </BinaryTree>
    <BinaryTree type="DecisionTree" boostWeight="1.0000000000000000e+00" itree="6">
      <Node pos="s" depth="0" NCoef="0" IVar="3" Cut="1.4815899133682251e+00" cType="1" res="4.0298547595739365e-02" rms="4.5859184861183167e-01" purity="5.0000000000000000e-01" nType="0">
        <Node pos="l" depth="1" NCoef="0" IVar="4" Cut="1.5842697620391846e+00" cType="1" res="3.6127877235412598e-01" rms="3.2734665274620056e-01" purity="8.7536513805389404e-01" nType="0">
          <Node pos="l" depth="2" NCoef="0" IVar="-1" Cut="0.0000000000000000e+00" cType="1" res="5.6002773344516754e-03" rms="2.4324318766593933e-01" purity="9.3679749965667725e-01" nType="-99"/>
          <Node pos="r" depth="2" NCoef="0" IVar="-1" Cut="0.0000000000000000e+00" cType="1" res="3.2325731590390205e-03" rms="4.5979031920433044e-01" purity="6.8615216016769409e-01" nType="-99"/>
        </Node>
        <Node pos="r" depth="1" NCoef="0" IVar="1" Cut="8.0545169115066528e-01" cType="1" res="-1.5553671121597290e-01" rms="4.1476464271545410e-01" purity="2.7098363637924194e-01" nType="0">
          <Node pos="l" depth="2" NCoef="0" IVar="3" Cut="1.9445227384567261e+00" cType="1" res="3.5219974815845490e-02" rms="4.8858836293220520e-01" purity="5.2172821760177612e-01" nType="0">
            <Node pos="l" depth="3" NCoef="0" IVar="-1" Cut="0.0000000000000000e+00" cType="1" res="3.6889261100441217e-03" rms="4.4813504815101624e-01" purity="7.1959143877029419e-01" nType="-99"/>
            <Node pos="r" depth="3" NCoef="0" IVar="-1" Cut="0.0000000000000000e+00" cType="1" res="-7.1271089836955070e-03" rms="4.4763264060020447e-01" purity="2.8845101594924927e-01" nType="-99"/>
          </Node>
          <Node pos="r" depth="2" NCoef="0" IVar="4" Cut="1.5289303064346313e+00" cType="1" res="-2.5287103652954102e-01" rms="3.3160263299942017e-01" purity="1.4304025471210480e-01" nType="0">
            <Node pos="l" depth="3" NCoef="0" IVar="-1" Cut="0.0000000000000000e+00" cType="1" res="-2.3900559172034264e-03" rms="4.6095806360244751e-01" purity="3.7237235903739929e-01" nType="-99"/>
            <Node pos="r" depth="3" NCoef="0" IVar="-1" Cut="0.0000000000000000e+00" cType="1" res="-3.0169807374477386e-02" rms="2.8449559211730957e-01" purity="9.5826894044876099e-02" nType="-99"/>
          </Node>
        </Node>
      </Node>
    </BinaryTree>
    <BinaryTree type="DecisionTree" boostWeight="1.0000000000000000e+00" itree="7">
      <Node pos="s" depth="0" NCoef="0" IVar="3" Cut="1.4815899133682251e+00" cType="1" res="4.4327076524496078e-02" rms="4.5424190163612366e-01" purity="5.0000000000000000e-01" nType="0">
        <Node pos="l" depth="1" NCoef="0" IVar="4" Cut="1.5842697620391846e+00" cType="1" res="3.5877177119255066e-01" rms="3.2718676328659058e-01" purity="8.7536513805389404e-01" nType="0">
          <Node pos="l" depth="2" NCoef="0" IVar="-1" Cut="0.0000000000000000e+00" cType="1" res="5.5652544833719730e-03" rms="2.4324321746826172e-01" purity="9.3679749965667725e-01" nType="-99"/>
          <Node pos="r" depth="2" NCoef="0" IVar="-1" Cut="0.0000000000000000e+00" cType="1" res="3.2039617653936148e-03" rms="4.5979052782058716e-01" purity="6.8615216016769409e-01" nType="-99"/>
        </Node>
        <Node pos="r" depth="1" NCoef="0" IVar="1" Cut="8.0545169115066528e-01" cType="1" res="-1.4752075076103210e-01" rms="4.1204330325126648e-01" purity="2.7098363637924194e-01" nType="0">
          <Node pos="l" depth="2" NCoef="0" IVar="3" Cut="1.9445227384567261e+00" cType="1" res="3.5845223814249039e-02" rms="4.8752564191818237e-01" purity="5.2172821760177612e-01" nType="0">
            <Node pos="l" depth="3" NCoef="0" IVar="-1" Cut="0.0000000000000000e+00" cType="1" res="3.6576187703758478e-03" rms="4.4813504815101624e-01" purity="7.1959143877029419e-01" nType="-99"/>
            <Node pos="r" depth="3" NCoef="0" IVar="-1" Cut="0.0000000000000000e+00" cType="1" res="-6.9900746457278728e-03" rms="4.4763785600662231e-01" purity="2.8845101594924927e-01" nType="-99"/>
          </Node>
          <Node pos="r" depth="2" NCoef="0" IVar="4" Cut="1.5289303064346313e+00" cType="1" res="-2.4108393490314484e-01" rms="3.3048796653747559e-01" purity="1.4304025471210480e-01" nType="0">
            <Node pos="l" depth="3" NCoef="0" IVar="-1" Cut="0.0000000000000000e+00" cType="1" res="-2.3530935868620872e-03" rms="4.6096920967102051e-01" purity="3.7237235903739929e-01" nType="-99"/>
            <Node pos="r" depth="3" NCoef="0" IVar="-1" Cut="0.0000000000000000e+00" cType="1" res="-2.9000844806432724e-02" rms="2.8453367948532104e-01" purity="9.5826894044876099e-02" nType="-99"/>
          </Node>
        </Node>
      </Node>
    </BinaryTree>
    <BinaryTree type="DecisionTree" boostWeight="1.0000000000000000e+00" itree="8">
      <Node pos="s" depth="0" NCoef="0" IVar="3" Cut="1.4815899133682251e+00" cType="1" res="4.8104062676429749e-02" rms="4.5015519857406616e-01" purity="5.0000000000000000e-01" nType="0">
        <Node pos="l" depth="1" NCoef="0" IVar="4" Cut="1.5842697620391846e+00" cType="1" res="3.5628244280815125e-01" rms="3.2702815532684326e-01" purity="8.7536513805389404e-01" nType="0">
          <Node pos="l" depth="2" NCoef="0" IVar="-1" Cut="0.0000000000000000e+00" cType="1" res="5.5307806469500065e-03" rms="2.4324323236942291e-01" purity="9.3679749965667725e-01" nType="-99"/>
          <Node pos="r" depth="2" NCoef="0" IVar="-1" Cut="0.0000000000000000e+00" cType="1" res="3.1756646931171417e-03" rms="4.5979085564613342e-01" purity="6.8615216016769409e-01" nType="-99"/>
        </Node>
        <Node pos="r" depth="1" NCoef="0" IVar="1" Cut="8.0545169115066528e-01" cType="1" res="-1.3992057740688324e-01" rms="4.0954208374023438e-01" purity="2.7098363637924194e-01" nType="0">
          <Node pos="l" depth="2" NCoef="0" IVar="3" Cut="1.9445227384567261e+00" cType="1" res="3.6446113139390945e-02" rms="4.8649254441261292e-01" purity="5.2172821760177612e-01" nType="0">
            <Node pos="l" depth="3" NCoef="0" IVar="-1" Cut="0.0000000000000000e+00" cType="1" res="3.6266713868826628e-03" rms="4.4813507795333862e-01" purity="7.1959143877029419e-01" nType="-99"/>
            <Node pos="r" depth="3" NCoef="0" IVar="-1" Cut="0.0000000000000000e+00" cType="1" res="-6.8562785163521767e-03" rms="4.4764342904090881e-01" purity="2.8845101594924927e-01" nType="-99"/>
          </Node>
          <Node pos="r" depth="2" NCoef="0" IVar="4" Cut="1.5289303064346313e+00" cType="1" res="-2.2991235554218292e-01" rms="3.2950344681739807e-01" purity="1.4304025471210480e-01" nType="0">
            <Node pos="l" depth="3" NCoef="0" IVar="-1" Cut="0.0000000000000000e+00" cType="1" res="-2.3167305625975132e-03" rms="4.6098038554191589e-01" purity="3.7237235903739929e-01" nType="-99"/>
            <Node pos="r" depth="3" NCoef="0" IVar="-1" Cut="0.0000000000000000e+00" cType="1" res="-2.7917522937059402e-02" rms="2.8457823395729065e-01" purity="9.5826894044876099e-02" nType="-99"/>
          </Node>
        </Node>
      </Node>
    </BinaryTree>
    <BinaryTree type="DecisionTree" boostWeight="1.0000000000000000e+00" itree="9">
      <Node pos="s" depth="0" NCoef="0" IVar="3" Cut="1.4815899133682251e+00" cType="1" res="5.1645226776599884e-02" rms="4.4631192088127136e-01" purity="5.0000000000000000e-01" nType="0">
        <Node pos="l" depth="1" NCoef="0" IVar="4" Cut="1.5842697620391846e+00" cType="1" res="3.5381063818931580e-01" rms="3.2687088847160339e-01" purity="8.7536513805389404e-01" nType="0">
          <Node pos="l" depth="2" NCoef="0" IVar="-1" Cut="0.0000000000000000e+00" cType="1" res="5.4968423210084438e-03" rms="2.4324327707290649e-01" purity="9.3679749965667725e-01" nType="-99"/>
          <Node pos="r" depth="2" NCoef="0" IVar="-1" Cut="0.0000000000000000e+00" cType="1" res="3.1476765871047974e-03" rms="4.5979127287864685e-01" purity="6.8615216016769409e-01" nType="-99"/>
        </Node>
        <Node pos="r" depth="1" NCoef="0" IVar="1" Cut="8.0545169115066528e-01" cType="1" res="-1.3271079957485199e-01" rms="4.0724101662635803e-01" purity="2.7098363637924194e-01" nType="0">
          <Node pos="l" depth="2" NCoef="0" IVar="3" Cut="1.9445227384567261e+00" cType="1" res="3.7023268640041351e-02" rms="4.8548823595046997e-01" purity="5.2172821760177612e-01" nType="0">
            <Node pos="l" depth="3" NCoef="0" IVar="-1" Cut="0.0000000000000000e+00" cType="1" res="3.5960779059678316e-03" rms="4.4813513755798340e-01" purity="7.1959143877029419e-01" nType="-99"/>
            <Node pos="r" depth="3" NCoef="0" IVar="-1" Cut="0.0000000000000000e+00" cType="1" res="-6.7255985923111439e-03" rms="4.4764932990074158e-01" purity="2.8845101594924927e-01" nType="-99"/>
          </Node>
          <Node pos="r" depth="2" NCoef="0" IVar="4" Cut="1.5289303064346313e+00" cType="1" res="-2.1931824088096619e-01" rms="3.2863521575927734e-01" purity="1.4304025471210480e-01" nType="0">
            <Node pos="l" depth="3" NCoef="0" IVar="-1" Cut="0.0000000000000000e+00" cType="1" res="-2.2809552028775215e-03" rms="4.6099159121513367e-01" purity="3.7237235903739929e-01" nType="-99"/>
            <Node pos="r" depth="3" NCoef="0" IVar="-1" Cut="0.0000000000000000e+00" cType="1" res="-2.6908755302429199e-02" rms="2.8462883830070496e-01" purity="9.5826894044876099e-02" nType="-99"/>
          </Node>
        </Node>
      </Node>
    </BinaryTree>
    <BinaryTree type="DecisionTree" boostWeight="1.0000000000000000e+00" itree="10">
      <Node pos="s" depth="0" NCoef="0" IVar="3" Cut="1.4815899133682251e+00" cType="1" res="5.4965075105428696e-02" rms="4.4269394874572754e-01" purity="5.0000000000000000e-01" nType="0">
        <Node pos="l" depth="1" NCoef="0" IVar="4" Cut="1.5842697620391846e+00" cType="1" res="3.5135623812675476e-01" rms="3.2671490311622620e-01" purity="8.7536513805389404e-01" nType="0">
          <Node pos="l" depth="2" NCoef="0" IVar="-1" Cut="0.0000000000000000e+00" cType="1" res="5.4634264670312405e-03" rms="2.4324333667755127e-01" purity="9.3679749965667725e-01" nType="-99"/>
          <Node pos="r" depth="2" NCoef="0" IVar="-1" Cut="0.0000000000000000e+00" cType="1" res="3.1199913937598467e-03" rms="4.5979174971580505e-01" purity="6.8615216016769409e-01" nType="-99"/>
        </Node>
        <Node pos="r" depth="1" NCoef="0" IVar="3" Cut="1.9018203020095825e+00" cType="1" res="-1.2586799263954163e-01" rms="4.0512210130691528e-01" purity="2.7098363637924194e-01" nType="0">
          <Node pos="l" depth="2" NCoef="0" IVar="1" Cut="7.0810431241989136e-01" cType="1" res="4.2280543595552444e-02" rms="4.7714820504188538e-01" purity="5.1574099063873291e-01" nType="0">
            <Node pos="l" depth="3" NCoef="0" IVar="-1" Cut="0.0000000000000000e+00" cType="1" res="3.8736914284527302e-03" rms="4.3469730019569397e-01" purity="7.4594295024871826e-01" nType="-99"/>
            <Node pos="r" depth="3" NCoef="0" IVar="-1" Cut="0.0000000000000000e+00" cType="1" res="-4.3923272751271725e-03" rms="4.5108795166015625e-01" purity="3.2169809937477112e-01" nType="-99"/>
          </Node>
          <Node pos="r" depth="2" NCoef="0" IVar="1" Cut="1.2942404747009277e+00" cType="1" res="-2.0928043127059937e-01" rms="3.3409202098846436e-01" purity="1.4956830441951752e-01" nType="0">
            <Node pos="l" depth="3" NCoef="0" IVar="-1" Cut="0.0000000000000000e+00" cType="1" res="-5.8945664204657078e-03" rms="4.3862611055374146e-01" purity="2.8465637564659119e-01" nType="-99"/>
            <Node pos="r" depth="3" NCoef="0" IVar="-1" Cut="0.0000000000000000e+00" cType="1" res="-4.7585152089595795e-02" rms="2.1251587569713593e-01" purity="4.8222225159406662e-02" nType="-99"/>
          </Node>
        </Node>
      </Node>
    </BinaryTree>
    <BinaryTree type="DecisionTree" boostWeight="1.0000000000000000e+00" itree="11">
      <Node pos="s" depth="0" NCoef="0" IVar="3" Cut="1.4815899133682251e+00" cType="1" res="5.9288259595632553e-02" rms="4.3837580084800720e-01" purity="5.0000000000000000e-01" nType="0">
        <Node pos="l" depth="1" NCoef="0" IVar="4" Cut="1.5842697620391846e+00" cType="1" res="3.4891912341117859e-01" rms="3.2656019926071167e-01" purity="8.7536513805389404e-01" nType="0">
          <Node pos="l" depth="2" NCoef="0" IVar="-1" Cut="0.0000000000000000e+00" cType="1" res="5.4305195808410645e-03" rms="2.4324336647987366e-01" purity="9.3679749965667725e-01" nType="-99"/>
          <Node pos="r" depth="2" NCoef="0" IVar="-1" Cut="0.0000000000000000e+00" cType="1" res="3.0926046893000603e-03" rms="4.5979231595993042e-01" purity="6.8615216016769409e-01" nType="-99"/>
        </Node>
        <Node pos="r" depth="1" NCoef="0" IVar="3" Cut="1.9018203020095825e+00" cType="1" res="-1.1742023378610611e-01" rms="4.0243205428123474e-01" purity="2.7098363637924194e-01" nType="0">
          <Node pos="l" depth="2" NCoef="0" IVar="1" Cut="7.0810431241989136e-01" cType="1" res="4.2555380612611771e-02" rms="4.7641116380691528e-01" purity="5.1574099063873291e-01" nType="0">
            <Node pos="l" depth="3" NCoef="0" IVar="-1" Cut="0.0000000000000000e+00" cType="1" res="3.8424080703407526e-03" rms="4.3469744920730591e-01" purity="7.4594295024871826e-01" nType="-99"/>
            <Node pos="r" depth="3" NCoef="0" IVar="-1" Cut="0.0000000000000000e+00" cType="1" res="-4.3159774504601955e-03" rms="4.5109936594963074e-01" purity="3.2169809937477112e-01" nType="-99"/>
          </Node>
          <Node pos="r" depth="2" NCoef="0" IVar="4" Cut="2.1764631271362305e+00" cType="1" res="-1.9677837193012238e-01" rms="3.3272564411163330e-01" purity="1.4956830441951752e-01" nType="0">
            <Node pos="l" depth="3" NCoef="0" IVar="-1" Cut="0.0000000000000000e+00" cType="1" res="-7.4630593881011009e-03" rms="3.9525201916694641e-01" purity="2.2951239347457886e-01" nType="-99"/>
            <Node pos="r" depth="3" NCoef="0" IVar="-1" Cut="0.0000000000000000e+00" cType="1" res="-3.4213989973068237e-02" rms="2.4615432322025299e-01" purity="7.0472337305545807e-02" nType="-99"/>
          </Node>
        </Node>
      </Node>
    </BinaryTree>
    <BinaryTree type="DecisionTree" boostWeight="1.0000000000000000e+00" itree="12">
      <Node pos="s" depth="0" NCoef="0" IVar="3" Cut="1.4815899133682251e+00" cType="1" res="6.2109142541885376e-02" rms="4.3518966436386108e-01" purity="5.0000000000000000e-01" nType="0">
        <Node pos="l" depth="1" NCoef="0" IVar="4" Cut="1.5842697620391846e+00" cType="1" res="3.4649914503097534e-01" rms="3.2640677690505981e-01" purity="8.7536513805389404e-01" nType="0">
          <Node pos="l" depth="2" NCoef="0" IVar="-1" Cut="0.0000000000000000e+00" cType="1" res="5.3981090895831585e-03" rms="2.4324342608451843e-01" purity="9.3679749965667725e-01" nType="-99"/>
          <Node pos="r" depth="2" NCoef="0" IVar="-1" Cut="0.0000000000000000e+00" cType="1" res="3.0655108857899904e-03" rms="4.5979294180870056e-01" purity="6.8615216016769409e-01" nType="-99"/>
        </Node>
        <Node pos="r" depth="1" NCoef="0" IVar="1" Cut="8.0545169115066528e-01" cType="1" res="-1.1140181869268417e-01" rms="4.0060767531394958e-01" purity="2.7098363637924194e-01" nType="0">
          <Node pos="l" depth="2" NCoef="0" IVar="3" Cut="1.9445227384567261e+00" cType="1" res="4.1775107383728027e-02" rms="4.8113986849784851e-01" purity="5.2172821760177612e-01" nType="0">
            <Node pos="l" depth="3" NCoef="0" IVar="-1" Cut="0.0000000000000000e+00" cType="1" res="3.5300091840326786e-03" rms="4.4758147001266479e-01" purity="7.1959143877029419e-01" nType="-99"/>
            <Node pos="r" depth="3" NCoef="0" IVar="-1" Cut="0.0000000000000000e+00" cType="1" res="-6.1470628716051579e-03" rms="4.4647043943405151e-01" purity="2.8845101594924927e-01" nType="-99"/>
          </Node>
          <Node pos="r" depth="2" NCoef="0" IVar="4" Cut="1.5289303064346313e+00" cType="1" res="-1.8956093490123749e-01" rms="3.2584172487258911e-01" purity="1.4304025471210480e-01" nType="0">
            <Node pos="l" depth="3" NCoef="0" IVar="-1" Cut="0.0000000000000000e+00" cType="1" res="-1.8666456453502178e-03" rms="4.5836433768272400e-01" purity="3.7237235903739929e-01" nType="-99"/>
            <Node pos="r" depth="3" NCoef="0" IVar="-1" Cut="0.0000000000000000e+00" cType="1" res="-2.4195078760385513e-02" rms="2.8366035223007202e-01" purity="9.5826894044876099e-02" nType="-99"/>
          </Node>
        </Node>
      </Node>
    </BinaryTree>
    <BinaryTree type="DecisionTree" boostWeight="1.0000000000000000e+00" itree="13">
      <Node pos="s" depth="0" NCoef="0" IVar="3" Cut="1.4815899133682251e+00" cType="1" res="6.4794726669788361e-02" rms="4.3215784430503845e-01" purity="5.0000000000000000e-01" nType="0">
        <Node pos="l" depth="1" NCoef="0" IVar="4" Cut="1.5842697620391846e+00" cType="1" res="3.4409618377685547e-01" rms="3.2625466585159302e-01" purity="8.7536513805389404e-01" nType="0">
          <Node pos="l" depth="2" NCoef="0" IVar="-1" Cut="0.0000000000000000e+00" cType="1" res="5.3661833517253399e-03" rms="2.4324347078800201e-01" purity="9.3679749965667725e-01" nType="-99"/>
          <Node pos="r" depth="2" NCoef="0" IVar="-1" Cut="0.0000000000000000e+00" cType="1" res="3.0387050937861204e-03" rms="4.5979365706443787e-01" purity="6.8615216016769409e-01" nType="-99"/>
        </Node>
        <Node pos="r" depth="1" NCoef="0" IVar="3" Cut="1.9018203020095825e+00" cType="1" res="-1.0561162978410721e-01" rms="3.9891207218170166e-01" purity="2.7098363637924194e-01" nType="0">
          <Node pos="l" depth="2" NCoef="0" IVar="1" Cut="7.0810431241989136e-01" cType="1" res="4.5988447964191437e-02" rms="4.7327223420143127e-01" purity="5.1574099063873291e-01" nType="0">
            <Node pos="l" depth="3" NCoef="0" IVar="-1" Cut="0.0000000000000000e+00" cType="1" res="3.7831664085388184e-03" rms="4.3469774723052979e-01" purity="7.4594295024871826e-01" nType="-99"/>
            <Node pos="r" depth="3" NCoef="0" IVar="-1" Cut="0.0000000000000000e+00" cType="1" res="-3.9841895923018456e-03" rms="4.4955182075500488e-01" purity="3.2169809937477112e-01" nType="-99"/>
          </Node>
          <Node pos="r" depth="2" NCoef="0" IVar="1" Cut="1.2942404747009277e+00" cType="1" res="-1.8081496655941010e-01" rms="3.3151450753211975e-01" purity="1.4956830441951752e-01" nType="0">
            <Node pos="l" depth="3" NCoef="0" IVar="-1" Cut="0.0000000000000000e+00" cType="1" res="-5.2585634402930737e-03" rms="4.3709933757781982e-01" purity="2.8465637564659119e-01" nType="-99"/>
            <Node pos="r" depth="3" NCoef="0" IVar="-1" Cut="0.0000000000000000e+00" cType="1" res="-4.3624661862850189e-02" rms="2.1234729886054993e-01" purity="4.8222225159406662e-02" nType="-99"/>
          </Node>
        </Node>
      </Node>
    </BinaryTree>
    <BinaryTree type="DecisionTree" boostWeight="1.0000000000000000e+00" itree="14">
      <Node pos="s" depth="0" NCoef="0" IVar="3" Cut="1.4636006355285645e+00" cType="1" res="6.8336211144924164e-02" rms="4.2859861254692078e-01" purity="5.0000000000000000e-01" nType="0">
        <Node pos="l" depth="1" NCoef="0" IVar="4" Cut="1.5931549072265625e+00" cType="1" res="3.4769925475120544e-01" rms="3.1896707415580750e-01" purity="8.8166362047195435e-01" nType="0">
          <Node pos="l" depth="2" NCoef="0" IVar="-1" Cut="0.0000000000000000e+00" cType="1" res="5.3490507416427135e-03" rms="2.3979939520359039e-01" purity="9.3869161605834961e-01" nType="-99"/>
          <Node pos="r" depth="2" NCoef="0" IVar="-1" Cut="0.0000000000000000e+00" cType="1" res="3.1461338512599468e-03" rms="4.5550736784934998e-01" purity="6.9641774892807007e-01" nType="-99"/>
        </Node>
        <Node pos="r" depth="1" NCoef="0" IVar="3" Cut="1.9014768600463867e+00" cType="1" res="-9.4895794987678528e-02" rms="3.9917224645614624e-01" purity="2.7699375152587891e-01" nType="0">
          <Node pos="l" depth="2" NCoef="0" IVar="1" Cut="7.0810431241989136e-01" cType="1" res="4.9973215907812119e-02" rms="4.7302511334419250e-01" purity="5.2208936214447021e-01" nType="0">
            <Node pos="l" depth="3" NCoef="0" IVar="-1" Cut="0.0000000000000000e+00" cType="1" res="3.7557382602244616e-03" rms="4.3409198522567749e-01" purity="7.4678802490234375e-01" nType="-99"/>
            <Node pos="r" depth="3" NCoef="0" IVar="-1" Cut="0.0000000000000000e+00" cType="1" res="-3.5104127600789070e-03" rms="4.5320680737495422e-01" purity="3.3378195762634277e-01" nType="-99"/>
          </Node>
          <Node pos="r" depth="2" NCoef="0" IVar="3" Cut="2.3709940910339355e+00" cType="1" res="-1.7023576796054840e-01" rms="3.3052822947502136e-01" purity="1.4953033626079559e-01" nType="0">
            <Node pos="l" depth="3" NCoef="0" IVar="-1" Cut="0.0000000000000000e+00" cType="1" res="-5.9366449713706970e-03" rms="3.9323827624320984e-01" purity="2.3798692226409912e-01" nType="-99"/>
            <Node pos="r" depth="3" NCoef="0" IVar="-1" Cut="0.0000000000000000e+00" cType="1" res="-2.8581526130437851e-02" rms="2.6241329312324524e-01" purity="7.8193075954914093e-02" nType="-99"/>
          </Node>
        </Node>
      </Node>
    </BinaryTree>
    <BinaryTree type="DecisionTree" boostWeight="1.0000000000000000e+00" itree="15">
      <Node pos="s" depth="0" NCoef="0" IVar="3" Cut="1.4636006355285645e+00" cType="1" res="7.0541016757488251e-02" rms="4.2595478892326355e-01" purity="5.0000000000000000e-01" nType="0">
        <Node pos="l" depth="1" NCoef="0" IVar="4" Cut="1.5931549072265625e+00" cType="1" res="3.4529775381088257e-01" rms="3.1883102655410767e-01" purity="8.8166362047195435e-01" nType="0">
          <Node pos="l" depth="2" NCoef="0" IVar="-1" Cut="0.0000000000000000e+00" cType="1" res="5.3180642426013947e-03" rms="2.3979946970939636e-01" purity="9.3869161605834961e-01" nType="-99"/>
          <Node pos="r" depth="2" NCoef="0" IVar="-1" Cut="0.0000000000000000e+00" cType="1" res="3.1191702000796795e-03" rms="4.5550826191902161e-01" purity="6.9641774892807007e-01" nType="-99"/>
        </Node>
        <Node pos="r" depth="1" NCoef="0" IVar="3" Cut="1.9014768600463867e+00" cType="1" res="-8.9999511837959290e-02" rms="3.9770922064781189e-01" purity="2.7699375152587891e-01" nType="0">
          <Node pos="l" depth="2" NCoef="0" IVar="1" Cut="7.0810431241989136e-01" cType="1" res="5.0041452050209045e-02" rms="4.7242727875709534e-01" purity="5.2208936214447021e-01" nType="0">
            <Node pos="l" depth="3" NCoef="0" IVar="-1" Cut="0.0000000000000000e+00" cType="1" res="3.7258658558130264e-03" rms="4.3409222364425659e-01" purity="7.4678802490234375e-01" nType="-99"/>
            <Node pos="r" depth="3" NCoef="0" IVar="-1" Cut="0.0000000000000000e+00" cType="1" res="-3.4515068400651217e-03" rms="4.5321887731552124e-01" purity="3.3378195762634277e-01" nType="-99"/>
          </Node>
          <Node pos="r" depth="2" NCoef="0" IVar="0" Cut="2.9877800941467285e+00" cType="1" res="-1.6282863914966583e-01" rms="3.2993650436401367e-01" purity="1.4953033626079559e-01" nType="0">
            <Node pos="l" depth="3" NCoef="0" IVar="-1" Cut="0.0000000000000000e+00" cType="1" res="-1.6160288825631142e-02" rms="3.0835774540901184e-01" purity="1.2528868019580841e-01" nType="-99"/>
            <Node pos="r" depth="3" NCoef="0" IVar="-1" Cut="0.0000000000000000e+00" cType="1" res="-1.5572455013170838e-03" rms="4.3878525495529175e-01" purity="3.2631579041481018e-01" nType="-99"/>
          </Node>
        </Node>
      </Node>
    </BinaryTree>
    <BinaryTree type="DecisionTree" boostWeight="1.0000000000000000e+00" itree="16">
      <Node pos="s" depth="0" NCoef="0" IVar="3" Cut="1.4636006355285645e+00" cType="1" res="7.2103150188922882e-02" rms="4.2383244633674622e-01" purity="5.0000000000000000e-01" nType="0">
        <Node pos="l" depth="1" NCoef="0" IVar="4" Cut="1.5931549072265625e+00" cType="1" res="3.4291303157806396e-01" rms="3.1869608163833618e-01" purity="8.8166362047195435e-01" nType="0">
          <Node pos="l" depth="2" NCoef="0" IVar="-1" Cut="0.0000000000000000e+00" cType="1" res="5.2875299006700516e-03" rms="2.3979954421520233e-01" purity="9.3869161605834961e-01" nType="-99"/>
          <Node pos="r" depth="2" NCoef="0" IVar="-1" Cut="0.0000000000000000e+00" cType="1" res="3.0924899037927389e-03" rms="4.5550921559333801e-01" purity="6.9641774892807007e-01" nType="-99"/>
        </Node>
        <Node pos="r" depth="1" NCoef="0" IVar="1" Cut="8.0545169115066528e-01" cType="1" res="-8.6131237447261810e-02" rms="3.9668479561805725e-01" purity="2.7699375152587891e-01" nType="0">
          <Node pos="l" depth="2" NCoef="0" IVar="3" Cut="1.9437655210494995e+00" cType="1" res="5.1651936024427414e-02" rms="4.7529393434524536e-01" purity="5.2606987953186035e-01" nType="0">
            <Node pos="l" depth="3" NCoef="0" IVar="-1" Cut="0.0000000000000000e+00" cType="1" res="3.4490223042666912e-03" rms="4.4659990072250366e-01" purity="7.2028595209121704e-01" nType="-99"/>
            <Node pos="r" depth="3" NCoef="0" IVar="-1" Cut="0.0000000000000000e+00" cType="1" res="-5.3722299635410309e-03" rms="4.4466292858123779e-01" purity="2.8829321265220642e-01" nType="-99"/>
          </Node>
          <Node pos="r" depth="2" NCoef="0" IVar="0" Cut="2.8983373641967773e+00" cType="1" res="-1.5696527063846588e-01" rms="3.2763171195983887e-01" purity="1.4894424378871918e-01" nType="0">
            <Node pos="l" depth="3" NCoef="0" IVar="-1" Cut="0.0000000000000000e+00" cType="1" res="-1.8118111416697502e-02" rms="2.9525226354598999e-01" purity="1.1312148720026016e-01" nType="-99"/>
            <Node pos="r" depth="3" NCoef="0" IVar="-1" Cut="0.0000000000000000e+00" cType="1" res="-1.1056257644668221e-03" rms="4.3272861838340759e-01" purity="3.2582581043243408e-01" nType="-99"/>
          </Node>
        </Node>
      </Node>
    </BinaryTree>
    <BinaryTree type="DecisionTree" boostWeight="1.0000000000000000e+00" itree="17">
      <Node pos="s" depth="0" NCoef="0" IVar="3" Cut="1.4636006355285645e+00" cType="1" res="7.3811531066894531e-02" rms="4.2157766222953796e-01" purity="5.0000000000000000e-01" nType="0">
        <Node pos="l" depth="1" NCoef="0" IVar="4" Cut="1.5931549072265625e+00" cType="1" res="3.4054502844810486e-01" rms="3.1856226921081543e-01" purity="8.8166362047195435e-01" nType="0">
          <Node pos="l" depth="2" NCoef="0" IVar="-1" Cut="0.0000000000000000e+00" cType="1" res="5.2574370056390762e-03" rms="2.3979960381984711e-01" purity="9.3869161605834961e-01" nType="-99"/>
          <Node pos="r" depth="2" NCoef="0" IVar="-1" Cut="0.0000000000000000e+00" cType="1" res="3.0660878401249647e-03" rms="4.5551025867462158e-01" purity="6.9641774892807007e-01" nType="-99"/>
        </Node>
        <Node pos="r" depth="1" NCoef="0" IVar="3" Cut="1.9014768600463867e+00" cType="1" res="-8.2041010260581970e-02" rms="3.9549601078033447e-01" purity="2.7699375152587891e-01" nType="0">
          <Node pos="l" depth="2" NCoef="0" IVar="1" Cut="7.0810431241989136e-01" cType="1" res="5.2374862134456635e-02" rms="4.6997410058975220e-01" purity="5.2208936214447021e-01" nType="0">
            <Node pos="l" depth="3" NCoef="0" IVar="-1" Cut="0.0000000000000000e+00" cType="1" res="3.6690589040517807e-03" rms="4.3409273028373718e-01" purity="7.4678802490234375e-01" nType="-99"/>
            <Node pos="r" depth="3" NCoef="0" IVar="-1" Cut="0.0000000000000000e+00" cType="1" res="-3.1966480892151594e-03" rms="4.5197570323944092e-01" purity="3.3378195762634277e-01" nType="-99"/>
          </Node>
          <Node pos="r" depth="2" NCoef="0" IVar="3" Cut="3.0342783927917480e+00" cType="1" res="-1.5194477140903473e-01" rms="3.2956388592720032e-01" purity="1.4953033626079559e-01" nType="0">
            <Node pos="l" depth="3" NCoef="0" IVar="-1" Cut="0.0000000000000000e+00" cType="1" res="-9.4352131709456444e-03" rms="3.4822624921798706e-01" purity="1.7097242176532745e-01" nType="-99"/>
            <Node pos="r" depth="3" NCoef="0" IVar="-1" Cut="0.0000000000000000e+00" cType="1" res="-1.3583658635616302e-01" rms="7.5773954391479492e-02" purity="0.0000000000000000e+00" nType="-99"/>
          </Node>
        </Node>
      </Node>
    </BinaryTree>
    <BinaryTree type="DecisionTree" boostWeight="1.0000000000000000e+00" itree="18">
      <Node pos="s" depth="0" NCoef="0" IVar="3" Cut="1.4636006355285645e+00" cType="1" res="7.6848253607749939e-02" rms="4.1822910308837891e-01" purity="5.0000000000000000e-01" nType="0">
        <Node pos="l" depth="1" NCoef="0" IVar="4" Cut="1.5931549072265625e+00" cType="1" res="3.3819356560707092e-01" rms="3.1842952966690063e-01" purity="8.8166362047195435e-01" nType="0">
          <Node pos="l" depth="2" NCoef="0" IVar="-1" Cut="0.0000000000000000e+00" cType="1" res="5.2277748472988605e-03" rms="2.3979967832565308e-01" purity="9.3869161605834961e-01" nType="-99"/>
          <Node pos="r" depth="2" NCoef="0" IVar="-1" Cut="0.0000000000000000e+00" cType="1" res="3.0399595852941275e-03" rms="4.5551136136054993e-01" purity="6.9641774892807007e-01" nType="-99"/>
        </Node>
        <Node pos="r" depth="1" NCoef="0" IVar="1" Cut="8.0545169115066528e-01" cType="1" res="-7.5855977833271027e-02" rms="3.9324954152107239e-01" purity="2.7699375152587891e-01" nType="0">
          <Node pos="l" depth="2" NCoef="0" IVar="3" Cut="1.9437655210494995e+00" cType="1" res="5.6317325681447983e-02" rms="4.7097268700599670e-01" purity="5.2606987953186035e-01" nType="0">
            <Node pos="l" depth="3" NCoef="0" IVar="-1" Cut="0.0000000000000000e+00" cType="1" res="3.4047332592308521e-03" rms="4.4642922282218933e-01" purity="7.2028595209121704e-01" nType="-99"/>
            <Node pos="r" depth="3" NCoef="0" IVar="-1" Cut="0.0000000000000000e+00" cType="1" res="-4.8343883827328682e-03" rms="4.4120183587074280e-01" purity="2.8829321265220642e-01" nType="-99"/>
          </Node>
          <Node pos="r" depth="2" NCoef="0" IVar="0" Cut="2.8983373641967773e+00" cType="1" res="-1.4380598068237305e-01" rms="3.2636609673500061e-01" purity="1.4894424378871918e-01" nType="0">
            <Node pos="l" depth="3" NCoef="0" IVar="-1" Cut="0.0000000000000000e+00" cType="1" res="-1.6919987276196480e-02" rms="2.9475614428520203e-01" purity="1.1312148720026016e-01" nType="-99"/>
            <Node pos="r" depth="3" NCoef="0" IVar="-1" Cut="0.0000000000000000e+00" cType="1" res="-9.1128272470086813e-04" rms="4.3146768212318420e-01" purity="3.2582581043243408e-01" nType="-99"/>
          </Node>
        </Node>
      </Node>
    </BinaryTree>
    <BinaryTree type="DecisionTree" boostWeight="1.0000000000000000e+00" itree="19">
      <Node pos="s" depth="0" NCoef="0" IVar="3" Cut="1.4636006355285645e+00" cType="1" res="7.8293524682521820e-02" rms="4.1619762778282166e-01" purity="5.0000000000000000e-01" nType="0">
        <Node pos="l" depth="1" NCoef="0" IVar="4" Cut="1.5931549072265625e+00" cType="1" res="3.3585855364799500e-01" rms="3.1829792261123657e-01" purity="8.8166362047195435e-01" nType="0">
          <Node pos="l" depth="2" NCoef="0" IVar="-1" Cut="0.0000000000000000e+00" cType="1" res="5.1985336467623711e-03" rms="2.3979976773262024e-01" purity="9.3869161605834961e-01" nType="-99"/>
          <Node pos="r" depth="2" NCoef="0" IVar="-1" Cut="0.0000000000000000e+00" cType="1" res="3.0141002498567104e-03" rms="4.5551252365112305e-01" purity="6.9641774892807007e-01" nType="-99"/>
        </Node>
        <Node pos="r" depth="1" NCoef="0" IVar="1" Cut="8.0545169115066528e-01" cType="1" res="-7.2201877832412720e-02" rms="3.9220467209815979e-01" purity="2.7699375152587891e-01" nType="0">
          <Node pos="l" depth="2" NCoef="0" IVar="3" Cut="2.1446890830993652e+00" cType="1" res="5.6423339992761612e-02" rms="4.7032088041305542e-01" purity="5.2606987953186035e-01" nType="0">
            <Node pos="l" depth="3" NCoef="0" IVar="-1" Cut="0.0000000000000000e+00" cType="1" res="3.0403197742998600e-03" rms="4.6044388413429260e-01" purity="6.7816090583801270e-01" nType="-99"/>
            <Node pos="r" depth="3" NCoef="0" IVar="-1" Cut="0.0000000000000000e+00" cType="1" res="-8.3300480619072914e-03" rms="4.0992447733879089e-01" purity="2.2644266486167908e-01" nType="-99"/>
          </Node>
          <Node pos="r" depth="2" NCoef="0" IVar="0" Cut="2.8983373641967773e+00" cType="1" res="-1.3832783699035645e-01" rms="3.2604891061782837e-01" purity="1.4894424378871918e-01" nType="0">
            <Node pos="l" depth="3" NCoef="0" IVar="-1" Cut="0.0000000000000000e+00" cType="1" res="-1.6411283984780312e-02" rms="2.9482224583625793e-01" purity="1.1312148720026016e-01" nType="-99"/>
            <Node pos="r" depth="3" NCoef="0" IVar="-1" Cut="0.0000000000000000e+00" cType="1" res="-8.9634890900924802e-04" rms="4.3148252367973328e-01" purity="3.2582581043243408e-01" nType="-99"/>
          </Node>
        </Node>
      </Node>
    </BinaryTree>
    <BinaryTree type="DecisionTree" boostWeight="1.0000000000000000e+00" itree="20">
      <Node pos="s" depth="0" NCoef="0" IVar="3" Cut="1.4815899133682251e+00" cType="1" res="7.9692021012306213e-02" rms="4.1420674324035645e-01" purity="5.0000000000000000e-01" nType="0">
        <Node pos="l" depth="1" NCoef="0" IVar="4" Cut="1.5842697620391846e+00" cType="1" res="3.2812067866325378e-01" rms="3.2484111189842224e-01" purity="8.7536513805389404e-01" nType="0">
          <Node pos="l" depth="2" NCoef="0" IVar="-1" Cut="0.0000000000000000e+00" cType="1" res="5.1583847962319851e-03" rms="2.4292784929275513e-01" purity="9.3679749965667725e-01" nType="-99"/>
          <Node pos="r" depth="2" NCoef="0" IVar="-1" Cut="0.0000000000000000e+00" cType="1" res="2.8735855594277382e-03" rms="4.5940905809402466e-01" purity="6.8615216016769409e-01" nType="-99"/>
        </Node>
        <Node pos="r" depth="1" NCoef="0" IVar="1" Cut="8.0545169115066528e-01" cType="1" res="-7.1878336369991302e-02" rms="3.8888901472091675e-01" purity="2.7098363637924194e-01" nType="0">
          <Node pos="l" depth="2" NCoef="0" IVar="3" Cut="1.9445227384567261e+00" cType="1" res="5.3908571600914001e-02" rms="4.6969431638717651e-01" purity="5.2172821760177612e-01" nType="0">
            <Node pos="l" depth="3" NCoef="0" IVar="-1" Cut="0.0000000000000000e+00" cType="1" res="3.3525484614074230e-03" rms="4.4682365655899048e-01" purity="7.1959143877029419e-01" nType="-99"/>
            <Node pos="r" depth="3" NCoef="0" IVar="-1" Cut="0.0000000000000000e+00" cType="1" res="-4.6374173834919930e-03" rms="4.4086161255836487e-01" purity="2.8845101594924927e-01" nType="-99"/>
          </Node>
          <Node pos="r" depth="2" NCoef="0" IVar="4" Cut="1.5289303064346313e+00" cType="1" res="-1.3606157898902893e-01" rms="3.2193374633789062e-01" purity="1.4304025471210480e-01" nType="0">
            <Node pos="l" depth="3" NCoef="0" IVar="-1" Cut="0.0000000000000000e+00" cType="1" res="-4.8401701496914029e-04" rms="4.5254743099212646e-01" purity="3.7237235903739929e-01" nType="-99"/>
            <Node pos="r" depth="3" NCoef="0" IVar="-1" Cut="0.0000000000000000e+00" cType="1" res="-1.9435677677392960e-02" rms="2.8134927153587341e-01" purity="9.5826894044876099e-02" nType="-99"/>
          </Node>
        </Node>
      </Node>
    </BinaryTree>
    <BinaryTree type="DecisionTree" boostWeight="1.0000000000000000e+00" itree="21">
      <Node pos="s" depth="0" NCoef="0" IVar="3" Cut="1.4636006355285645e+00" cType="1" res="8.1298202276229858e-02" rms="4.1210812330245972e-01" purity="5.0000000000000000e-01" nType="0">
        <Node pos="l" depth="1" NCoef="0" IVar="4" Cut="1.5931549072265625e+00" cType="1" res="3.3126181364059448e-01" rms="3.1802910566329956e-01" purity="8.8166362047195435e-01" nType="0">
          <Node pos="l" depth="2" NCoef="0" IVar="-1" Cut="0.0000000000000000e+00" cType="1" res="5.1414407789707184e-03" rms="2.3979373276233673e-01" purity="9.3869161605834961e-01" nType="-99"/>
          <Node pos="r" depth="2" NCoef="0" IVar="-1" Cut="0.0000000000000000e+00" cType="1" res="2.9641448054462671e-03" rms="4.5551502704620361e-01" purity="6.9641774892807007e-01" nType="-99"/>
        </Node>
        <Node pos="r" depth="1" NCoef="0" IVar="3" Cut="1.9014768600463867e+00" cType="1" res="-6.4755685627460480e-02" rms="3.9003735780715942e-01" purity="2.7699375152587891e-01" nType="0">
          <Node pos="l" depth="2" NCoef="0" IVar="1" Cut="7.0810431241989136e-01" cType="1" res="5.8489419519901276e-02" rms="4.6443751454353333e-01" purity="5.2208936214447021e-01" nType="0">
            <Node pos="l" depth="3" NCoef="0" IVar="-1" Cut="0.0000000000000000e+00" cType="1" res="3.5628231707960367e-03" rms="4.3408378958702087e-01" purity="7.4678802490234375e-01" nType="-99"/>
            <Node pos="r" depth="3" NCoef="0" IVar="-1" Cut="0.0000000000000000e+00" cType="1" res="-2.6088031008839607e-03" rms="4.4855615496635437e-01" purity="3.3378195762634277e-01" nType="-99"/>
          </Node>
          <Node pos="r" depth="2" NCoef="0" IVar="4" Cut="2.1764631271362305e+00" cType="1" res="-1.2885002791881561e-01" rms="3.2720056176185608e-01" purity="1.4953033626079559e-01" nType="0">
            <Node pos="l" depth="3" NCoef="0" IVar="-1" Cut="0.0000000000000000e+00" cType="1" res="-4.6892426908016205e-03" rms="3.8887685537338257e-01" purity="2.2951239347457886e-01" nType="-99"/>
            <Node pos="r" depth="3" NCoef="0" IVar="-1" Cut="0.0000000000000000e+00" cType="1" res="-2.6487944647669792e-02" rms="2.4507012963294983e-01" purity="7.0436760783195496e-02" nType="-99"/>
          </Node>
        </Node>
      </Node>
    </BinaryTree>
    <BinaryTree type="DecisionTree" boostWeight="1.0000000000000000e+00" itree="22">
      <Node pos="s" depth="0" NCoef="0" IVar="3" Cut="1.4636006355285645e+00" cType="1" res="8.2743503153324127e-02" rms="4.1013875603675842e-01" purity="5.0000000000000000e-01" nType="0">
        <Node pos="l" depth="1" NCoef="0" IVar="4" Cut="1.5931549072265625e+00" cType="1" res="3.2897526025772095e-01" rms="3.1790083646774292e-01" purity="8.8166362047195435e-01" nType="0">
          <Node pos="l" depth="2" NCoef="0" IVar="-1" Cut="0.0000000000000000e+00" cType="1" res="5.1134028472006321e-03" rms="2.3979383707046509e-01" purity="9.3869161605834961e-01" nType="-99"/>
          <Node pos="r" depth="2" NCoef="0" IVar="-1" Cut="0.0000000000000000e+00" cType="1" res="2.9390570707619190e-03" rms="4.5551642775535583e-01" purity="6.9641774892807007e-01" nType="-99"/>
        </Node>
        <Node pos="r" depth="1" NCoef="0" IVar="3" Cut="1.9014768600463867e+00" cType="1" res="-6.1129868030548096e-02" rms="3.8900581002235413e-01" purity="2.7699375152587891e-01" nType="0">
          <Node pos="l" depth="2" NCoef="0" IVar="1" Cut="7.0810431241989136e-01" cType="1" res="5.8352395892143250e-02" rms="4.6398881077766418e-01" purity="5.2208936214447021e-01" nType="0">
            <Node pos="l" depth="3" NCoef="0" IVar="-1" Cut="0.0000000000000000e+00" cType="1" res="3.5350383259356022e-03" rms="4.3408414721488953e-01" purity="7.4678802490234375e-01" nType="-99"/>
            <Node pos="r" depth="3" NCoef="0" IVar="-1" Cut="0.0000000000000000e+00" cType="1" res="-2.5656395591795444e-03" rms="4.4857275485992432e-01" purity="3.3378195762634277e-01" nType="-99"/>
          </Node>
          <Node pos="r" depth="2" NCoef="0" IVar="1" Cut="1.2942404747009277e+00" cType="1" res="-1.2326732277870178e-01" rms="3.2676795125007629e-01" purity="1.4953033626079559e-01" nType="0">
            <Node pos="l" depth="3" NCoef="0" IVar="-1" Cut="0.0000000000000000e+00" cType="1" res="-3.3622039481997490e-03" rms="4.3101593852043152e-01" purity="2.8465637564659119e-01" nType="-99"/>
            <Node pos="r" depth="3" NCoef="0" IVar="-1" Cut="0.0000000000000000e+00" cType="1" res="-3.6340802907943726e-02" rms="2.1183353662490845e-01" purity="4.8200801014900208e-02" nType="-99"/>
          </Node>
        </Node>
      </Node>
    </BinaryTree>
    <BinaryTree type="DecisionTree" boostWeight="1.0000000000000000e+00" itree="23">
      <Node pos="s" depth="0" NCoef="0" IVar="3" Cut="1.4636006355285645e+00" cType="1" res="8.4862552583217621e-02" rms="4.0781849622726440e-01" purity="5.0000000000000000e-01" nType="0">
        <Node pos="l" depth="1" NCoef="0" IVar="4" Cut="1.5931549072265625e+00" cType="1" res="3.2670471072196960e-01" rms="3.1777361035346985e-01" purity="8.8166362047195435e-01" nType="0">
          <Node pos="l" depth="2" NCoef="0" IVar="-1" Cut="0.0000000000000000e+00" cType="1" res="5.0857481546700001e-03" rms="2.3979394137859344e-01" purity="9.3869161605834961e-01" nType="-99"/>
          <Node pos="r" depth="2" NCoef="0" IVar="-1" Cut="0.0000000000000000e+00" cType="1" res="2.9142214916646481e-03" rms="4.5551782846450806e-01" purity="6.9641774892807007e-01" nType="-99"/>
        </Node>
        <Node pos="r" depth="1" NCoef="0" IVar="1" Cut="8.0545169115066528e-01" cType="1" res="-5.6445967406034470e-02" rms="3.8774895668029785e-01" purity="2.7699375152587891e-01" nType="0">
          <Node pos="l" depth="2" NCoef="0" IVar="3" Cut="2.1446890830993652e+00" cType="1" res="5.9008702635765076e-02" rms="4.6676671504974365e-01" purity="5.2606987953186035e-01" nType="0">
            <Node pos="l" depth="3" NCoef="0" IVar="-1" Cut="0.0000000000000000e+00" cType="1" res="2.9873908497393131e-03" rms="4.5940306782722473e-01" purity="6.7816090583801270e-01" nType="-99"/>
            <Node pos="r" depth="3" NCoef="0" IVar="-1" Cut="0.0000000000000000e+00" cType="1" res="-7.6900031417608261e-03" rms="4.0903493762016296e-01" purity="2.2644266486167908e-01" nType="-99"/>
          </Node>
          <Node pos="r" depth="2" NCoef="0" IVar="0" Cut="2.8983373641967773e+00" cType="1" res="-1.1580096930265427e-01" rms="3.2443884015083313e-01" purity="1.4894424378871918e-01" nType="0">
            <Node pos="l" depth="3" NCoef="0" IVar="-1" Cut="0.0000000000000000e+00" cType="1" res="-1.4495392329990864e-02" rms="2.9416820406913757e-01" purity="1.1312148720026016e-01" nType="-99"/>
            <Node pos="r" depth="3" NCoef="0" IVar="-1" Cut="0.0000000000000000e+00" cType="1" res="-2.9843757511116564e-04" rms="4.2857268452644348e-01" purity="3.2582581043243408e-01" nType="-99"/>
          </Node>
        </Node>
      </Node>
    </BinaryTree>
    <BinaryTree type="DecisionTree" boostWeight="1.0000000000000000e+00" itree="24">
      <Node pos="s" depth="0" NCoef="0" IVar="3" Cut="1.4636006355285645e+00" cType="1" res="8.5871443152427673e-02" rms="4.0615469217300415e-01" purity="5.0000000000000000e-01" nType="0">
        <Node pos="l" depth="1" NCoef="0" IVar="4" Cut="1.5931549072265625e+00" cType="1" res="3.2445001602172852e-01" rms="3.1764748692512512e-01" purity="8.8166362047195435e-01" nType="0">
          <Node pos="l" depth="2" NCoef="0" IVar="-1" Cut="0.0000000000000000e+00" cType="1" res="5.0584683194756508e-03" rms="2.3979404568672180e-01" purity="9.3869161605834961e-01" nType="-99"/>
          <Node pos="r" depth="2" NCoef="0" IVar="-1" Cut="0.0000000000000000e+00" cType="1" res="2.8896341100335121e-03" rms="4.5551931858062744e-01" purity="6.9641774892807007e-01" nType="-99"/>
        </Node>
        <Node pos="r" depth="1" NCoef="0" IVar="3" Cut="1.9014768600463867e+00" cType="1" res="-5.3530167788267136e-02" rms="3.8691326975822449e-01" purity="2.7699375152587891e-01" nType="0">
          <Node pos="l" depth="2" NCoef="0" IVar="1" Cut="7.0810431241989136e-01" cType="1" res="5.9862300753593445e-02" rms="4.6221303939819336e-01" purity="5.2208936214447021e-01" nType="0">
            <Node pos="l" depth="3" NCoef="0" IVar="-1" Cut="0.0000000000000000e+00" cType="1" res="3.4843673929572105e-03" rms="4.3408486247062683e-01" purity="7.4678802490234375e-01" nType="-99"/>
            <Node pos="r" depth="3" NCoef="0" IVar="-1" Cut="0.0000000000000000e+00" cType="1" res="-2.3724674247205257e-03" rms="4.4767826795578003e-01" purity="3.3378195762634277e-01" nType="-99"/>
          </Node>
          <Node pos="r" depth="2" NCoef="0" IVar="4" Cut="2.1764631271362305e+00" cType="1" res="-1.1250058561563492e-01" rms="3.2601490616798401e-01" purity="1.4953033626079559e-01" nType="0">
            <Node pos="l" depth="3" NCoef="0" IVar="-1" Cut="0.0000000000000000e+00" cType="1" res="-4.0906094945967197e-03" rms="3.8760450482368469e-01" purity="2.2951239347457886e-01" nType="-99"/>
            <Node pos="r" depth="3" NCoef="0" IVar="-1" Cut="0.0000000000000000e+00" cType="1" res="-2.4363592267036438e-02" rms="2.4524231255054474e-01" purity="7.0436760783195496e-02" nType="-99"/>
          </Node>
        </Node>
      </Node>
    </BinaryTree>
    <BinaryTree type="DecisionTree" boostWeight="1.0000000000000000e+00" itree="25">
      <Node pos="s" depth="0" NCoef="0" IVar="3" Cut="1.4636006355285645e+00" cType="1" res="8.6996294558048248e-02" rms="4.0445798635482788e-01" purity="5.0000000000000000e-01" nType="0">
        <Node pos="l" depth="1" NCoef="0" IVar="4" Cut="1.5931549072265625e+00" cType="1" res="3.2221108675003052e-01" rms="3.1752240657806396e-01" purity="8.8166362047195435e-01" nType="0">
          <Node pos="l" depth="2" NCoef="0" IVar="-1" Cut="0.0000000000000000e+00" cType="1" res="5.0315549597144127e-03" rms="2.3979416489601135e-01" purity="9.3869161605834961e-01" nType="-99"/>
          <Node pos="r" depth="2" NCoef="0" IVar="-1" Cut="0.0000000000000000e+00" cType="1" res="2.8652912005782127e-03" rms="4.5552086830139160e-01" purity="6.9641774892807007e-01" nType="-99"/>
        </Node>
        <Node pos="r" depth="1" NCoef="0" IVar="1" Cut="8.0545169115066528e-01" cType="1" res="-5.0439853221178055e-02" rms="3.8606300950050354e-01" purity="2.7699375152587891e-01" nType="0">
          <Node pos="l" depth="2" NCoef="0" IVar="3" Cut="2.1446890830993652e+00" cType="1" res="6.1100035905838013e-02" rms="4.6463236212730408e-01" purity="5.2606987953186035e-01" nType="0">
            <Node pos="l" depth="3" NCoef="0" IVar="-1" Cut="0.0000000000000000e+00" cType="1" res="2.9625662136822939e-03" rms="4.5889377593994141e-01" purity="6.7816090583801270e-01" nType="-99"/>
            <Node pos="r" depth="3" NCoef="0" IVar="-1" Cut="0.0000000000000000e+00" cType="1" res="-7.2642248123884201e-03" rms="4.0825456380844116e-01" purity="2.2644266486167908e-01" nType="-99"/>
          </Node>
          <Node pos="r" depth="2" NCoef="0" IVar="4" Cut="1.4137403964996338e+00" cType="1" res="-1.0778226703405380e-01" rms="3.2403540611267090e-01" purity="1.4894424378871918e-01" nType="0">
            <Node pos="l" depth="3" NCoef="0" IVar="-1" Cut="0.0000000000000000e+00" cType="1" res="6.6846091067418456e-04" rms="4.6026661992073059e-01" purity="3.9075630903244019e-01" nType="-99"/>
            <Node pos="r" depth="3" NCoef="0" IVar="-1" Cut="0.0000000000000000e+00" cType="1" res="-1.3153811916708946e-02" rms="2.9632276296615601e-01" purity="1.1585453152656555e-01" nType="-99"/>
          </Node>
        </Node>
      </Node>
    </BinaryTree>
    <BinaryTree type="DecisionTree" boostWeight="1.0000000000000000e+00" itree="26">
      <Node pos="s" depth="0" NCoef="0" IVar="3" Cut="1.4636006355285645e+00" cType="1" res="8.7863214313983917e-02" rms="4.0293091535568237e-01" purity="5.0000000000000000e-01" nType="0">
        <Node pos="l" depth="1" NCoef="0" IVar="4" Cut="1.5931549072265625e+00" cType="1" res="3.1998780369758606e-01" rms="3.1739836931228638e-01" purity="8.8166362047195435e-01" nType="0">
          <Node pos="l" depth="2" NCoef="0" IVar="-1" Cut="0.0000000000000000e+00" cType="1" res="5.0049992278218269e-03" rms="2.3979426920413971e-01" purity="9.3869161605834961e-01" nType="-99"/>
          <Node pos="r" depth="2" NCoef="0" IVar="-1" Cut="0.0000000000000000e+00" cType="1" res="2.8411890380084515e-03" rms="4.5552247762680054e-01" purity="6.9641774892807007e-01" nType="-99"/>
        </Node>
        <Node pos="r" depth="1" NCoef="0" IVar="3" Cut="1.9014768600463867e+00" cType="1" res="-4.7767329961061478e-02" rms="3.8532349467277527e-01" purity="2.7699375152587891e-01" nType="0">
          <Node pos="l" depth="2" NCoef="0" IVar="1" Cut="7.0810431241989136e-01" cType="1" res="6.1272896826267242e-02" rms="4.6070700883865356e-01" purity="5.2208936214447021e-01" nType="0">
            <Node pos="l" depth="3" NCoef="0" IVar="-1" Cut="0.0000000000000000e+00" cType="1" res="3.4345227759331465e-03" rms="4.3408560752868652e-01" purity="7.4678802490234375e-01" nType="-99"/>
            <Node pos="r" depth="3" NCoef="0" IVar="-1" Cut="0.0000000000000000e+00" cType="1" res="-2.1878469269722700e-03" rms="4.4715818762779236e-01" purity="3.3378195762634277e-01" nType="-99"/>
          </Node>
          <Node pos="r" depth="2" NCoef="0" IVar="0" Cut="2.9877800941467285e+00" cType="1" res="-1.0447433590888977e-01" rms="3.2543462514877319e-01" purity="1.4953033626079559e-01" nType="0">
            <Node pos="l" depth="3" NCoef="0" IVar="-1" Cut="0.0000000000000000e+00" cType="1" res="-1.1518971063196659e-02" rms="3.0506673455238342e-01" purity="1.2528868019580841e-01" nType="-99"/>
            <Node pos="r" depth="3" NCoef="0" IVar="-1" Cut="0.0000000000000000e+00" cType="1" res="-2.2452999837696552e-04" rms="4.3415313959121704e-01" purity="3.2631579041481018e-01" nType="-99"/>
          </Node>
        </Node>
      </Node>
    </BinaryTree>
    <BinaryTree type="DecisionTree" boostWeight="1.0000000000000000e+00" itree="27">
      <Node pos="s" depth="0" NCoef="0" IVar="3" Cut="1.4636006355285645e+00" cType="1" res="8.8464222848415375e-02" rms="4.0162003040313721e-01" purity="5.0000000000000000e-01" nType="0">
        <Node pos="l" depth="1" NCoef="0" IVar="4" Cut="1.5931549072265625e+00" cType="1" res="3.1778004765510559e-01" rms="3.1727540493011475e-01" purity="8.8166362047195435e-01" nType="0">
          <Node pos="l" depth="2" NCoef="0" IVar="-1" Cut="0.0000000000000000e+00" cType="1" res="4.9787936732172966e-03" rms="2.3979438841342926e-01" purity="9.3869161605834961e-01" nType="-99"/>
          <Node pos="r" depth="2" NCoef="0" IVar="-1" Cut="0.0000000000000000e+00" cType="1" res="2.8173236642032862e-03" rms="4.5552414655685425e-01" purity="6.9641774892807007e-01" nType="-99"/>
        </Node>
        <Node pos="r" depth="1" NCoef="0" IVar="1" Cut="8.0545169115066528e-01" cType="1" res="-4.5525155961513519e-02" rms="3.8477092981338501e-01" purity="2.7699375152587891e-01" nType="0">
          <Node pos="l" depth="2" NCoef="0" IVar="3" Cut="2.1446890830993652e+00" cType="1" res="6.2557086348533630e-02" rms="4.6293646097183228e-01" purity="5.2606987953186035e-01" nType="0">
            <Node pos="l" depth="3" NCoef="0" IVar="-1" Cut="0.0000000000000000e+00" cType="1" res="2.9361804481595755e-03" rms="4.5846003293991089e-01" purity="6.7816090583801270e-01" nType="-99"/>
            <Node pos="r" depth="3" NCoef="0" IVar="-1" Cut="0.0000000000000000e+00" cType="1" res="-6.9191022776067257e-03" rms="4.0784546732902527e-01" purity="2.2644266486167908e-01" nType="-99"/>
          </Node>
          <Node pos="r" depth="2" NCoef="0" IVar="0" Cut="2.7398514747619629e+00" cType="1" res="-1.0109000653028488e-01" rms="3.2386842370033264e-01" purity="1.4894424378871918e-01" nType="0">
            <Node pos="l" depth="3" NCoef="0" IVar="-1" Cut="0.0000000000000000e+00" cType="1" res="-1.5594964846968651e-02" rms="2.8146219253540039e-01" purity="1.0051194578409195e-01" nType="-99"/>
            <Node pos="r" depth="3" NCoef="0" IVar="-1" Cut="0.0000000000000000e+00" cType="1" res="-9.8049931693822145e-04" rms="4.1221818327903748e-01" purity="2.8745731711387634e-01" nType="-99"/>
          </Node>
        </Node>
      </Node>
    </BinaryTree>
    <BinaryTree type="DecisionTree" boostWeight="1.0000000000000000e+00" itree="28">
      <Node pos="s" depth="0" NCoef="0" IVar="3" Cut="1.4815899133682251e+00" cType="1" res="8.9322626590728760e-02" rms="4.0010192990303040e-01" purity="5.0000000000000000e-01" nType="0">
        <Node pos="l" depth="1" NCoef="0" IVar="4" Cut="1.5842697620391846e+00" cType="1" res="3.1075057387351990e-01" rms="3.2346811890602112e-01" purity="8.7536513805389404e-01" nType="0">
          <Node pos="l" depth="2" NCoef="0" IVar="-1" Cut="0.0000000000000000e+00" cType="1" res="4.9447915516793728e-03" rms="2.4268093705177307e-01" purity="9.3679749965667725e-01" nType="-99"/>
          <Node pos="r" depth="2" NCoef="0" IVar="-1" Cut="0.0000000000000000e+00" cType="1" res="2.6949581224471331e-03" rms="4.5915585756301880e-01" purity="6.8615216016769409e-01" nType="-99"/>
        </Node>
        <Node pos="r" depth="1" NCoef="0" IVar="0" Cut="2.7304363250732422e+00" cType="1" res="-4.5774165540933609e-02" rms="3.8176840543746948e-01" purity="2.7098363637924194e-01" nType="0">
          <Node pos="l" depth="2" NCoef="0" IVar="4" Cut="1.3903828859329224e+00" cType="1" res="-1.0311688482761383e-01" rms="3.3009934425354004e-01" purity="1.6885876655578613e-01" nType="0">
            <Node pos="l" depth="3" NCoef="0" IVar="-1" Cut="0.0000000000000000e+00" cType="1" res="2.0889707375317812e-03" rms="4.6878713369369507e-01" purity="4.5636171102523804e-01" nType="-99"/>
            <Node pos="r" depth="3" NCoef="0" IVar="-1" Cut="0.0000000000000000e+00" cType="1" res="-1.2145512737333775e-02" rms="2.9618185758590698e-01" purity="1.2728102505207062e-01" nType="-99"/>
          </Node>
          <Node pos="r" depth="2" NCoef="0" IVar="3" Cut="1.9790736436843872e+00" cType="1" res="5.5639989674091339e-02" rms="4.4124519824981689e-01" purity="4.5159777998924255e-01" nType="0">
            <Node pos="l" depth="3" NCoef="0" IVar="-1" Cut="0.0000000000000000e+00" cType="1" res="3.1216335482895374e-03" rms="4.5541787147521973e-01" purity="6.2679022550582886e-01" nType="-99"/>
            <Node pos="r" depth="3" NCoef="0" IVar="-1" Cut="0.0000000000000000e+00" cType="1" res="-3.7985101807862520e-03" rms="3.8720691204071045e-01" purity="2.3060573637485504e-01" nType="-99"/>
          </Node>
        </Node>
      </Node>
    </BinaryTree>
    <BinaryTree type="DecisionTree" boostWeight="1.0000000000000000e+00" itree="29">
      <Node pos="s" depth="0" NCoef="0" IVar="3" Cut="1.4636006355285645e+00" cType="1" res="8.9889325201511383e-02" rms="3.9873939752578735e-01" purity="5.0000000000000000e-01" nType="0">
        <Node pos="l" depth="1" NCoef="0" IVar="4" Cut="1.5931549072265625e+00" cType="1" res="3.1343176960945129e-01" rms="3.1702476739883423e-01" purity="8.8166362047195435e-01" nType="0">
          <Node pos="l" depth="2" NCoef="0" IVar="-1" Cut="0.0000000000000000e+00" cType="1" res="4.9275420606136322e-03" rms="2.3978862166404724e-01" purity="9.3869161605834961e-01" nType="-99"/>
          <Node pos="r" depth="2" NCoef="0" IVar="-1" Cut="0.0000000000000000e+00" cType="1" res="2.7711156290024519e-03" rms="4.5552754402160645e-01" purity="6.9641774892807007e-01" nType="-99"/>
        </Node>
        <Node pos="r" depth="1" NCoef="0" IVar="1" Cut="8.0545169115066528e-01" cType="1" res="-4.0726661682128906e-02" rms="3.8328731060028076e-01" purity="2.7699375152587891e-01" nType="0">
          <Node pos="l" depth="2" NCoef="0" IVar="3" Cut="2.1446890830993652e+00" cType="1" res="6.4355067908763885e-02" rms="4.6145737171173096e-01" purity="5.2606987953186035e-01" nType="0">
            <Node pos="l" depth="3" NCoef="0" IVar="-1" Cut="0.0000000000000000e+00" cType="1" res="2.9281042516231537e-03" rms="4.5794248580932617e-01" purity="6.7816090583801270e-01" nType="-99"/>
            <Node pos="r" depth="3" NCoef="0" IVar="-1" Cut="0.0000000000000000e+00" cType="1" res="-6.6195162944495678e-03" rms="4.0724515914916992e-01" purity="2.2644266486167908e-01" nType="-99"/>
          </Node>
          <Node pos="r" depth="2" NCoef="0" IVar="4" Cut="1.5289303064346313e+00" cType="1" res="-9.4748951494693756e-02" rms="3.2305756211280823e-01" purity="1.4894424378871918e-01" nType="0">
            <Node pos="l" depth="3" NCoef="0" IVar="-1" Cut="0.0000000000000000e+00" cType="1" res="1.8372233898844570e-04" rms="4.5094427466392517e-01" purity="3.6904761195182800e-01" nType="-99"/>
            <Node pos="r" depth="3" NCoef="0" IVar="-1" Cut="0.0000000000000000e+00" cType="1" res="-1.3902818784117699e-02" rms="2.8570431470870972e-01" purity="1.0388422757387161e-01" nType="-99"/>
          </Node>
        </Node>
      </Node>
    </BinaryTree>
    <BinaryTree type="DecisionTree" boostWeight="1.0000000000000000e+00" itree="30">
      <Node pos="s" depth="0" NCoef="0" IVar="3" Cut="1.4815899133682251e+00" cType="1" res="9.0657517313957214e-02" rms="3.9733055233955383e-01" purity="5.0000000000000000e-01" nType="0">
        <Node pos="l" depth="1" NCoef="0" IVar="4" Cut="1.5842697620391846e+00" cType="1" res="3.0656799674034119e-01" rms="3.2316288352012634e-01" purity="8.7536513805389404e-01" nType="0">
          <Node pos="l" depth="2" NCoef="0" IVar="-1" Cut="0.0000000000000000e+00" cType="1" res="4.8947921022772789e-03" rms="2.4268017709255219e-01" purity="9.3679749965667725e-01" nType="-99"/>
          <Node pos="r" depth="2" NCoef="0" IVar="-1" Cut="0.0000000000000000e+00" cType="1" res="2.6534709613770247e-03" rms="4.5908790826797485e-01" purity="6.8615216016769409e-01" nType="-99"/>
        </Node>
        <Node pos="r" depth="1" NCoef="0" IVar="0" Cut="2.7304363250732422e+00" cType="1" res="-4.1072968393564224e-02" rms="3.8036778569221497e-01" purity="2.7098363637924194e-01" nType="0">
          <Node pos="l" depth="2" NCoef="0" IVar="4" Cut="1.3903828859329224e+00" cType="1" res="-9.6752546727657318e-02" rms="3.2913708686828613e-01" purity="1.6885876655578613e-01" nType="0">
            <Node pos="l" depth="3" NCoef="0" IVar="-1" Cut="0.0000000000000000e+00" cType="1" res="2.0627388730645180e-03" rms="4.6875014901161194e-01" purity="4.5636171102523804e-01" nType="-99"/>
            <Node pos="r" depth="3" NCoef="0" IVar="-1" Cut="0.0000000000000000e+00" cType="1" res="-1.1554361321032047e-02" rms="2.9567348957061768e-01" purity="1.2728102505207062e-01" nType="-99"/>
          </Node>
          <Node pos="r" depth="2" NCoef="0" IVar="3" Cut="1.9790736436843872e+00" cType="1" res="5.7399816811084747e-02" rms="4.4020935893058777e-01" purity="4.5159777998924255e-01" nType="0">
            <Node pos="l" depth="3" NCoef="0" IVar="-1" Cut="0.0000000000000000e+00" cType="1" res="3.1175795011222363e-03" rms="4.5483985543251038e-01" purity="6.2679022550582886e-01" nType="-99"/>
            <Node pos="r" depth="3" NCoef="0" IVar="-1" Cut="0.0000000000000000e+00" cType="1" res="-3.5733459517359734e-03" rms="3.8703656196594238e-01" purity="2.3060573637485504e-01" nType="-99"/>
          </Node>
        </Node>
      </Node>
    </BinaryTree>
    <BinaryTree type="DecisionTree" boostWeight="1.0000000000000000e+00" itree="31">
      <Node pos="s" depth="0" NCoef="0" IVar="3" Cut="1.4636006355285645e+00" cType="1" res="9.1125711798667908e-02" rms="3.9606028795242310e-01" purity="5.0000000000000000e-01" nType="0">
        <Node pos="l" depth="1" NCoef="0" IVar="4" Cut="1.5931549072265625e+00" cType="1" res="3.0914321541786194e-01" rms="3.1677868962287903e-01" purity="8.8166362047195435e-01" nType="0">
          <Node pos="l" depth="2" NCoef="0" IVar="-1" Cut="0.0000000000000000e+00" cType="1" res="4.8775924369692802e-03" rms="2.3978295922279358e-01" purity="9.3869161605834961e-01" nType="-99"/>
          <Node pos="r" depth="2" NCoef="0" IVar="-1" Cut="0.0000000000000000e+00" cType="1" res="2.7257592882961035e-03" rms="4.5553112030029297e-01" purity="6.9641774892807007e-01" nType="-99"/>
        </Node>
        <Node pos="r" depth="1" NCoef="0" IVar="3" Cut="1.9014768600463867e+00" cType="1" res="-3.6262057721614838e-02" rms="3.8194909691810608e-01" purity="2.7699375152587891e-01" nType="0">
          <Node pos="l" depth="2" NCoef="0" IVar="1" Cut="7.0810431241989136e-01" cType="1" res="6.5702944993972778e-02" rms="4.5627045631408691e-01" purity="5.2208936214447021e-01" nType="0">
            <Node pos="l" depth="3" NCoef="0" IVar="-1" Cut="0.0000000000000000e+00" cType="1" res="3.3752454910427332e-03" rms="4.3330407142639160e-01" purity="7.4678802490234375e-01" nType="-99"/>
            <Node pos="r" depth="3" NCoef="0" IVar="-1" Cut="0.0000000000000000e+00" cType="1" res="-1.7814694438129663e-03" rms="4.4345667958259583e-01" purity="3.3378195762634277e-01" nType="-99"/>
          </Node>
          <Node pos="r" depth="2" NCoef="0" IVar="3" Cut="2.3709940910339355e+00" cType="1" res="-8.9289553463459015e-02" rms="3.2445028424263000e-01" purity="1.4953033626079559e-01" nType="0">
            <Node pos="l" depth="3" NCoef="0" IVar="-1" Cut="0.0000000000000000e+00" cType="1" res="-2.6208162307739258e-03" rms="3.8771709799766541e-01" purity="2.3798692226409912e-01" nType="-99"/>
            <Node pos="r" depth="3" NCoef="0" IVar="-1" Cut="0.0000000000000000e+00" cType="1" res="-1.9482979550957680e-02" rms="2.5806996226310730e-01" purity="7.8193075954914093e-02" nType="-99"/>
          </Node>
        </Node>
      </Node>
    </BinaryTree>
    <BinaryTree type="DecisionTree" boostWeight="1.0000000000000000e+00" itree="32">
      <Node pos="s" depth="0" NCoef="0" IVar="3" Cut="1.4636006355285645e+00" cType="1" res="9.1811701655387878e-02" rms="3.9472660422325134e-01" purity="5.0000000000000000e-01" nType="0">
        <Node pos="l" depth="1" NCoef="0" IVar="4" Cut="1.5931549072265625e+00" cType="1" res="3.0701118707656860e-01" rms="3.1666097044944763e-01" purity="8.8166362047195435e-01" nType="0">
          <Node pos="l" depth="2" NCoef="0" IVar="-1" Cut="0.0000000000000000e+00" cType="1" res="4.8530227504670620e-03" rms="2.3978310823440552e-01" purity="9.3869161605834961e-01" nType="-99"/>
          <Node pos="r" depth="2" NCoef="0" IVar="-1" Cut="0.0000000000000000e+00" cType="1" res="2.7030105702579021e-03" rms="4.5553302764892578e-01" purity="6.9641774892807007e-01" nType="-99"/>
        </Node>
        <Node pos="r" depth="1" NCoef="0" IVar="1" Cut="8.0545169115066528e-01" cType="1" res="-3.3929485827684402e-02" rms="3.8129767775535583e-01" purity="2.7699375152587891e-01" nType="0">
          <Node pos="l" depth="2" NCoef="0" IVar="3" Cut="2.1446890830993652e+00" cType="1" res="6.7650794982910156e-02" rms="4.5891413092613220e-01" purity="5.2606987953186035e-01" nType="0">
            <Node pos="l" depth="3" NCoef="0" IVar="-1" Cut="0.0000000000000000e+00" cType="1" res="2.9059231746941805e-03" rms="4.5728725194931030e-01" purity="6.7816090583801270e-01" nType="-99"/>
            <Node pos="r" depth="3" NCoef="0" IVar="-1" Cut="0.0000000000000000e+00" cType="1" res="-6.0297888703644276e-03" rms="4.0645486116409302e-01" purity="2.2644266486167908e-01" nType="-99"/>
          </Node>
          <Node pos="r" depth="2" NCoef="0" IVar="4" Cut="1.4137403964996338e+00" cType="1" res="-8.6151696741580963e-02" rms="3.2222583889961243e-01" purity="1.4894424378871918e-01" nType="0">
            <Node pos="l" depth="3" NCoef="0" IVar="-1" Cut="0.0000000000000000e+00" cType="1" res="9.5052155666053295e-04" rms="4.5854327082633972e-01" purity="3.9075630903244019e-01" nType="-99"/>
            <Node pos="r" depth="3" NCoef="0" IVar="-1" Cut="0.0000000000000000e+00" cType="1" res="-1.1164341121912003e-02" rms="2.9528057575225830e-01" purity="1.1585453152656555e-01" nType="-99"/>
          </Node>
        </Node>
      </Node>
    </BinaryTree>
    <BinaryTree type="DecisionTree" boostWeight="1.0000000000000000e+00" itree="33">
      <Node pos="s" depth="0" NCoef="0" IVar="3" Cut="1.4815899133682251e+00" cType="1" res="9.2312671244144440e-02" rms="3.9352321624755859e-01" purity="5.0000000000000000e-01" nType="0">
        <Node pos="l" depth="1" NCoef="0" IVar="4" Cut="1.7382788658142090e+00" cType="1" res="3.0036294460296631e-01" rms="3.2272183895111084e-01" purity="8.7536513805389404e-01" nType="0">
          <Node pos="l" depth="2" NCoef="0" IVar="-1" Cut="0.0000000000000000e+00" cType="1" res="4.7545055858790874e-03" rms="2.5944146513938904e-01" purity="9.2624211311340332e-01" nType="-99"/>
          <Node pos="r" depth="2" NCoef="0" IVar="-1" Cut="0.0000000000000000e+00" cType="1" res="2.1322173997759819e-03" rms="4.7179871797561646e-01" purity="6.5165162086486816e-01" nType="-99"/>
        </Node>
        <Node pos="r" depth="1" NCoef="0" IVar="1" Cut="8.0545169115066528e-01" cType="1" res="-3.4622184932231903e-02" rms="3.7852203845977783e-01" purity="2.7098363637924194e-01" nType="0">
          <Node pos="l" depth="2" NCoef="0" IVar="3" Cut="2.1451735496520996e+00" cType="1" res="6.5468870103359222e-02" rms="4.5857900381088257e-01" purity="5.2172821760177612e-01" nType="0">
            <Node pos="l" depth="3" NCoef="0" IVar="-1" Cut="0.0000000000000000e+00" cType="1" res="2.8804254252463579e-03" rms="4.5789659023284912e-01" purity="6.7649310827255249e-01" nType="-99"/>
            <Node pos="r" depth="3" NCoef="0" IVar="-1" Cut="0.0000000000000000e+00" cType="1" res="-5.9049981646239758e-03" rms="4.0649744868278503e-01" purity="2.2644266486167908e-01" nType="-99"/>
          </Node>
          <Node pos="r" depth="2" NCoef="0" IVar="4" Cut="1.5289303064346313e+00" cType="1" res="-8.5694022476673126e-02" rms="3.1837669014930725e-01" purity="1.4304025471210480e-01" nType="0">
            <Node pos="l" depth="3" NCoef="0" IVar="-1" Cut="0.0000000000000000e+00" cType="1" res="4.7151595936156809e-04" rms="4.4925624132156372e-01" purity="3.7237235903739929e-01" nType="-99"/>
            <Node pos="r" depth="3" NCoef="0" IVar="-1" Cut="0.0000000000000000e+00" cType="1" res="-1.4377930201590061e-02" rms="2.7966457605361938e-01" purity="9.5826894044876099e-02" nType="-99"/>
          </Node>
        </Node>
      </Node>
    </BinaryTree>
    <BinaryTree type="DecisionTree" boostWeight="1.0000000000000000e+00" itree="34">
      <Node pos="s" depth="0" NCoef="0" IVar="3" Cut="1.4636006355285645e+00" cType="1" res="9.3007408082485199e-02" rms="3.9220190048217773e-01" purity="5.0000000000000000e-01" nType="0">
        <Node pos="l" depth="1" NCoef="0" IVar="4" Cut="1.5931549072265625e+00" cType="1" res="3.0281218886375427e-01" rms="3.1641253829002380e-01" purity="8.8166362047195435e-01" nType="0">
          <Node pos="l" depth="2" NCoef="0" IVar="-1" Cut="0.0000000000000000e+00" cType="1" res="4.8051639460027218e-03" rms="2.3978342115879059e-01" purity="9.3869161605834961e-01" nType="-99"/>
          <Node pos="r" depth="2" NCoef="0" IVar="-1" Cut="0.0000000000000000e+00" cType="1" res="2.6577599346637726e-03" rms="4.5546740293502808e-01" purity="6.9641774892807007e-01" nType="-99"/>
        </Node>
        <Node pos="r" depth="1" NCoef="0" IVar="0" Cut="2.6519780158996582e+00" cType="1" res="-2.9581658542156219e-02" rms="3.8007184863090515e-01" purity="2.7699375152587891e-01" nType="0">
          <Node pos="l" depth="2" NCoef="0" IVar="4" Cut="1.4965426921844482e+00" cType="1" res="-8.8747963309288025e-02" rms="3.1944981217384338e-01" purity="1.6371680796146393e-01" nType="0">
            <Node pos="l" depth="3" NCoef="0" IVar="-1" Cut="0.0000000000000000e+00" cType="1" res="1.2799622491002083e-03" rms="4.5749688148498535e-01" purity="4.1443848609924316e-01" nType="-99"/>
            <Node pos="r" depth="3" NCoef="0" IVar="-1" Cut="0.0000000000000000e+00" cType="1" res="-1.1908121407032013e-02" rms="2.7880299091339111e-01" purity="1.1590754240751266e-01" nType="-99"/>
          </Node>
          <Node pos="r" depth="2" NCoef="0" IVar="3" Cut="1.9020607471466064e+00" cType="1" res="5.3839381784200668e-02" rms="4.3857771158218384e-01" purity="4.3670761585235596e-01" nType="0">
            <Node pos="l" depth="3" NCoef="0" IVar="-1" Cut="0.0000000000000000e+00" cType="1" res="2.9431241564452648e-03" rms="4.5462048053741455e-01" purity="6.2768596410751343e-01" nType="-99"/>
            <Node pos="r" depth="3" NCoef="0" IVar="-1" Cut="0.0000000000000000e+00" cType="1" res="-1.7348544206470251e-03" rms="4.0342986583709717e-01" purity="2.5539427995681763e-01" nType="-99"/>
          </Node>
        </Node>
      </Node>
    </BinaryTree>
    <BinaryTree type="DecisionTree" boostWeight="1.0000000000000000e+00" itree="35">
      <Node pos="s" depth="0" NCoef="0" IVar="3" Cut="1.4636006355285645e+00" cType="1" res="9.3295998871326447e-02" rms="3.9110028743743896e-01" purity="5.0000000000000000e-01" nType="0">
        <Node pos="l" depth="1" NCoef="0" IVar="4" Cut="1.5931549072265625e+00" cType="1" res="3.0072435736656189e-01" rms="3.1629773974418640e-01" purity="8.8166362047195435e-01" nType="0">
          <Node pos="l" depth="2" NCoef="0" IVar="-1" Cut="0.0000000000000000e+00" cType="1" res="4.7814906574785709e-03" rms="2.3978358507156372e-01" purity="9.3869161605834961e-01" nType="-99"/>
          <Node pos="r" depth="2" NCoef="0" IVar="-1" Cut="0.0000000000000000e+00" cType="1" res="2.6356566231697798e-03" rms="4.5546945929527283e-01" purity="6.9641774892807007e-01" nType="-99"/>
        </Node>
        <Node pos="r" depth="1" NCoef="0" IVar="3" Cut="1.9014768600463867e+00" cType="1" res="-2.7904523536562920e-02" rms="3.7953630089759827e-01" purity="2.7699375152587891e-01" nType="0">
          <Node pos="l" depth="2" NCoef="0" IVar="1" Cut="7.0810431241989136e-01" cType="1" res="6.8420574069023132e-02" rms="4.5331925153732300e-01" purity="5.2208936214447021e-01" nType="0">
            <Node pos="l" depth="3" NCoef="0" IVar="-1" Cut="0.0000000000000000e+00" cType="1" res="3.3097788691520691e-03" rms="4.3303403258323669e-01" purity="7.4678802490234375e-01" nType="-99"/>
            <Node pos="r" depth="3" NCoef="0" IVar="-1" Cut="0.0000000000000000e+00" cType="1" res="-1.4747116947546601e-03" rms="4.4135132431983948e-01" purity="3.3378195762634277e-01" nType="-99"/>
          </Node>
          <Node pos="r" depth="2" NCoef="0" IVar="1" Cut="1.2942404747009277e+00" cType="1" res="-7.7998958528041840e-02" rms="3.2365924119949341e-01" purity="1.4953033626079559e-01" nType="0">
            <Node pos="l" depth="3" NCoef="0" IVar="-1" Cut="0.0000000000000000e+00" cType="1" res="-1.7312455456703901e-03" rms="4.2690536379814148e-01" purity="2.8465637564659119e-01" nType="-99"/>
