<?xml version="1.0"?>
<MethodSetup Method="BDT::BDTG_MuTauKine">
  <GeneralInfo>
    <Info name="TMVA Release" value="4.2.0 [262656]"/>
    <Info name="ROOT Release" value="6.02/05 [393733]"/>
    <Info name="Creator" value="cadamuro"/>
    <Info name="Date" value="Wed Jan 13 12:00:31 2016"/>
    <Info name="Host" value="Linux vocms029.cern.ch 2.6.32-504.12.2.el6.x86_64 #1 SMP Thu Mar 12 07:33:00 CET 2015 x86_64 x86_64 x86_64 GNU/Linux"/>
    <Info name="Dir" value="/grid_mnt/vol__vol_U__u/llr/cms/cadamuro/HHKlubAnalysis/CMSSW_7_4_7/src/KLUBAnalysis"/>
    <Info name="Training events" value="19590"/>
    <Info name="TrainingTime" value="8.51474404e+00"/>
    <Info name="AnalysisType" value="Classification"/>
  </GeneralInfo>
  <Options>
    <Option name="V" modified="No">False</Option>
    <Option name="VerbosityLevel" modified="No">Default</Option>
    <Option name="VarTransform" modified="No">None</Option>
    <Option name="H" modified="No">False</Option>
    <Option name="CreateMVAPdfs" modified="Yes">True</Option>
    <Option name="IgnoreNegWeightsInTraining" modified="No">False</Option>
    <Option name="NTrees" modified="Yes">300</Option>
    <Option name="MaxDepth" modified="Yes">3</Option>
    <Option name="MinNodeSize" modified="No">5%</Option>
    <Option name="nCuts" modified="Yes">2000</Option>
    <Option name="BoostType" modified="Yes">Grad</Option>
    <Option name="AdaBoostR2Loss" modified="No">quadratic</Option>
    <Option name="UseBaggedBoost" modified="No">False</Option>
    <Option name="Shrinkage" modified="Yes">1.000000e-01</Option>
    <Option name="AdaBoostBeta" modified="No">5.000000e-01</Option>
    <Option name="UseRandomisedTrees" modified="No">False</Option>
    <Option name="UseNvars" modified="No">2</Option>
    <Option name="UsePoissonNvars" modified="No">True</Option>
    <Option name="BaggedSampleFraction" modified="No">7.000000e-01</Option>
    <Option name="UseYesNoLeaf" modified="Yes">False</Option>
    <Option name="NegWeightTreatment" modified="No">ignorenegweightsintraining</Option>
    <Option name="Css" modified="No">1.000000e+00</Option>
    <Option name="Cts_sb" modified="No">1.000000e+00</Option>
    <Option name="Ctb_ss" modified="No">1.000000e+00</Option>
    <Option name="Cbb" modified="No">1.000000e+00</Option>
    <Option name="NodePurityLimit" modified="No">5.000000e-01</Option>
    <Option name="SeparationType" modified="Yes">giniindex</Option>
    <Option name="DoBoostMonitor" modified="No">False</Option>
    <Option name="UseFisherCuts" modified="No">False</Option>
    <Option name="MinLinCorrForFisher" modified="No">8.000000e-01</Option>
    <Option name="UseExclusiveVars" modified="No">False</Option>
    <Option name="DoPreselection" modified="No">False</Option>
    <Option name="SigToBkgFraction" modified="No">1.000000e+00</Option>
    <Option name="PruneMethod" modified="Yes">nopruning</Option>
    <Option name="PruneStrength" modified="Yes">5.000000e+00</Option>
    <Option name="PruningValFraction" modified="No">5.000000e-01</Option>
    <Option name="nEventsMin" modified="No">0</Option>
    <Option name="UseBaggedGrad" modified="Yes">False</Option>
    <Option name="GradBaggingFraction" modified="Yes">7.000000e-01</Option>
    <Option name="UseNTrainEvents" modified="No">0</Option>
    <Option name="NNodesMax" modified="No">0</Option>
  </Options>
  <Variables NVar="5">
    <Variable VarIndex="0" Expression="HH_deltaPhi" Label="HH_deltaPhi" Title="HH_deltaPhi" Unit="" Internal="HH_deltaPhi" Type="F" Min="7.02261925e-04" Max="3.14156914e+00"/>
    <Variable VarIndex="1" Expression="tauHMet_deltaPhi" Label="tauHMet_deltaPhi" Title="tauHMet_deltaPhi" Unit="" Internal="tauHMet_deltaPhi" Type="F" Min="1.29103661e-04" Max="3.14158130e+00"/>
    <Variable VarIndex="2" Expression="bHMet_deltaPhi" Label="bHMet_deltaPhi" Title="bHMet_deltaPhi" Unit="" Internal="bHMet_deltaPhi" Type="F" Min="4.52399254e-04" Max="3.14156294e+00"/>
    <Variable VarIndex="3" Expression="ditau_deltaR" Label="ditau_deltaR" Title="ditau_deltaR" Unit="" Internal="ditau_deltaR" Type="F" Min="4.69152898e-01" Max="4.17343330e+00"/>
    <Variable VarIndex="4" Expression="dib_deltaR" Label="dib_deltaR" Title="dib_deltaR" Unit="" Internal="dib_deltaR" Type="F" Min="4.52290505e-01" Max="4.03342009e+00"/>
  </Variables>
  <Spectators NSpec="2">
    <Spectator SpecIndex="0" Expression="HH_mass" Label="HH_mass" Title="F" Unit="" Internal="HH_mass" Type="F" Min="1.23790314e+02" Max="1.26505908e+03"/>
    <Spectator SpecIndex="1" Expression="HHKin_mass" Label="HHKin_mass" Title="F" Unit="" Internal="HHKin_mass" Type="F" Min="0.00000000e+00" Max="1.47482861e+03"/>
  </Spectators>
  <Classes NClass="2">
    <Class Name="Signal" Index="0"/>
    <Class Name="Background" Index="1"/>
  </Classes>
  <Transformations NTransformations="0"/>
  <MVAPdfs>
    <PDF Name="BDTG_MuTauKine_PDFSig" MinNSmooth="0" MaxNSmooth="0" InterpolMethod="2" KDE_type="1" KDE_iter="1" KDE_border="1" KDE_finefactor="1.0000000000000000e+00">
      <Histogram Name="BDT_tr_S_original" NBins="391" XMin="-9.6722257137298584e-01" XMax="7.7267456054687500e-01" HasEquidistantBins="1">
        0.00000000e+00 0.00000000e+00 0.00000000e+00 0.00000000e+00 0.00000000e+00 0.00000000e+00 0.00000000e+00 0.00000000e+00 0.00000000e+00 0.00000000e+00 0.00000000e+00 0.00000000e+00 9.09821576e-01 0.00000000e+00 4.54910788e-01 0.00000000e+00 0.00000000e+00 0.00000000e+00 0.00000000e+00 4.54910788e-01 4.54910788e-01 0.00000000e+00 0.00000000e+00 0.00000000e+00 0.00000000e+00 0.00000000e+00 9.09821576e-01 4.54910788e-01 9.09821576e-01 0.00000000e+00 4.54910788e-01 0.00000000e+00 0.00000000e+00 0.00000000e+00 4.54910788e-01 4.54910788e-01 4.54910788e-01 0.00000000e+00 4.54910788e-01 0.00000000e+00 0.00000000e+00 0.00000000e+00 0.00000000e+00 0.00000000e+00 0.00000000e+00 0.00000000e+00 0.00000000e+00 0.00000000e+00 0.00000000e+00 0.00000000e+00 4.54910788e-01 0.00000000e+00 9.09821576e-01 0.00000000e+00 4.54910788e-01 0.00000000e+00 0.00000000e+00 4.54910788e-01 0.00000000e+00 0.00000000e+00 0.00000000e+00 0.00000000e+00 9.09821576e-01 4.54910788e-01 0.00000000e+00 0.00000000e+00 4.54910788e-01 0.00000000e+00 4.54910788e-01 0.00000000e+00 0.00000000e+00 0.00000000e+00 4.54910788e-01 4.54910788e-01 0.00000000e+00 0.00000000e+00 4.54910788e-01 0.00000000e+00 0.00000000e+00 0.00000000e+00 0.00000000e+00 4.54910788e-01 0.00000000e+00 9.09821576e-01 0.00000000e+00 4.54910788e-01 0.00000000e+00 0.00000000e+00 0.00000000e+00 4.54910788e-01 0.00000000e+00 0.00000000e+00 4.54910788e-01 0.00000000e+00 4.54910788e-01 0.00000000e+00 0.00000000e+00 0.00000000e+00 0.00000000e+00 9.09821576e-01 0.00000000e+00 4.54910788e-01 4.54910788e-01 0.00000000e+00 4.54910788e-01 0.00000000e+00 4.54910788e-01 0.00000000e+00 4.54910788e-01 0.00000000e+00 4.54910788e-01 0.00000000e+00 0.00000000e+00 0.00000000e+00 0.00000000e+00 0.00000000e+00 0.00000000e+00 0.00000000e+00 4.54910788e-01 9.09821576e-01 0.00000000e+00 4.54910788e-01 4.54910788e-01 0.00000000e+00 9.09821576e-01 4.54910788e-01 0.00000000e+00 0.00000000e+00 0.00000000e+00 0.00000000e+00 4.54910788e-01 4.54910788e-01 0.00000000e+00 0.00000000e+00 0.00000000e+00 4.54910788e-01 0.00000000e+00 0.00000000e+00 4.54910788e-01 0.00000000e+00 0.00000000e+00 0.00000000e+00 0.00000000e+00 0.00000000e+00 0.00000000e+00 0.00000000e+00 0.00000000e+00 4.54910788e-01 0.00000000e+00 4.54910788e-01 0.00000000e+00 0.00000000e+00 0.00000000e+00 4.54910788e-01 0.00000000e+00 0.00000000e+00 4.54910788e-01 0.00000000e+00 0.00000000e+00 4.54910788e-01 4.54910788e-01 0.00000000e+00 0.00000000e+00 0.00000000e+00 0.00000000e+00 0.00000000e+00 0.00000000e+00 4.54910788e-01 0.00000000e+00 1.36473236e+00 0.00000000e+00 0.00000000e+00 9.09821576e-01 4.54910788e-01 0.00000000e+00 0.00000000e+00 0.00000000e+00 4.54910788e-01 0.00000000e+00 0.00000000e+00 0.00000000e+00 0.00000000e+00 4.54910788e-01 0.00000000e+00 4.54910788e-01 0.00000000e+00 0.00000000e+00 9.09821576e-01 0.00000000e+00 0.00000000e+00 4.54910788e-01 4.54910788e-01 4.54910788e-01 0.00000000e+00 0.00000000e+00 0.00000000e+00 4.54910788e-01 0.00000000e+00 0.00000000e+00 1.36473236e+00 0.00000000e+00 4.54910788e-01 9.09821576e-01 0.00000000e+00 0.00000000e+00 4.54910788e-01 0.00000000e+00 0.00000000e+00 0.00000000e+00 0.00000000e+00 4.54910788e-01 0.00000000e+00 4.54910788e-01 0.00000000e+00 0.00000000e+00 1.36473236e+00 1.36473236e+00 0.00000000e+00 4.54910788e-01 9.09821576e-01 0.00000000e+00 4.54910788e-01 4.54910788e-01 0.00000000e+00 0.00000000e+00 4.54910788e-01 9.09821576e-01 0.00000000e+00 9.09821576e-01 0.00000000e+00 0.00000000e+00 0.00000000e+00 0.00000000e+00 0.00000000e+00 4.54910788e-01 0.00000000e+00 0.00000000e+00 0.00000000e+00 9.09821576e-01 0.00000000e+00 0.00000000e+00 4.54910788e-01 0.00000000e+00 4.54910788e-01 9.09821576e-01 4.54910788e-01 9.09821576e-01 4.54910788e-01 0.00000000e+00 4.54910788e-01 4.54910788e-01 0.00000000e+00 4.54910788e-01 9.09821576e-01 4.54910788e-01 9.09821576e-01 4.54910788e-01 0.00000000e+00 4.54910788e-01 1.36473236e+00 9.09821576e-01 4.54910788e-01 0.00000000e+00 4.54910788e-01 4.54910788e-01 9.09821576e-01 9.09821576e-01 0.00000000e+00 4.54910788e-01 4.54910788e-01 0.00000000e+00 4.54910788e-01 0.00000000e+00 0.00000000e+00 9.09821576e-01 4.54910788e-01 4.54910788e-01 0.00000000e+00 0.00000000e+00 0.00000000e+00 4.54910788e-01 0.00000000e+00 0.00000000e+00 0.00000000e+00 0.00000000e+00 9.09821576e-01 0.00000000e+00 1.36473236e+00 0.00000000e+00 0.00000000e+00 9.09821576e-01 9.09821576e-01 0.00000000e+00 1.36473236e+00 0.00000000e+00 4.54910788e-01 4.54910788e-01 1.81964315e+00 4.54910788e-01 4.54910788e-01 0.00000000e+00 9.09821576e-01 9.09821576e-01 1.36473236e+00 4.54910788e-01 9.09821576e-01 4.54910788e-01 3.18437552e+00 1.36473236e+00 0.00000000e+00 0.00000000e+00 0.00000000e+00 4.54910788e-01 0.00000000e+00 4.54910788e-01 4.54910788e-01 0.00000000e+00 9.09821576e-01 9.09821576e-01 0.00000000e+00 4.54910788e-01 9.09821576e-01 0.00000000e+00 1.36473236e+00 0.00000000e+00 1.36473236e+00 9.09821576e-01 4.54910788e-01 0.00000000e+00 1.36473236e+00 4.54910788e-01 1.36473236e+00 4.54910788e-01 1.81964315e+00 1.36473236e+00 4.54910788e-01 0.00000000e+00 2.27455394e+00 1.81964315e+00 2.27455394e+00 9.09821576e-01 2.27455394e+00 9.09821576e-01 4.54910788e-01 1.36473236e+00 9.09821576e-01 1.36473236e+00 9.09821576e-01 4.54910788e-01 1.81964315e+00 0.00000000e+00 4.54910788e-01 0.00000000e+00 2.27455394e+00 1.36473236e+00 1.81964315e+00 1.36473236e+00 0.00000000e+00 9.09821576e-01 4.54910788e-01 0.00000000e+00 0.00000000e+00 2.72946473e+00 9.09821576e-01 1.36473236e+00 4.54910788e-01 1.36473236e+00 1.81964315e+00 4.54910788e+00 4.54910788e-01 1.36473236e+00 0.00000000e+00 2.27455394e+00 2.27455394e+00 0.00000000e+00 4.54910788e-01 1.54669668e+01 5.00401867e+00 9.09821576e-01 9.09821576e+00 7.73348340e+00 5.00401867e+00 4.54910788e-01 4.54910788e-01 0.00000000e+00 0.00000000e+00 1.81964315e+00 8.64330498e+00 1.86513423e+01 0.00000000e+00 5.45892946e+00 
      </Histogram>
    </PDF>
    <PDF Name="BDTG_MuTauKine_PDFBkg" MinNSmooth="0" MaxNSmooth="0" InterpolMethod="2" KDE_type="1" KDE_iter="1" KDE_border="1" KDE_finefactor="1.0000000000000000e+00">
      <Histogram Name="BDT_tr_B_original" NBins="391" XMin="-9.6722257137298584e-01" XMax="7.7267456054687500e-01" HasEquidistantBins="1">
        1.01163563e+00 1.96376329e+00 2.57074466e+00 3.09441487e+00 5.60565156e+00 5.22480050e+00 4.47499997e+00 5.49853720e+00 3.15392285e+00 4.53450795e+00 3.33244679e+00 4.73683508e+00 3.18962764e+00 2.60644945e+00 3.14202126e+00 2.05897605e+00 2.95159573e+00 3.41575796e+00 2.95159573e+00 2.05897605e+00 2.61835105e+00 2.83257977e+00 2.16609041e+00 2.20179520e+00 2.11848403e+00 2.59454786e+00 2.51123669e+00 2.09468084e+00 2.03517286e+00 2.63025264e+00 2.61835105e+00 1.89235371e+00 1.83284573e+00 2.21369679e+00 2.23749999e+00 2.11848403e+00 1.40438829e+00 1.61861701e+00 1.30917552e+00 1.21396276e+00 1.07114361e+00 1.32107712e+00 1.40438829e+00 9.52127653e-01 1.19015957e+00 1.49960105e+00 8.56914888e-01 1.04734042e+00 1.22586435e+00 9.04521271e-01 8.56914888e-01 1.36868350e+00 1.02353723e+00 1.09494680e+00 6.66489357e-01 8.45013292e-01 1.01163563e+00 1.05924201e+00 1.05924201e+00 1.04734042e+00 1.02353723e+00 7.02194144e-01 1.21396276e+00 7.37898931e-01 7.97406910e-01 9.16422866e-01 9.99734036e-01 6.06981379e-01 7.61702123e-01 1.08304521e+00 6.06981379e-01 7.85505314e-01 5.95079783e-01 4.76063827e-01 4.64162231e-01 5.23670209e-01 3.33244679e-01 5.23670209e-01 6.90292549e-01 6.54587762e-01 6.90292549e-01 6.18882975e-01 7.73603718e-01 7.49800527e-01 6.18882975e-01 9.04521271e-01 5.23670209e-01 7.73603718e-01 5.11768614e-01 2.97539892e-01 4.99867018e-01 8.21210101e-01 6.06981379e-01 5.95079783e-01 6.30784570e-01 5.59374996e-01 3.21343083e-01 4.28457444e-01 4.52260635e-01 6.90292549e-01 5.59374996e-01 3.68949466e-01 4.04654253e-01 2.26130318e-01 3.45146274e-01 4.04654253e-01 3.57047870e-01 3.92752657e-01 2.85638296e-01 5.23670209e-01 4.16555848e-01 3.33244679e-01 3.45146274e-01 5.23670209e-01 5.71276592e-01 4.64162231e-01 3.45146274e-01 3.57047870e-01 4.28457444e-01 2.73736700e-01 4.04654253e-01 3.92752657e-01 2.61835105e-01 2.85638296e-01 2.38031913e-01 3.57047870e-01 2.49933509e-01 3.57047870e-01 2.38031913e-01 2.73736700e-01 2.85638296e-01 3.80851061e-01 4.16555848e-01 4.40359040e-01 2.38031913e-01 2.73736700e-01 4.28457444e-01 3.92752657e-01 4.76063827e-01 3.45146274e-01 3.33244679e-01 1.78523935e-01 4.28457444e-01 2.14228722e-01 3.33244679e-01 3.57047870e-01 3.09441487e-01 4.64162231e-01 4.04654253e-01 2.26130318e-01 2.61835105e-01 2.02327126e-01 2.73736700e-01 2.85638296e-01 2.49933509e-01 2.26130318e-01 1.54720744e-01 2.97539892e-01 3.57047870e-01 2.02327126e-01 1.90425531e-01 2.49933509e-01 1.90425531e-01 3.09441487e-01 1.90425531e-01 3.33244679e-01 1.66622339e-01 2.02327126e-01 2.38031913e-01 3.21343083e-01 1.66622339e-01 3.57047870e-01 1.54720744e-01 2.61835105e-01 1.54720744e-01 5.11768614e-01 2.61835105e-01 2.26130318e-01 3.21343083e-01 2.26130318e-01 2.49933509e-01 2.14228722e-01 1.90425531e-01 1.66622339e-01 2.61835105e-01 3.21343083e-01 2.73736700e-01 2.49933509e-01 2.26130318e-01 2.61835105e-01 1.90425531e-01 2.26130318e-01 2.38031913e-01 3.92752657e-01 1.19015957e-01 1.30917552e-01 1.78523935e-01 1.66622339e-01 1.54720744e-01 2.14228722e-01 2.97539892e-01 1.30917552e-01 2.61835105e-01 2.49933509e-01 2.14228722e-01 2.14228722e-01 3.33244679e-01 1.54720744e-01 2.02327126e-01 3.45146274e-01 2.85638296e-01 4.64162231e-01 2.26130318e-01 2.49933509e-01 1.42819148e-01 2.26130318e-01 2.26130318e-01 2.02327126e-01 1.07114361e-01 2.49933509e-01 2.38031913e-01 3.80851061e-01 2.26130318e-01 3.45146274e-01 2.14228722e-01 1.54720744e-01 1.54720744e-01 1.66622339e-01 2.02327126e-01 1.42819148e-01 1.54720744e-01 2.26130318e-01 1.42819148e-01 9.52127653e-02 4.76063827e-01 2.73736700e-01 2.02327126e-01 3.68949466e-01 4.16555848e-01 1.54720744e-01 1.30917552e-01 3.21343083e-01 1.42819148e-01 3.09441487e-01 1.90425531e-01 1.78523935e-01 1.30917552e-01 1.42819148e-01 1.30917552e-01 1.42819148e-01 1.54720744e-01 8.33111697e-02 1.30917552e-01 1.66622339e-01 1.07114361e-01 2.26130318e-01 9.52127653e-02 2.14228722e-01 1.66622339e-01 2.14228722e-01 1.66622339e-01 9.52127653e-02 9.52127653e-02 1.30917552e-01 3.57047870e-02 1.19015957e-01 1.42819148e-01 1.54720744e-01 4.76063827e-02 1.90425531e-01 9.52127653e-02 1.42819148e-01 1.54720744e-01 2.38031913e-01 2.26130318e-01 1.66622339e-01 1.42819148e-01 2.49933509e-01 1.66622339e-01 2.49933509e-01 1.90425531e-01 2.73736700e-01 2.26130318e-01 3.21343083e-01 1.30917552e-01 1.07114361e-01 1.42819148e-01 3.09441487e-01 2.02327126e-01 1.07114361e-01 1.42819148e-01 1.42819148e-01 8.33111697e-02 2.14228722e-01 2.14228722e-01 1.30917552e-01 2.26130318e-01 1.30917552e-01 1.19015957e-01 1.07114361e-01 2.02327126e-01 2.73736700e-01 1.54720744e-01 2.73736700e-01 3.21343083e-01 2.14228722e-01 1.78523935e-01 1.19015957e-01 2.26130318e-01 9.52127653e-02 9.52127653e-02 2.14228722e-01 1.66622339e-01 1.42819148e-01 1.54720744e-01 1.54720744e-01 1.66622339e-01 2.38031913e-01 1.19015957e-01 2.49933509e-01 1.30917552e-01 2.14228722e-01 8.33111697e-02 6.90292549e-01 8.33111697e-02 5.35571805e-01 1.19015957e-01 1.30917552e-01 2.38031913e-01 3.33244679e-01 1.54720744e-01 2.38031913e-01 2.85638296e-01 1.90425531e-01 1.54720744e-01 2.85638296e-01 1.66622339e-01 5.71276592e-01 2.85638296e-01 3.57047870e-01 2.49933509e-01 2.73736700e-01 9.52127653e-02 1.54720744e-01 9.52127653e-02 1.07114361e-01 1.90425531e-01 9.52127653e-02 5.95079783e-02 2.38031913e-01 7.14095740e-02 1.54720744e-01 7.14095740e-02 1.30917552e-01 1.78523935e-01 1.19015957e-01 2.49933509e-01 9.52127653e-02 1.07114361e-01 8.33111697e-02 3.57047870e-02 1.66622339e-01 2.61835105e-01 3.57047870e-02 1.07114361e-01 3.57047870e-02 1.30917552e-01 4.16555848e-01 4.64162231e-01 9.52127653e-02 4.76063827e-02 5.95079783e-02 1.07114361e-01 1.90425531e-01 2.38031913e-02 8.33111697e-02 7.02194144e-01 3.45146274e-01 1.07114361e-01 6.42686166e-01 4.16555848e-01 2.49933509e-01 0.00000000e+00 0.00000000e+00 3.57047870e-02 0.00000000e+00 5.95079783e-02 3.45146274e-01 4.16555848e-01 0.00000000e+00 8.33111697e-02 
      </Histogram>
    </PDF>
  </MVAPdfs>
  <Weights NTrees="300" AnalysisType="1">
    <BinaryTree type="DecisionTree" boostWeight="1.0000000000000000e+00" itree="0">
      <Node pos="s" depth="0" NCoef="0" IVar="3" Cut="1.6187571287155151e+00" cType="1" res="8.1609043664440672e-17" rms="5.0000000000000000e-01" purity="5.0000000000000000e-01" nType="0">
        <Node pos="l" depth="1" NCoef="0" IVar="4" Cut="1.7990466356277466e+00" cType="1" res="3.4670984745025635e-01" rms="3.6026698350906372e-01" purity="8.4670984745025635e-01" nType="0">
          <Node pos="l" depth="2" NCoef="0" IVar="-1" Cut="0.0000000000000000e+00" cType="1" res="5.8033545501530170e-03" rms="2.9112219810485840e-01" purity="9.0650689601898193e-01" nType="-99"/>
          <Node pos="r" depth="2" NCoef="0" IVar="-1" Cut="0.0000000000000000e+00" cType="1" res="1.5422026626765728e-03" rms="4.9517032504081726e-01" purity="5.6932777166366577e-01" nType="-99"/>
        </Node>
        <Node pos="r" depth="1" NCoef="0" IVar="1" Cut="1.4350552558898926e+00" cType="1" res="-2.7666640281677246e-01" rms="4.1648012399673462e-01" purity="2.2333359718322754e-01" nType="0">
          <Node pos="l" depth="2" NCoef="0" IVar="4" Cut="1.5119045972824097e+00" cType="1" res="-1.3694533705711365e-01" rms="4.8088040947914124e-01" purity="3.6305466294288635e-01" nType="0">
            <Node pos="l" depth="3" NCoef="0" IVar="-1" Cut="0.0000000000000000e+00" cType="1" res="2.0554326474666595e-03" rms="4.9058640003204346e-01" purity="5.9656590223312378e-01" nType="-99"/>
            <Node pos="r" depth="3" NCoef="0" IVar="-1" Cut="0.0000000000000000e+00" cType="1" res="-1.0866170749068260e-02" rms="4.3913787603378296e-01" purity="2.6092278957366943e-01" nType="-99"/>
          </Node>
          <Node pos="r" depth="2" NCoef="0" IVar="4" Cut="1.8157385587692261e+00" cType="1" res="-4.1986009478569031e-01" rms="2.7150964736938477e-01" purity="8.0139890313148499e-02" nType="0">
            <Node pos="l" depth="3" NCoef="0" IVar="-1" Cut="0.0000000000000000e+00" cType="1" res="-2.0086603239178658e-02" rms="3.8386106491088867e-01" purity="1.7960856854915619e-01" nType="-99"/>
            <Node pos="r" depth="3" NCoef="0" IVar="-1" Cut="0.0000000000000000e+00" cType="1" res="-7.5465798377990723e-02" rms="2.0970061421394348e-01" purity="4.6099513769149780e-02" nType="-99"/>
          </Node>
        </Node>
      </Node>
    </BinaryTree>
    <BinaryTree type="DecisionTree" boostWeight="1.0000000000000000e+00" itree="1">
      <Node pos="s" depth="0" NCoef="0" IVar="3" Cut="1.6187571287155151e+00" cType="1" res="8.2662971690297127e-03" rms="4.9131992459297180e-01" purity="5.0000000000000000e-01" nType="0">
        <Node pos="l" depth="1" NCoef="0" IVar="4" Cut="1.7990466356277466e+00" cType="1" res="3.4418603777885437e-01" rms="3.5997685790061951e-01" purity="8.4670984745025635e-01" nType="0">
          <Node pos="l" depth="2" NCoef="0" IVar="-1" Cut="0.0000000000000000e+00" cType="1" res="5.7621244341135025e-03" rms="2.9112219810485840e-01" purity="9.0650689601898193e-01" nType="-99"/>
          <Node pos="r" depth="2" NCoef="0" IVar="-1" Cut="0.0000000000000000e+00" cType="1" res="1.5250529395416379e-03" rms="4.9517032504081726e-01" purity="5.6932777166366577e-01" nType="-99"/>
        </Node>
        <Node pos="r" depth="1" NCoef="0" IVar="4" Cut="1.5133017301559448e+00" cType="1" res="-2.5978985428810120e-01" rms="4.1075435280799866e-01" purity="2.2333359718322754e-01" nType="0">
          <Node pos="l" depth="2" NCoef="0" IVar="1" Cut="1.0804191827774048e+00" cType="1" res="-1.0182002559304237e-02" rms="4.9812313914299011e-01" purity="4.8783931136131287e-01" nType="0">
            <Node pos="l" depth="3" NCoef="0" IVar="-1" Cut="0.0000000000000000e+00" cType="1" res="2.2579445503652096e-03" rms="4.8791655898094177e-01" purity="6.0923033952713013e-01" nType="-99"/>
            <Node pos="r" depth="3" NCoef="0" IVar="-1" Cut="0.0000000000000000e+00" cType="1" res="-6.2242201529443264e-03" rms="4.6708807349205017e-01" purity="3.2666596770286560e-01" nType="-99"/>
          </Node>
          <Node pos="r" depth="2" NCoef="0" IVar="3" Cut="1.9432576894760132e+00" cType="1" res="-3.2674875855445862e-01" rms="3.5527539253234863e-01" purity="1.5237824618816376e-01" nType="0">
            <Node pos="l" depth="3" NCoef="0" IVar="-1" Cut="0.0000000000000000e+00" cType="1" res="-5.2611925639212132e-03" rms="4.6740031242370605e-01" purity="3.3832103013992310e-01" nType="-99"/>
            <Node pos="r" depth="3" NCoef="0" IVar="-1" Cut="0.0000000000000000e+00" cType="1" res="-3.8060668855905533e-02" rms="2.9628452658653259e-01" purity="9.9151454865932465e-02" nType="-99"/>
          </Node>
        </Node>
      </Node>
    </BinaryTree>
    <BinaryTree type="DecisionTree" boostWeight="1.0000000000000000e+00" itree="2">
      <Node pos="s" depth="0" NCoef="0" IVar="3" Cut="1.6187571287155151e+00" cType="1" res="1.3946928083896637e-02" rms="4.8529440164566040e-01" purity="5.0000000000000000e-01" nType="0">
        <Node pos="l" depth="1" NCoef="0" IVar="4" Cut="1.7990466356277466e+00" cType="1" res="3.4168085455894470e-01" rms="3.5969001054763794e-01" purity="8.4670984745025635e-01" nType="0">
          <Node pos="l" depth="2" NCoef="0" IVar="-1" Cut="0.0000000000000000e+00" cType="1" res="5.7215681299567223e-03" rms="2.9112219810485840e-01" purity="9.0650689601898193e-01" nType="-99"/>
          <Node pos="r" depth="2" NCoef="0" IVar="-1" Cut="0.0000000000000000e+00" cType="1" res="1.5081011224538088e-03" rms="4.9517032504081726e-01" purity="5.6932777166366577e-01" nType="-99"/>
        </Node>
        <Node pos="r" depth="1" NCoef="0" IVar="1" Cut="1.4350552558898926e+00" cType="1" res="-2.4757714569568634e-01" rms="4.0755090117454529e-01" purity="2.2333359718322754e-01" nType="0">
          <Node pos="l" depth="2" NCoef="0" IVar="3" Cut="2.2293956279754639e+00" cType="1" res="-1.2370667606592178e-01" rms="4.7630921006202698e-01" purity="3.6305466294288635e-01" nType="0">
            <Node pos="l" depth="3" NCoef="0" IVar="-1" Cut="0.0000000000000000e+00" cType="1" res="2.5990250287577510e-04" rms="4.9729579687118530e-01" purity="5.0156289339065552e-01" nType="-99"/>
            <Node pos="r" depth="3" NCoef="0" IVar="-1" Cut="0.0000000000000000e+00" cType="1" res="-1.7044147476553917e-02" rms="3.9060005545616150e-01" purity="1.9291831552982330e-01" nType="-99"/>
          </Node>
          <Node pos="r" depth="2" NCoef="0" IVar="4" Cut="1.8157385587692261e+00" cType="1" res="-3.7452632188796997e-01" rms="2.6827830076217651e-01" purity="8.0139890313148499e-02" nType="0">
            <Node pos="l" depth="3" NCoef="0" IVar="-1" Cut="0.0000000000000000e+00" cType="1" res="-1.8888829275965691e-02" rms="3.8275694847106934e-01" purity="1.7960856854915619e-01" nType="-99"/>
            <Node pos="r" depth="3" NCoef="0" IVar="-1" Cut="0.0000000000000000e+00" cType="1" res="-6.7253328859806061e-02" rms="2.0970164239406586e-01" purity="4.6099513769149780e-02" nType="-99"/>
          </Node>
        </Node>
      </Node>
    </BinaryTree>
    <BinaryTree type="DecisionTree" boostWeight="1.0000000000000000e+00" itree="3">
      <Node pos="s" depth="0" NCoef="0" IVar="3" Cut="1.6187571287155151e+00" cType="1" res="2.1297195926308632e-02" rms="4.7774654626846313e-01" purity="5.0000000000000000e-01" nType="0">
        <Node pos="l" depth="1" NCoef="0" IVar="4" Cut="1.7990466356277466e+00" cType="1" res="3.3919417858123779e-01" rms="3.5940638184547424e-01" purity="8.4670984745025635e-01" nType="0">
          <Node pos="l" depth="2" NCoef="0" IVar="-1" Cut="0.0000000000000000e+00" cType="1" res="5.6816679425537586e-03" rms="2.9112219810485840e-01" purity="9.0650689601898193e-01" nType="-99"/>
          <Node pos="r" depth="2" NCoef="0" IVar="-1" Cut="0.0000000000000000e+00" cType="1" res="1.4913444174453616e-03" rms="4.9517035484313965e-01" purity="5.6932777166366577e-01" nType="-99"/>
        </Node>
        <Node pos="r" depth="1" NCoef="0" IVar="4" Cut="1.5133017301559448e+00" cType="1" res="-2.3237723112106323e-01" rms="4.0286886692047119e-01" purity="2.2333359718322754e-01" nType="0">
          <Node pos="l" depth="2" NCoef="0" IVar="1" Cut="1.0804191827774048e+00" cType="1" res="-4.9433750100433826e-03" rms="4.9602758884429932e-01" purity="4.8783931136131287e-01" nType="0">
            <Node pos="l" depth="3" NCoef="0" IVar="-1" Cut="0.0000000000000000e+00" cType="1" res="2.2917182650417089e-03" rms="4.8725619912147522e-01" purity="6.0923033952713013e-01" nType="-99"/>
            <Node pos="r" depth="3" NCoef="0" IVar="-1" Cut="0.0000000000000000e+00" cType="1" res="-5.8546396903693676e-03" rms="4.6560695767402649e-01" purity="3.2666596770286560e-01" nType="-99"/>
          </Node>
          <Node pos="r" depth="2" NCoef="0" IVar="1" Cut="5.1663970947265625e-01" cType="1" res="-2.9338783025741577e-01" rms="3.4963032603263855e-01" purity="1.5237824618816376e-01" nType="0">
            <Node pos="l" depth="3" NCoef="0" IVar="-1" Cut="0.0000000000000000e+00" cType="1" res="-2.9908588621765375e-03" rms="4.8186570405960083e-01" purity="3.8446024060249329e-01" nType="-99"/>
            <Node pos="r" depth="3" NCoef="0" IVar="-1" Cut="0.0000000000000000e+00" cType="1" res="-3.1853623688220978e-02" rms="3.0241188406944275e-01" purity="1.0711552947759628e-01" nType="-99"/>
          </Node>
        </Node>
      </Node>
    </BinaryTree>
    <BinaryTree type="DecisionTree" boostWeight="1.0000000000000000e+00" itree="4">
      <Node pos="s" depth="0" NCoef="0" IVar="3" Cut="1.6187571287155151e+00" cType="1" res="2.6092242449522018e-02" rms="4.7265303134918213e-01" purity="5.0000000000000000e-01" nType="0">
        <Node pos="l" depth="1" NCoef="0" IVar="4" Cut="1.7990466356277466e+00" cType="1" res="3.3672589063644409e-01" rms="3.5912597179412842e-01" purity="8.4670984745025635e-01" nType="0">
          <Node pos="l" depth="2" NCoef="0" IVar="-1" Cut="0.0000000000000000e+00" cType="1" res="5.6424066424369812e-03" rms="2.9112219810485840e-01" purity="9.0650689601898193e-01" nType="-99"/>
          <Node pos="r" depth="2" NCoef="0" IVar="-1" Cut="0.0000000000000000e+00" cType="1" res="1.4747803797945380e-03" rms="4.9517035484313965e-01" purity="5.6932777166366577e-01" nType="-99"/>
        </Node>
        <Node pos="r" depth="1" NCoef="0" IVar="4" Cut="1.4616891145706177e+00" cType="1" res="-2.2178620100021362e-01" rms="4.0038761496543884e-01" purity="2.2333359718322754e-01" nType="0">
          <Node pos="l" depth="2" NCoef="0" IVar="0" Cut="2.4917533397674561e+00" cType="1" res="1.3289328664541245e-02" rms="4.9554646015167236e-01" purity="5.0604784488677979e-01" nType="0">
            <Node pos="l" depth="3" NCoef="0" IVar="-1" Cut="0.0000000000000000e+00" cType="1" res="-2.6050192536786199e-04" rms="4.9418154358863831e-01" purity="4.7896647453308105e-01" nType="-99"/>
            <Node pos="r" depth="3" NCoef="0" IVar="-1" Cut="0.0000000000000000e+00" cType="1" res="8.4241194417700171e-04" rms="4.9583008885383606e-01" purity="5.3194755315780640e-01" nType="-99"/>
          </Node>
          <Node pos="r" depth="2" NCoef="0" IVar="1" Cut="9.6564286947250366e-01" cType="1" res="-2.7590835094451904e-01" rms="3.5359510779380798e-01" purity="1.5824344754219055e-01" nType="0">
            <Node pos="l" depth="3" NCoef="0" IVar="-1" Cut="0.0000000000000000e+00" cType="1" res="-5.6497030891478062e-03" rms="4.6149572730064392e-01" purity="3.2100871205329895e-01" nType="-99"/>
            <Node pos="r" depth="3" NCoef="0" IVar="-1" Cut="0.0000000000000000e+00" cType="1" res="-3.6537442356348038e-02" rms="2.7927446365356445e-01" purity="8.9168854057788849e-02" nType="-99"/>
          </Node>
        </Node>
      </Node>
    </BinaryTree>
    <BinaryTree type="DecisionTree" boostWeight="1.0000000000000000e+00" itree="5">
      <Node pos="s" depth="0" NCoef="0" IVar="3" Cut="1.5669231414794922e+00" cType="1" res="3.0957322567701340e-02" rms="4.6755999326705933e-01" purity="5.0000000000000000e-01" nType="0">
        <Node pos="l" depth="1" NCoef="0" IVar="1" Cut="7.2329878807067871e-01" cType="1" res="3.5075843334197998e-01" rms="3.4224262833595276e-01" purity="8.6330133676528931e-01" nType="0">
          <Node pos="l" depth="2" NCoef="0" IVar="-1" Cut="0.0000000000000000e+00" cType="1" res="5.8544552884995937e-03" rms="2.4550603330135345e-01" purity="9.3518376350402832e-01" nType="-99"/>
          <Node pos="r" depth="2" NCoef="0" IVar="-1" Cut="0.0000000000000000e+00" cType="1" res="3.3194702118635178e-03" rms="4.6029219031333923e-01" purity="6.9074618816375732e-01" nType="-99"/>
        </Node>
        <Node pos="r" depth="1" NCoef="0" IVar="4" Cut="1.7642457485198975e+00" cType="1" res="-1.9871610403060913e-01" rms="4.0656465291976929e-01" purity="2.3908579349517822e-01" nType="0">
          <Node pos="l" depth="2" NCoef="0" IVar="1" Cut="1.4931685924530029e+00" cType="1" res="-3.9405994117259979e-02" rms="4.8562628030776978e-01" purity="4.3903684616088867e-01" nType="0">
            <Node pos="l" depth="3" NCoef="0" IVar="-1" Cut="0.0000000000000000e+00" cType="1" res="1.4069435419514775e-03" rms="4.9044772982597351e-01" purity="5.4931449890136719e-01" nType="-99"/>
            <Node pos="r" depth="3" NCoef="0" IVar="-1" Cut="0.0000000000000000e+00" cType="1" res="-1.8770331516861916e-02" rms="3.7404531240463257e-01" purity="1.7048950493335724e-01" nType="-99"/>
          </Node>
          <Node pos="r" depth="2" NCoef="0" IVar="3" Cut="1.9397264719009399e+00" cType="1" res="-2.8594580292701721e-01" rms="3.2429358363151550e-01" purity="1.2960326671600342e-01" nType="0">
            <Node pos="l" depth="3" NCoef="0" IVar="-1" Cut="0.0000000000000000e+00" cType="1" res="-6.2766252085566521e-03" rms="4.4148415327072144e-01" purity="2.9498732089996338e-01" nType="-99"/>
            <Node pos="r" depth="3" NCoef="0" IVar="-1" Cut="0.0000000000000000e+00" cType="1" res="-3.8031242787837982e-02" rms="2.7114483714103699e-01" purity="8.3044521510601044e-02" nType="-99"/>
          </Node>
        </Node>
      </Node>
    </BinaryTree>
    <BinaryTree type="DecisionTree" boostWeight="1.0000000000000000e+00" itree="6">
      <Node pos="s" depth="0" NCoef="0" IVar="3" Cut="1.5669231414794922e+00" cType="1" res="3.5914614796638489e-02" rms="4.6232655644416809e-01" purity="5.0000000000000000e-01" nType="0">
        <Node pos="l" depth="1" NCoef="0" IVar="4" Cut="1.7990466356277466e+00" cType="1" res="3.4820610284805298e-01" rms="3.4205648303031921e-01" purity="8.6330133676528931e-01" nType="0">
          <Node pos="l" depth="2" NCoef="0" IVar="-1" Cut="0.0000000000000000e+00" cType="1" res="5.6346766650676727e-03" rms="2.7954801917076111e-01" purity="9.1446167230606079e-01" nType="-99"/>
          <Node pos="r" depth="2" NCoef="0" IVar="-1" Cut="0.0000000000000000e+00" cType="1" res="2.1322832908481359e-03" rms="4.8787885904312134e-01" purity="6.0813236236572266e-01" nType="-99"/>
        </Node>
        <Node pos="r" depth="1" NCoef="0" IVar="4" Cut="1.9244227409362793e+00" cType="1" res="-1.8836557865142822e-01" rms="4.0358653664588928e-01" purity="2.3908579349517822e-01" nType="0">
          <Node pos="l" depth="2" NCoef="0" IVar="1" Cut="1.4350867271423340e+00" cType="1" res="-6.3648678362369537e-02" rms="4.7390136122703552e-01" purity="4.0249711275100708e-01" nType="0">
            <Node pos="l" depth="3" NCoef="0" IVar="-1" Cut="0.0000000000000000e+00" cType="1" res="9.0853992151096463e-04" rms="4.9007317423820496e-01" purity="5.2101099491119385e-01" nType="-99"/>
            <Node pos="r" depth="3" NCoef="0" IVar="-1" Cut="0.0000000000000000e+00" cType="1" res="-1.6584297642111778e-02" rms="3.7138462066650391e-01" purity="1.7613211274147034e-01" nType="-99"/>
          </Node>
          <Node pos="r" depth="2" NCoef="0" IVar="3" Cut="2.1884949207305908e+00" cType="1" res="-2.8890916705131531e-01" rms="3.0081933736801147e-01" purity="1.0734773427248001e-01" nType="0">
            <Node pos="l" depth="3" NCoef="0" IVar="-1" Cut="0.0000000000000000e+00" cType="1" res="-1.4266722835600376e-02" rms="3.7815260887145996e-01" purity="1.8662247061729431e-01" nType="-99"/>
            <Node pos="r" depth="3" NCoef="0" IVar="-1" Cut="0.0000000000000000e+00" cType="1" res="-4.5868244022130966e-02" rms="2.4276922643184662e-01" purity="6.4101174473762512e-02" nType="-99"/>
          </Node>
        </Node>
      </Node>
    </BinaryTree>
    <BinaryTree type="DecisionTree" boostWeight="1.0000000000000000e+00" itree="7">
      <Node pos="s" depth="0" NCoef="0" IVar="3" Cut="1.5669231414794922e+00" cType="1" res="4.0741559118032455e-02" rms="4.5727434754371643e-01" purity="5.0000000000000000e-01" nType="0">
        <Node pos="l" depth="1" NCoef="0" IVar="1" Cut="7.2329878807067871e-01" cType="1" res="3.4568440914154053e-01" rms="3.4184700250625610e-01" purity="8.6330133676528931e-01" nType="0">
          <Node pos="l" depth="2" NCoef="0" IVar="-1" Cut="0.0000000000000000e+00" cType="1" res="5.7822591625154018e-03" rms="2.4539563059806824e-01" purity="9.3518376350402832e-01" nType="-99"/>
          <Node pos="r" depth="2" NCoef="0" IVar="-1" Cut="0.0000000000000000e+00" cType="1" res="3.2464191317558289e-03" rms="4.5998173952102661e-01" purity="6.9074618816375732e-01" nType="-99"/>
        </Node>
        <Node pos="r" depth="1" NCoef="0" IVar="4" Cut="1.7642457485198975e+00" cType="1" res="-1.7826104164123535e-01" rms="4.0074840188026428e-01" purity="2.3908579349517822e-01" nType="0">
          <Node pos="l" depth="2" NCoef="0" IVar="1" Cut="1.4931685924530029e+00" cType="1" res="-3.4974429756402969e-02" rms="4.8295137286186218e-01" purity="4.3903684616088867e-01" nType="0">
            <Node pos="l" depth="3" NCoef="0" IVar="-1" Cut="0.0000000000000000e+00" cType="1" res="1.3861116021871567e-03" rms="4.9037560820579529e-01" purity="5.4931449890136719e-01" nType="-99"/>
            <Node pos="r" depth="3" NCoef="0" IVar="-1" Cut="0.0000000000000000e+00" cType="1" res="-1.7741005867719650e-02" rms="3.7405356764793396e-01" purity="1.7048950493335724e-01" nType="-99"/>
          </Node>
          <Node pos="r" depth="2" NCoef="0" IVar="3" Cut="1.9240969419479370e+00" cType="1" res="-2.5671711564064026e-01" rms="3.2160052657127380e-01" purity="1.2960326671600342e-01" nType="0">
            <Node pos="l" depth="3" NCoef="0" IVar="-1" Cut="0.0000000000000000e+00" cType="1" res="-5.6955385953187943e-03" rms="4.4263136386871338e-01" purity="2.9931020736694336e-01" nType="-99"/>
            <Node pos="r" depth="3" NCoef="0" IVar="-1" Cut="0.0000000000000000e+00" cType="1" res="-3.4242980182170868e-02" rms="2.7270033955574036e-01" purity="8.4621928632259369e-02" nType="-99"/>
          </Node>
        </Node>
      </Node>
    </BinaryTree>
    <BinaryTree type="DecisionTree" boostWeight="1.0000000000000000e+00" itree="8">
      <Node pos="s" depth="0" NCoef="0" IVar="3" Cut="1.5669231414794922e+00" cType="1" res="4.5016445219516754e-02" rms="4.5276659727096558e-01" purity="5.0000000000000000e-01" nType="0">
        <Node pos="l" depth="1" NCoef="0" IVar="1" Cut="7.2329878807067871e-01" cType="1" res="3.4317007660865784e-01" rms="3.4166201949119568e-01" purity="8.6330133676528931e-01" nType="0">
          <Node pos="l" depth="2" NCoef="0" IVar="-1" Cut="0.0000000000000000e+00" cType="1" res="5.7448795996606350e-03" rms="2.4539591372013092e-01" purity="9.3518376350402832e-01" nType="-99"/>
          <Node pos="r" depth="2" NCoef="0" IVar="-1" Cut="0.0000000000000000e+00" cType="1" res="3.2171010971069336e-03" rms="4.5998209714889526e-01" purity="6.9074618816375732e-01" nType="-99"/>
        </Node>
        <Node pos="r" depth="1" NCoef="0" IVar="4" Cut="1.4616891145706177e+00" cType="1" res="-1.6911029815673828e-01" rms="3.9836436510086060e-01" purity="2.3908579349517822e-01" nType="0">
          <Node pos="l" depth="2" NCoef="0" IVar="4" Cut="1.2591463327407837e+00" cType="1" res="3.6094084382057190e-02" rms="4.9043014645576477e-01" purity="5.2612614631652832e-01" nType="0">
            <Node pos="l" depth="3" NCoef="0" IVar="-1" Cut="0.0000000000000000e+00" cType="1" res="2.2312528453767300e-03" rms="4.8445528745651245e-01" purity="5.9477406740188599e-01" nType="-99"/>
            <Node pos="r" depth="3" NCoef="0" IVar="-1" Cut="0.0000000000000000e+00" cType="1" res="-1.1888885637745261e-03" rms="4.8545914888381958e-01" purity="4.4701567292213440e-01" nType="-99"/>
          </Node>
          <Node pos="r" depth="2" NCoef="0" IVar="3" Cut="1.8472522497177124e+00" cType="1" res="-2.1885654330253601e-01" rms="3.5521045327186584e-01" purity="1.6950061917304993e-01" nType="0">
            <Node pos="l" depth="3" NCoef="0" IVar="-1" Cut="0.0000000000000000e+00" cType="1" res="-1.9102891674265265e-03" rms="4.7100415825843811e-01" purity="3.9104455709457397e-01" nType="-99"/>
            <Node pos="r" depth="3" NCoef="0" IVar="-1" Cut="0.0000000000000000e+00" cType="1" res="-2.3629618808627129e-02" rms="3.1091836094856262e-01" purity="1.1792724579572678e-01" nType="-99"/>
          </Node>
        </Node>
      </Node>
    </BinaryTree>
    <BinaryTree type="DecisionTree" boostWeight="1.0000000000000000e+00" itree="9">
      <Node pos="s" depth="0" NCoef="0" IVar="3" Cut="1.5669231414794922e+00" cType="1" res="4.8155244439840317e-02" rms="4.4928872585296631e-01" purity="5.0000000000000000e-01" nType="0">
        <Node pos="l" depth="1" NCoef="0" IVar="4" Cut="1.7990466356277466e+00" cType="1" res="3.4067434072494507e-01" rms="3.4147870540618896e-01" purity="8.6330133676528931e-01" nType="0">
          <Node pos="l" depth="2" NCoef="0" IVar="-1" Cut="0.0000000000000000e+00" cType="1" res="5.5301887914538383e-03" rms="2.7928581833839417e-01" purity="9.1446167230606079e-01" nType="-99"/>
          <Node pos="r" depth="2" NCoef="0" IVar="-1" Cut="0.0000000000000000e+00" cType="1" res="2.0139063708484173e-03" rms="4.8730483651161194e-01" purity="6.0813236236572266e-01" nType="-99"/>
        </Node>
        <Node pos="r" depth="1" NCoef="0" IVar="4" Cut="1.7642457485198975e+00" cType="1" res="-1.6192489862442017e-01" rms="3.9686349034309387e-01" purity="2.3908579349517822e-01" nType="0">
          <Node pos="l" depth="2" NCoef="0" IVar="1" Cut="1.4931685924530029e+00" cType="1" res="-2.9302528128027916e-02" rms="4.8035848140716553e-01" purity="4.3903684616088867e-01" nType="0">
            <Node pos="l" depth="3" NCoef="0" IVar="-1" Cut="0.0000000000000000e+00" cType="1" res="1.4385522808879614e-03" rms="4.8908439278602600e-01" purity="5.4931449890136719e-01" nType="-99"/>
            <Node pos="r" depth="3" NCoef="0" IVar="-1" Cut="0.0000000000000000e+00" cType="1" res="-1.6940921545028687e-02" rms="3.7386149168014526e-01" purity="1.7048950493335724e-01" nType="-99"/>
          </Node>
          <Node pos="r" depth="2" NCoef="0" IVar="3" Cut="1.9397264719009399e+00" cType="1" res="-2.3454183340072632e-01" rms="3.2014444470405579e-01" purity="1.2960326671600342e-01" nType="0">
            <Node pos="l" depth="3" NCoef="0" IVar="-1" Cut="0.0000000000000000e+00" cType="1" res="-5.6481109932065010e-03" rms="4.4049891829490662e-01" purity="2.9498732089996338e-01" nType="-99"/>
            <Node pos="r" depth="3" NCoef="0" IVar="-1" Cut="0.0000000000000000e+00" cType="1" res="-3.2560959458351135e-02" rms="2.7071332931518555e-01" purity="8.3044521510601044e-02" nType="-99"/>
          </Node>
        </Node>
      </Node>
    </BinaryTree>
    <BinaryTree type="DecisionTree" boostWeight="1.0000000000000000e+00" itree="10">
      <Node pos="s" depth="0" NCoef="0" IVar="3" Cut="1.5669231414794922e+00" cType="1" res="5.1990553736686707e-02" rms="4.4524368643760681e-01" purity="5.0000000000000000e-01" nType="0">
        <Node pos="l" depth="1" NCoef="0" IVar="1" Cut="7.2329878807067871e-01" cType="1" res="3.3820933103561401e-01" rms="3.4127011895179749e-01" purity="8.6330133676528931e-01" nType="0">
          <Node pos="l" depth="2" NCoef="0" IVar="-1" Cut="0.0000000000000000e+00" cType="1" res="5.6761163286864758e-03" rms="2.4528682231903076e-01" purity="9.3518376350402832e-01" nType="-99"/>
          <Node pos="r" depth="2" NCoef="0" IVar="-1" Cut="0.0000000000000000e+00" cType="1" res="3.1465236097574234e-03" rms="4.5967206358909607e-01" purity="6.9074618816375732e-01" nType="-99"/>
        </Node>
        <Node pos="r" depth="1" NCoef="0" IVar="1" Cut="1.0378601551055908e+00" cType="1" res="-1.5356484055519104e-01" rms="3.9482286572456360e-01" purity="2.3908579349517822e-01" nType="0">
          <Node pos="l" depth="2" NCoef="0" IVar="3" Cut="2.2287046909332275e+00" cType="1" res="-2.9638351872563362e-02" rms="4.7045803070068359e-01" purity="4.1903162002563477e-01" nType="0">
            <Node pos="l" depth="3" NCoef="0" IVar="-1" Cut="0.0000000000000000e+00" cType="1" res="2.0152197685092688e-03" rms="4.8580029606819153e-01" purity="5.6120949983596802e-01" nType="-99"/>
            <Node pos="r" depth="3" NCoef="0" IVar="-1" Cut="0.0000000000000000e+00" cType="1" res="-1.1692938394844532e-02" rms="3.8385683298110962e-01" purity="2.0699234306812286e-01" nType="-99"/>
          </Node>
          <Node pos="r" depth="2" NCoef="0" IVar="4" Cut="1.5096256732940674e+00" cType="1" res="-2.2758223116397858e-01" rms="3.1960159540176392e-01" purity="1.3160979747772217e-01" nType="0">
            <Node pos="l" depth="3" NCoef="0" IVar="-1" Cut="0.0000000000000000e+00" cType="1" res="-4.1423747316002846e-03" rms="4.6496275067329407e-01" purity="3.4498825669288635e-01" nType="-99"/>
            <Node pos="r" depth="3" NCoef="0" IVar="-1" Cut="0.0000000000000000e+00" cType="1" res="-2.8082344681024551e-02" rms="2.8184065222740173e-01" purity="9.3926817178726196e-02" nType="-99"/>
          </Node>
        </Node>
      </Node>
    </BinaryTree>
    <BinaryTree type="DecisionTree" boostWeight="1.0000000000000000e+00" itree="11">
      <Node pos="s" depth="0" NCoef="0" IVar="3" Cut="1.5669231414794922e+00" cType="1" res="5.5264230817556381e-02" rms="4.4166496396064758e-01" purity="5.0000000000000000e-01" nType="0">
        <Node pos="l" depth="1" NCoef="0" IVar="4" Cut="1.7990466356277466e+00" cType="1" res="3.3575069904327393e-01" rms="3.4108802676200867e-01" purity="8.6330133676528931e-01" nType="0">
          <Node pos="l" depth="2" NCoef="0" IVar="-1" Cut="0.0000000000000000e+00" cType="1" res="5.4620751179754734e-03" rms="2.7915686368942261e-01" purity="9.1446167230606079e-01" nType="-99"/>
          <Node pos="r" depth="2" NCoef="0" IVar="-1" Cut="0.0000000000000000e+00" cType="1" res="1.9460335606709123e-03" rms="4.8701936006546021e-01" purity="6.0813236236572266e-01" nType="-99"/>
        </Node>
        <Node pos="r" depth="1" NCoef="0" IVar="1" Cut="1.4350552558898926e+00" cType="1" res="-1.4617437124252319e-01" rms="3.9310225844383240e-01" purity="2.3908579349517822e-01" nType="0">
          <Node pos="l" depth="2" NCoef="0" IVar="3" Cut="2.2287046909332275e+00" cType="1" res="-5.6913584470748901e-02" rms="4.6000725030899048e-01" purity="3.7935757637023926e-01" nType="0">
            <Node pos="l" depth="3" NCoef="0" IVar="-1" Cut="0.0000000000000000e+00" cType="1" res="1.2498797150328755e-03" rms="4.8499393463134766e-01" purity="5.1669424772262573e-01" nType="-99"/>
            <Node pos="r" depth="3" NCoef="0" IVar="-1" Cut="0.0000000000000000e+00" cType="1" res="-1.2441965751349926e-02" rms="3.7711298465728760e-01" purity="1.9267691671848297e-01" nType="-99"/>
          </Node>
          <Node pos="r" depth="2" NCoef="0" IVar="0" Cut="2.7409460544586182e+00" cType="1" res="-2.4010150134563446e-01" rms="2.7796027064323425e-01" purity="9.1480933129787445e-02" nType="0">
            <Node pos="l" depth="3" NCoef="0" IVar="-1" Cut="0.0000000000000000e+00" cType="1" res="-3.7121381610631943e-02" rms="2.4952979385852814e-01" purity="6.9419413805007935e-02" nType="-99"/>
            <Node pos="r" depth="3" NCoef="0" IVar="-1" Cut="0.0000000000000000e+00" cType="1" res="-1.1388549581170082e-02" rms="3.6144849658012390e-01" purity="1.7899656295776367e-01" nType="-99"/>
          </Node>
        </Node>
      </Node>
    </BinaryTree>
    <BinaryTree type="DecisionTree" boostWeight="1.0000000000000000e+00" itree="12">
      <Node pos="s" depth="0" NCoef="0" IVar="3" Cut="1.4836184978485107e+00" cType="1" res="5.8778438717126846e-02" rms="4.3786713480949402e-01" purity="5.0000000000000000e-01" nType="0">
        <Node pos="l" depth="1" NCoef="0" IVar="1" Cut="7.9857367277145386e-01" cType="1" res="3.5663872957229614e-01" rms="3.1437844038009644e-01" purity="8.8693577051162720e-01" nType="0">
          <Node pos="l" depth="2" NCoef="0" IVar="-1" Cut="0.0000000000000000e+00" cType="1" res="5.6482935324311256e-03" rms="2.3669870197772980e-01" purity="9.3982911109924316e-01" nType="-99"/>
          <Node pos="r" depth="2" NCoef="0" IVar="-1" Cut="0.0000000000000000e+00" cType="1" res="3.6533118691295385e-03" rms="4.3937113881111145e-01" purity="7.3396277427673340e-01" nType="-99"/>
        </Node>
        <Node pos="r" depth="1" NCoef="0" IVar="4" Cut="1.7642457485198975e+00" cType="1" res="-1.2329443544149399e-01" rms="4.0140751004219055e-01" purity="2.6347801089286804e-01" nType="0">
          <Node pos="l" depth="2" NCoef="0" IVar="1" Cut="1.2325854301452637e+00" cType="1" res="1.1470297351479530e-02" rms="4.7624275088310242e-01" purity="4.7701606154441833e-01" nType="0">
            <Node pos="l" depth="3" NCoef="0" IVar="-1" Cut="0.0000000000000000e+00" cType="1" res="2.4344543926417828e-03" rms="4.7661095857620239e-01" purity="6.1067080497741699e-01" nType="-99"/>
            <Node pos="r" depth="3" NCoef="0" IVar="-1" Cut="0.0000000000000000e+00" cType="1" res="-9.0371733531355858e-03" rms="4.1293969750404358e-01" purity="2.3666962981224060e-01" nType="-99"/>
          </Node>
          <Node pos="r" depth="2" NCoef="0" IVar="1" Cut="4.6012184023857117e-01" cType="1" res="-2.0395576953887939e-01" rms="3.2317206263542175e-01" purity="1.3566811382770538e-01" nType="0">
            <Node pos="l" depth="3" NCoef="0" IVar="-1" Cut="0.0000000000000000e+00" cType="1" res="-3.1759273260831833e-03" rms="4.5484060049057007e-01" purity="3.2907065749168396e-01" nType="-99"/>
            <Node pos="r" depth="3" NCoef="0" IVar="-1" Cut="0.0000000000000000e+00" cType="1" res="-2.3052843287587166e-02" rms="2.9457101225852966e-01" purity="1.0696776956319809e-01" nType="-99"/>
          </Node>
        </Node>
      </Node>
    </BinaryTree>
    <BinaryTree type="DecisionTree" boostWeight="1.0000000000000000e+00" itree="13">
      <Node pos="s" depth="0" NCoef="0" IVar="3" Cut="1.4836184978485107e+00" cType="1" res="6.1410479247570038e-02" rms="4.3483355641365051e-01" purity="5.0000000000000000e-01" nType="0">
        <Node pos="l" depth="1" NCoef="0" IVar="1" Cut="7.9857367277145386e-01" cType="1" res="3.5408186912536621e-01" rms="3.1425938010215759e-01" purity="8.8693577051162720e-01" nType="0">
          <Node pos="l" depth="2" NCoef="0" IVar="-1" Cut="0.0000000000000000e+00" cType="1" res="5.6136269122362137e-03" rms="2.3669935762882233e-01" purity="9.3982911109924316e-01" nType="-99"/>
          <Node pos="r" depth="2" NCoef="0" IVar="-1" Cut="0.0000000000000000e+00" cType="1" res="3.6228597164154053e-03" rms="4.3937194347381592e-01" purity="7.3396277427673340e-01" nType="-99"/>
        </Node>
        <Node pos="r" depth="1" NCoef="0" IVar="4" Cut="1.4634689092636108e+00" cType="1" res="-1.1749056726694107e-01" rms="3.9990755915641785e-01" purity="2.6347801089286804e-01" nType="0">
          <Node pos="l" depth="2" NCoef="0" IVar="1" Cut="1.0395027399063110e+00" cType="1" res="7.7529288828372955e-02" rms="4.7991222143173218e-01" purity="5.6666886806488037e-01" nType="0">
            <Node pos="l" depth="3" NCoef="0" IVar="-1" Cut="0.0000000000000000e+00" cType="1" res="3.3439665567129850e-03" rms="4.5856904983520508e-01" purity="6.8946874141693115e-01" nType="-99"/>
            <Node pos="r" depth="3" NCoef="0" IVar="-1" Cut="0.0000000000000000e+00" cType="1" res="-2.8559719212353230e-03" rms="4.6787926554679871e-01" purity="3.7112313508987427e-01" nType="-99"/>
          </Node>
          <Node pos="r" depth="2" NCoef="0" IVar="0" Cut="2.6832318305969238e+00" cType="1" res="-1.7007134854793549e-01" rms="3.5767126083374023e-01" purity="1.8173243105411530e-01" nType="0">
            <Node pos="l" depth="3" NCoef="0" IVar="-1" Cut="0.0000000000000000e+00" cType="1" res="-2.2547885775566101e-02" rms="2.9922482371330261e-01" purity="1.0968149453401566e-01" nType="-99"/>
            <Node pos="r" depth="3" NCoef="0" IVar="-1" Cut="0.0000000000000000e+00" cType="1" res="-2.7559439186006784e-03" rms="4.3299615383148193e-01" purity="3.2149112224578857e-01" nType="-99"/>
          </Node>
        </Node>
      </Node>
    </BinaryTree>
    <BinaryTree type="DecisionTree" boostWeight="1.0000000000000000e+00" itree="14">
      <Node pos="s" depth="0" NCoef="0" IVar="3" Cut="1.4836184978485107e+00" cType="1" res="6.3719727098941803e-02" rms="4.3203750252723694e-01" purity="5.0000000000000000e-01" nType="0">
        <Node pos="l" depth="1" NCoef="0" IVar="1" Cut="7.9857367277145386e-01" cType="1" res="3.5154348611831665e-01" rms="3.1414136290550232e-01" purity="8.8693577051162720e-01" nType="0">
          <Node pos="l" depth="2" NCoef="0" IVar="-1" Cut="0.0000000000000000e+00" cType="1" res="5.5794981308281422e-03" rms="2.3670005798339844e-01" purity="9.3982911109924316e-01" nType="-99"/>
          <Node pos="r" depth="2" NCoef="0" IVar="-1" Cut="0.0000000000000000e+00" cType="1" res="3.5927435383200645e-03" rms="4.3937280774116516e-01" purity="7.3396277427673340e-01" nType="-99"/>
        </Node>
        <Node pos="r" depth="1" NCoef="0" IVar="4" Cut="1.4634689092636108e+00" cType="1" res="-1.1221811920404434e-01" rms="3.9854425191879272e-01" purity="2.6347801089286804e-01" nType="0">
          <Node pos="l" depth="2" NCoef="0" IVar="1" Cut="1.0395027399063110e+00" cType="1" res="7.7046573162078857e-02" rms="4.7951364517211914e-01" purity="5.6666886806488037e-01" nType="0">
            <Node pos="l" depth="3" NCoef="0" IVar="-1" Cut="0.0000000000000000e+00" cType="1" res="3.3135209232568741e-03" rms="4.5856958627700806e-01" purity="6.8946874141693115e-01" nType="-99"/>
            <Node pos="r" depth="3" NCoef="0" IVar="-1" Cut="0.0000000000000000e+00" cType="1" res="-2.8097545728087425e-03" rms="4.6788534522056580e-01" purity="3.7112313508987427e-01" nType="-99"/>
          </Node>
          <Node pos="r" depth="2" NCoef="0" IVar="3" Cut="1.8480055332183838e+00" cType="1" res="-1.6324721276760101e-01" rms="3.5694098472595215e-01" purity="1.8173243105411530e-01" nType="0">
            <Node pos="l" depth="3" NCoef="0" IVar="-1" Cut="0.0000000000000000e+00" cType="1" res="-1.1685305507853627e-03" rms="4.6881082653999329e-01" purity="4.0283459424972534e-01" nType="-99"/>
            <Node pos="r" depth="3" NCoef="0" IVar="-1" Cut="0.0000000000000000e+00" cType="1" res="-1.9450427964329720e-02" rms="3.0813530087471008e-01" purity="1.1806658655405045e-01" nType="-99"/>
          </Node>
        </Node>
      </Node>
    </BinaryTree>
    <BinaryTree type="DecisionTree" boostWeight="1.0000000000000000e+00" itree="15">
      <Node pos="s" depth="0" NCoef="0" IVar="3" Cut="1.4836184978485107e+00" cType="1" res="6.5882824361324310e-02" rms="4.2943900823593140e-01" purity="5.0000000000000000e-01" nType="0">
        <Node pos="l" depth="1" NCoef="0" IVar="1" Cut="7.9857367277145386e-01" cType="1" res="3.4902352094650269e-01" rms="3.1402435898780823e-01" purity="8.8693577051162720e-01" nType="0">
          <Node pos="l" depth="2" NCoef="0" IVar="-1" Cut="0.0000000000000000e+00" cType="1" res="5.5458946153521538e-03" rms="2.3670081794261932e-01" purity="9.3982911109924316e-01" nType="-99"/>
          <Node pos="r" depth="2" NCoef="0" IVar="-1" Cut="0.0000000000000000e+00" cType="1" res="3.5629563499242067e-03" rms="4.3937370181083679e-01" purity="7.3396277427673340e-01" nType="-99"/>
        </Node>
        <Node pos="r" depth="1" NCoef="0" IVar="4" Cut="1.7642457485198975e+00" cType="1" res="-1.0719241201877594e-01" rms="3.9737781882286072e-01" purity="2.6347801089286804e-01" nType="0">
          <Node pos="l" depth="2" NCoef="0" IVar="1" Cut="1.2325854301452637e+00" cType="1" res="1.6982866451144218e-02" rms="4.7292047739028931e-01" purity="4.7701606154441833e-01" nType="0">
            <Node pos="l" depth="3" NCoef="0" IVar="-1" Cut="0.0000000000000000e+00" cType="1" res="2.4607677478343248e-03" rms="4.7461977601051331e-01" purity="6.1067080497741699e-01" nType="-99"/>
            <Node pos="r" depth="3" NCoef="0" IVar="-1" Cut="0.0000000000000000e+00" cType="1" res="-8.4234299138188362e-03" rms="4.1185963153839111e-01" purity="2.3666962981224060e-01" nType="-99"/>
          </Node>
          <Node pos="r" depth="2" NCoef="0" IVar="1" Cut="4.6012184023857117e-01" cType="1" res="-1.8151558935642242e-01" rms="3.2218882441520691e-01" purity="1.3566811382770538e-01" nType="0">
            <Node pos="l" depth="3" NCoef="0" IVar="-1" Cut="0.0000000000000000e+00" cType="1" res="-2.6765738148242235e-03" rms="4.5311498641967773e-01" purity="3.2907065749168396e-01" nType="-99"/>
            <Node pos="r" depth="3" NCoef="0" IVar="-1" Cut="0.0000000000000000e+00" cType="1" res="-2.1191921085119247e-02" rms="2.9431405663490295e-01" purity="1.0696776956319809e-01" nType="-99"/>
          </Node>
        </Node>
      </Node>
    </BinaryTree>
    <BinaryTree type="DecisionTree" boostWeight="1.0000000000000000e+00" itree="16">
      <Node pos="s" depth="0" NCoef="0" IVar="3" Cut="1.4836184978485107e+00" cType="1" res="6.8095654249191284e-02" rms="4.2679309844970703e-01" purity="5.0000000000000000e-01" nType="0">
        <Node pos="l" depth="1" NCoef="0" IVar="1" Cut="7.9857367277145386e-01" cType="1" res="3.4652182459831238e-01" rms="3.1390836834907532e-01" purity="8.8693577051162720e-01" nType="0">
          <Node pos="l" depth="2" NCoef="0" IVar="-1" Cut="0.0000000000000000e+00" cType="1" res="5.5128033272922039e-03" rms="2.3670165240764618e-01" purity="9.3982911109924316e-01" nType="-99"/>
          <Node pos="r" depth="2" NCoef="0" IVar="-1" Cut="0.0000000000000000e+00" cType="1" res="3.5334923304617405e-03" rms="4.3937468528747559e-01" purity="7.3396277427673340e-01" nType="-99"/>
        </Node>
        <Node pos="r" depth="1" NCoef="0" IVar="4" Cut="1.4634689092636108e+00" cType="1" res="-1.0209773480892181e-01" rms="3.9611977338790894e-01" purity="2.6347801089286804e-01" nType="0">
          <Node pos="l" depth="2" NCoef="0" IVar="1" Cut="1.0395027399063110e+00" cType="1" res="7.6949805021286011e-02" rms="4.7845798730850220e-01" purity="5.6666886806488037e-01" nType="0">
            <Node pos="l" depth="3" NCoef="0" IVar="-1" Cut="0.0000000000000000e+00" cType="1" res="3.2611056230962276e-03" rms="4.5857065916061401e-01" purity="6.8946874141693115e-01" nType="-99"/>
            <Node pos="r" depth="3" NCoef="0" IVar="-1" Cut="0.0000000000000000e+00" cType="1" res="-2.6681886520236731e-03" rms="4.6753579378128052e-01" purity="3.7112313508987427e-01" nType="-99"/>
          </Node>
          <Node pos="r" depth="2" NCoef="0" IVar="0" Cut="2.6832318305969238e+00" cType="1" res="-1.5037210285663605e-01" rms="3.5569873452186584e-01" purity="1.8173243105411530e-01" nType="0">
            <Node pos="l" depth="3" NCoef="0" IVar="-1" Cut="0.0000000000000000e+00" cType="1" res="-2.0739125087857246e-02" rms="2.9906824231147766e-01" purity="1.0968149453401566e-01" nType="-99"/>
            <Node pos="r" depth="3" NCoef="0" IVar="-1" Cut="0.0000000000000000e+00" cType="1" res="-2.2942374926060438e-03" rms="4.3089878559112549e-01" purity="3.2149112224578857e-01" nType="-99"/>
          </Node>
        </Node>
      </Node>
    </BinaryTree>
    <BinaryTree type="DecisionTree" boostWeight="1.0000000000000000e+00" itree="17">
      <Node pos="s" depth="0" NCoef="0" IVar="3" Cut="1.5669231414794922e+00" cType="1" res="7.0018552243709564e-02" rms="4.2435926198959351e-01" purity="5.0000000000000000e-01" nType="0">
        <Node pos="l" depth="1" NCoef="0" IVar="4" Cut="1.7990466356277466e+00" cType="1" res="3.2282805442810059e-01" rms="3.3780282735824585e-01" purity="8.6330133676528931e-01" nType="0">
          <Node pos="l" depth="2" NCoef="0" IVar="-1" Cut="0.0000000000000000e+00" cType="1" res="5.2806157618761063e-03" rms="2.7774092555046082e-01" purity="9.1446167230606079e-01" nType="-99"/>
          <Node pos="r" depth="2" NCoef="0" IVar="-1" Cut="0.0000000000000000e+00" cType="1" res="1.8424165900796652e-03" rms="4.8188799619674683e-01" purity="6.0813236236572266e-01" nType="-99"/>
        </Node>
        <Node pos="r" depth="1" NCoef="0" IVar="3" Cut="2.2287046909332275e+00" cType="1" res="-1.1154311895370483e-01" rms="3.8547852635383606e-01" purity="2.3908579349517822e-01" nType="0">
          <Node pos="l" depth="2" NCoef="0" IVar="1" Cut="9.7514176368713379e-01" cType="1" res="-2.9309777542948723e-02" rms="4.4389638304710388e-01" purity="3.6941543221473694e-01" nType="0">
            <Node pos="l" depth="3" NCoef="0" IVar="-1" Cut="0.0000000000000000e+00" cType="1" res="2.3864372633397579e-03" rms="4.8079410195350647e-01" purity="5.6937706470489502e-01" nType="-99"/>
            <Node pos="r" depth="3" NCoef="0" IVar="-1" Cut="0.0000000000000000e+00" cType="1" res="-7.7314758673310280e-03" rms="3.8107982277870178e-01" purity="2.1391956508159637e-01" nType="-99"/>
          </Node>
          <Node pos="r" depth="2" NCoef="0" IVar="4" Cut="1.5754623413085938e+00" cType="1" res="-1.8826328217983246e-01" rms="3.0198791623115540e-01" purity="1.1749386042356491e-01" nType="0">
            <Node pos="l" depth="3" NCoef="0" IVar="-1" Cut="0.0000000000000000e+00" cType="1" res="-3.2209616620093584e-03" rms="4.6520218253135681e-01" purity="3.4817913174629211e-01" nType="-99"/>
            <Node pos="r" depth="3" NCoef="0" IVar="-1" Cut="0.0000000000000000e+00" cType="1" res="-3.3922839909791946e-02" rms="2.4727782607078552e-01" purity="6.6864348948001862e-02" nType="-99"/>
          </Node>
        </Node>
      </Node>
    </BinaryTree>
    <BinaryTree type="DecisionTree" boostWeight="1.0000000000000000e+00" itree="18">
      <Node pos="s" depth="0" NCoef="0" IVar="3" Cut="1.4836184978485107e+00" cType="1" res="7.2781592607498169e-02" rms="4.2129498720169067e-01" purity="5.0000000000000000e-01" nType="0">
        <Node pos="l" depth="1" NCoef="0" IVar="1" Cut="7.9857367277145386e-01" cType="1" res="3.4168061614036560e-01" rms="3.1362336874008179e-01" purity="8.8693577051162720e-01" nType="0">
          <Node pos="l" depth="2" NCoef="0" IVar="-1" Cut="0.0000000000000000e+00" cType="1" res="5.4520773701369762e-03" rms="2.3660044372081757e-01" purity="9.3982911109924316e-01" nType="-99"/>
          <Node pos="r" depth="2" NCoef="0" IVar="-1" Cut="0.0000000000000000e+00" cType="1" res="3.4673619084060192e-03" rms="4.3910902738571167e-01" purity="7.3396277427673340e-01" nType="-99"/>
        </Node>
        <Node pos="r" depth="1" NCoef="0" IVar="1" Cut="1.2874808311462402e+00" cType="1" res="-9.1588154435157776e-02" rms="3.9324653148651123e-01" purity="2.6347801089286804e-01" nType="0">
          <Node pos="l" depth="2" NCoef="0" IVar="3" Cut="2.2287454605102539e+00" cType="1" res="1.7984822625294328e-03" rms="4.5777362585067749e-01" purity="4.2766818404197693e-01" nType="0">
            <Node pos="l" depth="3" NCoef="0" IVar="-1" Cut="0.0000000000000000e+00" cType="1" res="2.2251121699810028e-03" rms="4.7476446628570557e-01" purity="5.6560862064361572e-01" nType="-99"/>
            <Node pos="r" depth="3" NCoef="0" IVar="-1" Cut="0.0000000000000000e+00" cType="1" res="-9.8494896665215492e-03" rms="3.7632960081100464e-01" purity="1.9734235107898712e-01" nType="-99"/>
          </Node>
          <Node pos="r" depth="2" NCoef="0" IVar="1" Cut="2.0936436653137207e+00" cType="1" res="-1.7773316800594330e-01" rms="2.9752558469772339e-01" purity="1.1201989650726318e-01" nType="0">
            <Node pos="l" depth="3" NCoef="0" IVar="-1" Cut="0.0000000000000000e+00" cType="1" res="-1.1045835912227631e-02" rms="3.5224467515945435e-01" purity="1.6348905861377716e-01" nType="-99"/>
            <Node pos="r" depth="3" NCoef="0" IVar="-1" Cut="0.0000000000000000e+00" cType="1" res="-3.4281205385923386e-02" rms="2.2802510857582092e-01" purity="6.2262635678052902e-02" nType="-99"/>
          </Node>
        </Node>
      </Node>
    </BinaryTree>
    <BinaryTree type="DecisionTree" boostWeight="1.0000000000000000e+00" itree="19">
      <Node pos="s" depth="0" NCoef="0" IVar="3" Cut="1.4836184978485107e+00" cType="1" res="7.5000718235969543e-02" rms="4.1862100362777710e-01" purity="5.0000000000000000e-01" nType="0">
        <Node pos="l" depth="1" NCoef="0" IVar="1" Cut="7.9857367277145386e-01" cType="1" res="3.3923232555389404e-01" rms="3.1350919604301453e-01" purity="8.8693577051162720e-01" nType="0">
          <Node pos="l" depth="2" NCoef="0" IVar="-1" Cut="0.0000000000000000e+00" cType="1" res="5.4203933104872704e-03" rms="2.3660150170326233e-01" purity="9.3982911109924316e-01" nType="-99"/>
          <Node pos="r" depth="2" NCoef="0" IVar="-1" Cut="0.0000000000000000e+00" cType="1" res="3.4389244392514229e-03" rms="4.3911027908325195e-01" purity="7.3396277427673340e-01" nType="-99"/>
        </Node>
        <Node pos="r" depth="1" NCoef="0" IVar="4" Cut="1.7642457485198975e+00" cType="1" res="-8.6515977978706360e-02" rms="3.9181455969810486e-01" purity="2.6347801089286804e-01" nType="0">
          <Node pos="l" depth="2" NCoef="0" IVar="1" Cut="1.2325854301452637e+00" cType="1" res="2.5352261960506439e-02" rms="4.6799504756927490e-01" purity="4.7701606154441833e-01" nType="0">
            <Node pos="l" depth="3" NCoef="0" IVar="-1" Cut="0.0000000000000000e+00" cType="1" res="2.4845821317285299e-03" rms="4.7211468219757080e-01" purity="6.1067080497741699e-01" nType="-99"/>
            <Node pos="r" depth="3" NCoef="0" IVar="-1" Cut="0.0000000000000000e+00" cType="1" res="-7.4109663255512714e-03" rms="4.1006901860237122e-01" purity="2.3666962981224060e-01" nType="-99"/>
          </Node>
          <Node pos="r" depth="2" NCoef="0" IVar="1" Cut="4.6012184023857117e-01" cType="1" res="-1.5347297489643097e-01" rms="3.1990721821784973e-01" purity="1.3566811382770538e-01" nType="0">
            <Node pos="l" depth="3" NCoef="0" IVar="-1" Cut="0.0000000000000000e+00" cType="1" res="-2.1625121589750051e-03" rms="4.4925907254219055e-01" purity="3.2907065749168396e-01" nType="-99"/>
            <Node pos="r" depth="3" NCoef="0" IVar="-1" Cut="0.0000000000000000e+00" cType="1" res="-1.8744083121418953e-02" rms="2.9318690299987793e-01" purity="1.0696776956319809e-01" nType="-99"/>
          </Node>
        </Node>
      </Node>
    </BinaryTree>
    <BinaryTree type="DecisionTree" boostWeight="1.0000000000000000e+00" itree="20">
      <Node pos="s" depth="0" NCoef="0" IVar="3" Cut="1.4836184978485107e+00" cType="1" res="7.6670475304126740e-02" rms="4.1644904017448425e-01" purity="5.0000000000000000e-01" nType="0">
        <Node pos="l" depth="1" NCoef="0" IVar="1" Cut="7.9857367277145386e-01" cType="1" res="3.3680179715156555e-01" rms="3.1339600682258606e-01" purity="8.8693577051162720e-01" nType="0">
          <Node pos="l" depth="2" NCoef="0" IVar="-1" Cut="0.0000000000000000e+00" cType="1" res="5.3891744464635849e-03" rms="2.3660261929035187e-01" purity="9.3982911109924316e-01" nType="-99"/>
          <Node pos="r" depth="2" NCoef="0" IVar="-1" Cut="0.0000000000000000e+00" cType="1" res="3.4107849933207035e-03" rms="4.3911156058311462e-01" purity="7.3396277427673340e-01" nType="-99"/>
        </Node>
        <Node pos="r" depth="1" NCoef="0" IVar="4" Cut="1.4634689092636108e+00" cType="1" res="-8.2339830696582794e-02" rms="3.9084169268608093e-01" purity="2.6347801089286804e-01" nType="0">
          <Node pos="l" depth="2" NCoef="0" IVar="1" Cut="1.0395027399063110e+00" cType="1" res="8.0069571733474731e-02" rms="4.7531384229660034e-01" purity="5.6666886806488037e-01" nType="0">
            <Node pos="l" depth="3" NCoef="0" IVar="-1" Cut="0.0000000000000000e+00" cType="1" res="3.2050425652414560e-03" rms="4.5769965648651123e-01" purity="6.8946874141693115e-01" nType="-99"/>
            <Node pos="r" depth="3" NCoef="0" IVar="-1" Cut="0.0000000000000000e+00" cType="1" res="-2.2382203023880720e-03" rms="4.6588397026062012e-01" purity="3.7112313508987427e-01" nType="-99"/>
          </Node>
          <Node pos="r" depth="2" NCoef="0" IVar="0" Cut="2.6832318305969238e+00" cType="1" res="-1.2612825632095337e-01" rms="3.5213819146156311e-01" purity="1.8173243105411530e-01" nType="0">
            <Node pos="l" depth="3" NCoef="0" IVar="-1" Cut="0.0000000000000000e+00" cType="1" res="-1.8404180184006691e-02" rms="2.9764604568481445e-01" purity="1.0968149453401566e-01" nType="-99"/>
            <Node pos="r" depth="3" NCoef="0" IVar="-1" Cut="0.0000000000000000e+00" cType="1" res="-1.7230516532436013e-03" rms="4.2701897025108337e-01" purity="3.2149112224578857e-01" nType="-99"/>
          </Node>
        </Node>
      </Node>
    </BinaryTree>
    <BinaryTree type="DecisionTree" boostWeight="1.0000000000000000e+00" itree="21">
      <Node pos="s" depth="0" NCoef="0" IVar="3" Cut="1.4836184978485107e+00" cType="1" res="7.8102640807628632e-02" rms="4.1444098949432373e-01" purity="5.0000000000000000e-01" nType="0">
        <Node pos="l" depth="1" NCoef="0" IVar="1" Cut="7.9857367277145386e-01" cType="1" res="3.3438882231712341e-01" rms="3.1328386068344116e-01" purity="8.8693577051162720e-01" nType="0">
          <Node pos="l" depth="2" NCoef="0" IVar="-1" Cut="0.0000000000000000e+00" cType="1" res="5.3584096021950245e-03" rms="2.3660379648208618e-01" purity="9.3982911109924316e-01" nType="-99"/>
          <Node pos="r" depth="2" NCoef="0" IVar="-1" Cut="0.0000000000000000e+00" cType="1" res="3.3829384483397007e-03" rms="4.3911287188529968e-01" purity="7.3396277427673340e-01" nType="-99"/>
        </Node>
        <Node pos="r" depth="1" NCoef="0" IVar="1" Cut="1.2874808311462402e+00" cType="1" res="-7.8557245433330536e-02" rms="3.8995841145515442e-01" purity="2.6347801089286804e-01" nType="0">
          <Node pos="l" depth="2" NCoef="0" IVar="3" Cut="2.2287454605102539e+00" cType="1" res="7.7436584979295731e-03" rms="4.5514529943466187e-01" purity="4.2766818404197693e-01" nType="0">
            <Node pos="l" depth="3" NCoef="0" IVar="-1" Cut="0.0000000000000000e+00" cType="1" res="2.2916824091225863e-03" rms="4.7296363115310669e-01" purity="5.6560862064361572e-01" nType="-99"/>
            <Node pos="r" depth="3" NCoef="0" IVar="-1" Cut="0.0000000000000000e+00" cType="1" res="-9.2438729479908943e-03" rms="3.7524944543838501e-01" purity="1.9734235107898712e-01" nType="-99"/>
          </Node>
          <Node pos="r" depth="2" NCoef="0" IVar="0" Cut="2.7409460544586182e+00" cType="1" res="-1.5816599130630493e-01" rms="2.9671862721443176e-01" purity="1.1201989650726318e-01" nType="0">
            <Node pos="l" depth="3" NCoef="0" IVar="-1" Cut="0.0000000000000000e+00" cType="1" res="-2.4192422628402710e-02" rms="2.6442226767539978e-01" purity="8.3707489073276520e-02" nType="-99"/>
            <Node pos="r" depth="3" NCoef="0" IVar="-1" Cut="0.0000000000000000e+00" cType="1" res="-5.8495593257248402e-03" rms="3.8711383938789368e-01" purity="2.1568951010704041e-01" nType="-99"/>
          </Node>
        </Node>
      </Node>
    </BinaryTree>
    <BinaryTree type="DecisionTree" boostWeight="1.0000000000000000e+00" itree="22">
      <Node pos="s" depth="0" NCoef="0" IVar="3" Cut="1.4836184978485107e+00" cType="1" res="7.9856798052787781e-02" rms="4.1217353940010071e-01" purity="5.0000000000000000e-01" nType="0">
        <Node pos="l" depth="1" NCoef="0" IVar="1" Cut="7.9857367277145386e-01" cType="1" res="3.3199331164360046e-01" rms="3.1317269802093506e-01" purity="8.8693577051162720e-01" nType="0">
          <Node pos="l" depth="2" NCoef="0" IVar="-1" Cut="0.0000000000000000e+00" cType="1" res="5.3280871361494064e-03" rms="2.3660503327846527e-01" purity="9.3982911109924316e-01" nType="-99"/>
          <Node pos="r" depth="2" NCoef="0" IVar="-1" Cut="0.0000000000000000e+00" cType="1" res="3.3553789835423231e-03" rms="4.3911427259445190e-01" purity="7.3396277427673340e-01" nType="-99"/>
        </Node>
        <Node pos="r" depth="1" NCoef="0" IVar="4" Cut="1.4634689092636108e+00" cType="1" res="-7.4266530573368073e-02" rms="3.8880339264869690e-01" purity="2.6347801089286804e-01" nType="0">
          <Node pos="l" depth="2" NCoef="0" IVar="3" Cut="2.0419278144836426e+00" cType="1" res="8.2397319376468658e-02" rms="4.7359141707420349e-01" purity="5.6666886806488037e-01" nType="0">
            <Node pos="l" depth="3" NCoef="0" IVar="-1" Cut="0.0000000000000000e+00" cType="1" res="3.2672525849193335e-03" rms="4.5061835646629333e-01" purity="6.7701894044876099e-01" nType="-99"/>
            <Node pos="r" depth="3" NCoef="0" IVar="-1" Cut="0.0000000000000000e+00" cType="1" res="-1.7900582170113921e-03" rms="4.7476544976234436e-01" purity="3.9556342363357544e-01" nType="-99"/>
          </Node>
          <Node pos="r" depth="2" NCoef="0" IVar="3" Cut="1.8480055332183838e+00" cType="1" res="-1.1650585383176804e-01" rms="3.5078755021095276e-01" purity="1.8173243105411530e-01" nType="0">
            <Node pos="l" depth="3" NCoef="0" IVar="-1" Cut="0.0000000000000000e+00" cType="1" res="-3.0855220393277705e-04" rms="4.6072271466255188e-01" purity="4.0283459424972534e-01" nType="-99"/>
            <Node pos="r" depth="3" NCoef="0" IVar="-1" Cut="0.0000000000000000e+00" cType="1" res="-1.5431541018188000e-02" rms="3.0518767237663269e-01" purity="1.1806658655405045e-01" nType="-99"/>
          </Node>
        </Node>
      </Node>
    </BinaryTree>
    <BinaryTree type="DecisionTree" boostWeight="1.0000000000000000e+00" itree="23">
      <Node pos="s" depth="0" NCoef="0" IVar="3" Cut="1.4836184978485107e+00" cType="1" res="8.1090137362480164e-02" rms="4.1036751866340637e-01" purity="5.0000000000000000e-01" nType="0">
        <Node pos="l" depth="1" NCoef="0" IVar="4" Cut="1.6399292945861816e+00" cType="1" res="3.2961514592170715e-01" rms="3.1306251883506775e-01" purity="8.8693577051162720e-01" nType="0">
          <Node pos="l" depth="2" NCoef="0" IVar="-1" Cut="0.0000000000000000e+00" cType="1" res="5.2767605520784855e-03" rms="2.4403616786003113e-01" purity="9.3575000762939453e-01" nType="-99"/>
          <Node pos="r" depth="2" NCoef="0" IVar="-1" Cut="0.0000000000000000e+00" cType="1" res="3.1984096858650446e-03" rms="4.4113755226135254e-01" purity="7.2692829370498657e-01" nType="-99"/>
        </Node>
        <Node pos="r" depth="1" NCoef="0" IVar="4" Cut="1.7642457485198975e+00" cType="1" res="-7.0825584232807159e-02" rms="3.8806900382041931e-01" purity="2.6347801089286804e-01" nType="0">
          <Node pos="l" depth="2" NCoef="0" IVar="1" Cut="1.2325854301452637e+00" cType="1" res="3.2351691275835037e-02" rms="4.6415200829505920e-01" purity="4.7701606154441833e-01" nType="0">
            <Node pos="l" depth="3" NCoef="0" IVar="-1" Cut="0.0000000000000000e+00" cType="1" res="2.5059732142835855e-03" rms="4.7000852227210999e-01" purity="6.1067080497741699e-01" nType="-99"/>
            <Node pos="r" depth="3" NCoef="0" IVar="-1" Cut="0.0000000000000000e+00" cType="1" res="-6.5674437209963799e-03" rms="4.0903922915458679e-01" purity="2.3666962981224060e-01" nType="-99"/>
          </Node>
          <Node pos="r" depth="2" NCoef="0" IVar="3" Cut="2.4918668270111084e+00" cType="1" res="-1.3258074223995209e-01" rms="3.1875291466712952e-01" purity="1.3566811382770538e-01" nType="0">
            <Node pos="l" depth="3" NCoef="0" IVar="-1" Cut="0.0000000000000000e+00" cType="1" res="-6.7566377110779285e-03" rms="3.7063601613044739e-01" purity="1.9589078426361084e-01" nType="-99"/>
            <Node pos="r" depth="3" NCoef="0" IVar="-1" Cut="0.0000000000000000e+00" cType="1" res="-3.9588019251823425e-02" rms="2.1756322681903839e-01" purity="4.9291752278804779e-02" nType="-99"/>
          </Node>
        </Node>
      </Node>
    </BinaryTree>
    <BinaryTree type="DecisionTree" boostWeight="1.0000000000000000e+00" itree="24">
      <Node pos="s" depth="0" NCoef="0" IVar="3" Cut="1.4836184978485107e+00" cType="1" res="8.2999341189861298e-02" rms="4.0807989239692688e-01" purity="5.0000000000000000e-01" nType="0">
        <Node pos="l" depth="1" NCoef="0" IVar="1" Cut="7.9857367277145386e-01" cType="1" res="3.2725438475608826e-01" rms="3.1295061111450195e-01" purity="8.8693577051162720e-01" nType="0">
          <Node pos="l" depth="2" NCoef="0" IVar="-1" Cut="0.0000000000000000e+00" cType="1" res="5.2714170888066292e-03" rms="2.3654006421566010e-01" purity="9.3982911109924316e-01" nType="-99"/>
          <Node pos="r" depth="2" NCoef="0" IVar="-1" Cut="0.0000000000000000e+00" cType="1" res="3.2905517145991325e-03" rms="4.3893179297447205e-01" purity="7.3396277427673340e-01" nType="-99"/>
        </Node>
        <Node pos="r" depth="1" NCoef="0" IVar="1" Cut="1.0394301414489746e+00" cType="1" res="-6.6306278109550476e-02" rms="3.8690572977066040e-01" purity="2.6347801089286804e-01" nType="0">
          <Node pos="l" depth="2" NCoef="0" IVar="3" Cut="2.2287454605102539e+00" cType="1" res="3.0581984668970108e-02" rms="4.5516577363014221e-01" purity="4.5530784130096436e-01" nType="0">
            <Node pos="l" depth="3" NCoef="0" IVar="-1" Cut="0.0000000000000000e+00" cType="1" res="2.6720464229583740e-03" rms="4.7097402811050415e-01" purity="5.9486591815948486e-01" nType="-99"/>
            <Node pos="r" depth="3" NCoef="0" IVar="-1" Cut="0.0000000000000000e+00" cType="1" res="-7.9829124733805656e-03" rms="3.7207934260368347e-01" purity="2.0661796629428864e-01" nType="-99"/>
          </Node>
          <Node pos="r" depth="2" NCoef="0" IVar="1" Cut="1.4349126815795898e+00" cType="1" res="-1.2884686887264252e-01" rms="3.2034745812416077e-01" purity="1.3965341448783875e-01" nType="0">
            <Node pos="l" depth="3" NCoef="0" IVar="-1" Cut="0.0000000000000000e+00" cType="1" res="-2.6634768582880497e-03" rms="4.2204165458679199e-01" purity="2.9166957736015320e-01" nType="-99"/>
            <Node pos="r" depth="3" NCoef="0" IVar="-1" Cut="0.0000000000000000e+00" cType="1" res="-1.9457124173641205e-02" rms="2.8006082773208618e-01" purity="9.4582855701446533e-02" nType="-99"/>
          </Node>
        </Node>
      </Node>
    </BinaryTree>
    <BinaryTree type="DecisionTree" boostWeight="1.0000000000000000e+00" itree="25">
      <Node pos="s" depth="0" NCoef="0" IVar="3" Cut="1.4836184978485107e+00" cType="1" res="8.4305636584758759e-02" rms="4.0619033575057983e-01" purity="5.0000000000000000e-01" nType="0">
        <Node pos="l" depth="1" NCoef="0" IVar="4" Cut="1.6399292945861816e+00" cType="1" res="3.2491075992584229e-01" rms="3.1284114718437195e-01" purity="8.8693577051162720e-01" nType="0">
          <Node pos="l" depth="2" NCoef="0" IVar="-1" Cut="0.0000000000000000e+00" cType="1" res="5.2204788662493229e-03" rms="2.4396952986717224e-01" purity="9.3575000762939453e-01" nType="-99"/>
          <Node pos="r" depth="2" NCoef="0" IVar="-1" Cut="0.0000000000000000e+00" cType="1" res="3.1347619369626045e-03" rms="4.4095709919929504e-01" purity="7.2692829370498657e-01" nType="-99"/>
        </Node>
        <Node pos="r" depth="1" NCoef="0" IVar="4" Cut="1.4634689092636108e+00" cType="1" res="-6.2768913805484772e-02" rms="3.8600751757621765e-01" purity="2.6347801089286804e-01" nType="0">
          <Node pos="l" depth="2" NCoef="0" IVar="3" Cut="2.0419278144836426e+00" cType="1" res="8.4086932241916656e-02" rms="4.7153195738792419e-01" purity="5.6666886806488037e-01" nType="0">
            <Node pos="l" depth="3" NCoef="0" IVar="-1" Cut="0.0000000000000000e+00" cType="1" res="3.2493041362613440e-03" rms="4.4910842180252075e-01" purity="6.7701894044876099e-01" nType="-99"/>
            <Node pos="r" depth="3" NCoef="0" IVar="-1" Cut="0.0000000000000000e+00" cType="1" res="-1.6015628352761269e-03" rms="4.7385454177856445e-01" purity="3.9556342363357544e-01" nType="-99"/>
          </Node>
          <Node pos="r" depth="2" NCoef="0" IVar="0" Cut="2.6832318305969238e+00" cType="1" res="-1.0236382484436035e-01" rms="3.4906357526779175e-01" purity="1.8173243105411530e-01" nType="0">
            <Node pos="l" depth="3" NCoef="0" IVar="-1" Cut="0.0000000000000000e+00" cType="1" res="-1.6013566404581070e-02" rms="2.9655840992927551e-01" purity="1.0968149453401566e-01" nType="-99"/>
            <Node pos="r" depth="3" NCoef="0" IVar="-1" Cut="0.0000000000000000e+00" cType="1" res="-1.1810340220108628e-03" rms="4.2374286055564880e-01" purity="3.2149112224578857e-01" nType="-99"/>
          </Node>
        </Node>
      </Node>
    </BinaryTree>
    <BinaryTree type="DecisionTree" boostWeight="1.0000000000000000e+00" itree="26">
      <Node pos="s" depth="0" NCoef="0" IVar="3" Cut="1.4836184978485107e+00" cType="1" res="8.5267499089241028e-02" rms="4.0457600355148315e-01" purity="5.0000000000000000e-01" nType="0">
        <Node pos="l" depth="1" NCoef="0" IVar="1" Cut="7.9857367277145386e-01" cType="1" res="3.2258430123329163e-01" rms="3.1273004412651062e-01" purity="8.8693577051162720e-01" nType="0">
          <Node pos="l" depth="2" NCoef="0" IVar="-1" Cut="0.0000000000000000e+00" cType="1" res="5.2163098007440567e-03" rms="2.3647603392601013e-01" purity="9.3982911109924316e-01" nType="-99"/>
          <Node pos="r" depth="2" NCoef="0" IVar="-1" Cut="0.0000000000000000e+00" cType="1" res="3.2270548399537802e-03" rms="4.3874981999397278e-01" purity="7.3396277427673340e-01" nType="-99"/>
        </Node>
        <Node pos="r" depth="1" NCoef="0" IVar="1" Cut="7.9137945175170898e-01" cType="1" res="-5.9796996414661407e-02" rms="3.8533523678779602e-01" purity="2.6347801089286804e-01" nType="0">
          <Node pos="l" depth="2" NCoef="0" IVar="3" Cut="2.2287938594818115e+00" cType="1" res="5.3398124873638153e-02" rms="4.5560595393180847e-01" purity="4.8451432585716248e-01" nType="0">
            <Node pos="l" depth="3" NCoef="0" IVar="-1" Cut="0.0000000000000000e+00" cType="1" res="2.9966200236231089e-03" rms="4.6402096748352051e-01" purity="6.2304681539535522e-01" nType="-99"/>
            <Node pos="r" depth="3" NCoef="0" IVar="-1" Cut="0.0000000000000000e+00" cType="1" res="-6.8975817412137985e-03" rms="3.8232013583183289e-01" purity="2.1918220818042755e-01" nType="-99"/>
          </Node>
          <Node pos="r" depth="2" NCoef="0" IVar="4" Cut="1.3738799095153809e+00" cType="1" res="-1.0906861722469330e-01" rms="3.3875650167465210e-01" purity="1.6726522147655487e-01" nType="0">
            <Node pos="l" depth="3" NCoef="0" IVar="-1" Cut="0.0000000000000000e+00" cType="1" res="3.3693638397380710e-04" rms="4.8060798645019531e-01" purity="4.5480993390083313e-01" nType="-99"/>
            <Node pos="r" depth="3" NCoef="0" IVar="-1" Cut="0.0000000000000000e+00" cType="1" res="-1.2301288545131683e-02" rms="3.1199273467063904e-01" purity="1.2955984473228455e-01" nType="-99"/>
          </Node>
        </Node>
      </Node>
    </BinaryTree>
    <BinaryTree type="DecisionTree" boostWeight="1.0000000000000000e+00" itree="27">
      <Node pos="s" depth="0" NCoef="0" IVar="3" Cut="1.4836184978485107e+00" cType="1" res="8.6088426411151886e-02" rms="4.0306365489959717e-01" purity="5.0000000000000000e-01" nType="0">
        <Node pos="l" depth="1" NCoef="0" IVar="4" Cut="1.6399292945861816e+00" cType="1" res="3.2027474045753479e-01" rms="3.1262126564979553e-01" purity="8.8693577051162720e-01" nType="0">
          <Node pos="l" depth="2" NCoef="0" IVar="-1" Cut="0.0000000000000000e+00" cType="1" res="5.1657259464263916e-03" rms="2.4390372633934021e-01" purity="9.3575000762939453e-01" nType="-99"/>
          <Node pos="r" depth="2" NCoef="0" IVar="-1" Cut="0.0000000000000000e+00" cType="1" res="3.0723887030035257e-03" rms="4.4077712297439575e-01" purity="7.2692829370498657e-01" nType="-99"/>
        </Node>
        <Node pos="r" depth="1" NCoef="0" IVar="3" Cut="2.0415670871734619e+00" cType="1" res="-5.7062488049268723e-02" rms="3.8472136855125427e-01" purity="2.6347801089286804e-01" nType="0">
          <Node pos="l" depth="2" NCoef="0" IVar="1" Cut="1.4303774833679199e+00" cType="1" res="3.4110601991415024e-02" rms="4.5017886161804199e-01" purity="4.4717538356781006e-01" nType="0">
            <Node pos="l" depth="3" NCoef="0" IVar="-1" Cut="0.0000000000000000e+00" cType="1" res="2.6067961007356644e-03" rms="4.6896135807037354e-01" purity="5.8737546205520630e-01" nType="-99"/>
            <Node pos="r" depth="3" NCoef="0" IVar="-1" Cut="0.0000000000000000e+00" cType="1" res="-1.1332224123179913e-02" rms="3.4825900197029114e-01" purity="1.5691241621971130e-01" nType="-99"/>
          </Node>
          <Node pos="r" depth="2" NCoef="0" IVar="0" Cut="2.9343347549438477e+00" cType="1" res="-1.1698340624570847e-01" rms="3.2099741697311401e-01" purity="1.4274816215038300e-01" nType="0">
            <Node pos="l" depth="3" NCoef="0" IVar="-1" Cut="0.0000000000000000e+00" cType="1" res="-1.4186373911798000e-02" rms="2.9814130067825317e-01" purity="1.1724861711263657e-01" nType="-99"/>
            <Node pos="r" depth="3" NCoef="0" IVar="-1" Cut="0.0000000000000000e+00" cType="1" res="-1.1000703088939190e-03" rms="4.2387396097183228e-01" purity="2.9861044883728027e-01" nType="-99"/>
          </Node>
        </Node>
      </Node>
    </BinaryTree>
    <BinaryTree type="DecisionTree" boostWeight="1.0000000000000000e+00" itree="28">
      <Node pos="s" depth="0" NCoef="0" IVar="3" Cut="1.4836184978485107e+00" cType="1" res="8.7009876966476440e-02" rms="4.0145042538642883e-01" purity="5.0000000000000000e-01" nType="0">
        <Node pos="l" depth="1" NCoef="0" IVar="1" Cut="7.9857367277145386e-01" cType="1" res="3.1798201799392700e-01" rms="3.1251093745231628e-01" purity="8.8693577051162720e-01" nType="0">
          <Node pos="l" depth="2" NCoef="0" IVar="-1" Cut="0.0000000000000000e+00" cType="1" res="5.1626949571073055e-03" rms="2.3641292750835419e-01" purity="9.3982911109924316e-01" nType="-99"/>
          <Node pos="r" depth="2" NCoef="0" IVar="-1" Cut="0.0000000000000000e+00" cType="1" res="3.1648350413888693e-03" rms="4.3856838345527649e-01" purity="7.3396277427673340e-01" nType="-99"/>
        </Node>
        <Node pos="r" depth="1" NCoef="0" IVar="4" Cut="1.7642457485198975e+00" cType="1" res="-5.4176323115825653e-02" rms="3.8397136330604553e-01" purity="2.6347801089286804e-01" nType="0">
          <Node pos="l" depth="2" NCoef="0" IVar="1" Cut="1.4931685924530029e+00" cType="1" res="4.0579117834568024e-02" rms="4.5978474617004395e-01" purity="4.7701606154441833e-01" nType="0">
            <Node pos="l" depth="3" NCoef="0" IVar="-1" Cut="0.0000000000000000e+00" cType="1" res="2.3341837804764509e-03" rms="4.6997204422950745e-01" purity="5.8598870038986206e-01" nType="-99"/>
            <Node pos="r" depth="3" NCoef="0" IVar="-1" Cut="0.0000000000000000e+00" cType="1" res="-9.2701148241758347e-03" rms="3.7858682870864868e-01" purity="1.8618202209472656e-01" nType="-99"/>
          </Node>
          <Node pos="r" depth="2" NCoef="0" IVar="1" Cut="4.6012184023857117e-01" cType="1" res="-1.1089071631431580e-01" rms="3.1710636615753174e-01" purity="1.3566811382770538e-01" nType="0">
            <Node pos="l" depth="3" NCoef="0" IVar="-1" Cut="0.0000000000000000e+00" cType="1" res="-1.1912510963156819e-03" rms="4.4349661469459534e-01" purity="3.2907065749168396e-01" nType="-99"/>
            <Node pos="r" depth="3" NCoef="0" IVar="-1" Cut="0.0000000000000000e+00" cType="1" res="-1.4883514493703842e-02" rms="2.9186242818832397e-01" purity="1.0696776956319809e-01" nType="-99"/>
          </Node>
        </Node>
      </Node>
    </BinaryTree>
    <BinaryTree type="DecisionTree" boostWeight="1.0000000000000000e+00" itree="29">
      <Node pos="s" depth="0" NCoef="0" IVar="3" Cut="1.6187571287155151e+00" cType="1" res="8.7936058640480042e-02" rms="3.9990532398223877e-01" purity="5.0000000000000000e-01" nType="0">
        <Node pos="l" depth="1" NCoef="0" IVar="4" Cut="1.7990466356277466e+00" cType="1" res="2.8742748498916626e-01" rms="3.4424212574958801e-01" purity="8.4670984745025635e-01" nType="0">
          <Node pos="l" depth="2" NCoef="0" IVar="-1" Cut="0.0000000000000000e+00" cType="1" res="4.9314247444272041e-03" rms="2.8427147865295410e-01" purity="9.0650689601898193e-01" nType="-99"/>
          <Node pos="r" depth="2" NCoef="0" IVar="-1" Cut="0.0000000000000000e+00" cType="1" res="1.1944766156375408e-03" rms="4.7588846087455750e-01" purity="5.6932777166366577e-01" nType="-99"/>
        </Node>
        <Node pos="r" depth="1" NCoef="0" IVar="4" Cut="1.2801551818847656e+00" cType="1" res="-7.1253456175327301e-02" rms="3.6861842870712280e-01" purity="2.2333359718322754e-01" nType="0">
          <Node pos="l" depth="2" NCoef="0" IVar="-1" Cut="0.0000000000000000e+00" cType="1" res="2.3670988157391548e-03" rms="4.8040503263473511e-01" purity="5.7229202985763550e-01" nType="-99"/>
          <Node pos="r" depth="2" NCoef="0" IVar="1" Cut="6.5636450052261353e-01" cType="1" res="-9.2783614993095398e-02" rms="3.4647104144096375e-01" purity="1.8078652024269104e-01" nType="0">
            <Node pos="l" depth="3" NCoef="0" IVar="-1" Cut="0.0000000000000000e+00" cType="1" res="4.8528361367061734e-04" rms="4.5161041617393494e-01" purity="4.0925902128219604e-01" nType="-99"/>
            <Node pos="r" depth="3" NCoef="0" IVar="-1" Cut="0.0000000000000000e+00" cType="1" res="-1.4104492031037807e-02" rms="3.0221006274223328e-01" purity="1.1455257982015610e-01" nType="-99"/>
          </Node>
        </Node>
      </Node>
    </BinaryTree>
    <BinaryTree type="DecisionTree" boostWeight="1.0000000000000000e+00" itree="30">
      <Node pos="s" depth="0" NCoef="0" IVar="3" Cut="1.4836184978485107e+00" cType="1" res="8.8788010179996490e-02" rms="3.9838698506355286e-01" purity="5.0000000000000000e-01" nType="0">
        <Node pos="l" depth="1" NCoef="0" IVar="1" Cut="7.9857367277145386e-01" cType="1" res="3.1357511878013611e-01" rms="3.1222519278526306e-01" purity="8.8693577051162720e-01" nType="0">
          <Node pos="l" depth="2" NCoef="0" IVar="-1" Cut="0.0000000000000000e+00" cType="1" res="5.1118051633238792e-03" rms="2.3630934953689575e-01" purity="9.3982911109924316e-01" nType="-99"/>
          <Node pos="r" depth="2" NCoef="0" IVar="-1" Cut="0.0000000000000000e+00" cType="1" res="3.1069610267877579e-03" rms="4.3828633427619934e-01" purity="7.3396277427673340e-01" nType="-99"/>
        </Node>
        <Node pos="r" depth="1" NCoef="0" IVar="3" Cut="2.0415670871734619e+00" cType="1" res="-4.8617467284202576e-02" rms="3.8258528709411621e-01" purity="2.6347801089286804e-01" nType="0">
          <Node pos="l" depth="2" NCoef="0" IVar="1" Cut="1.4303774833679199e+00" cType="1" res="3.8917973637580872e-02" rms="4.4761598110198975e-01" purity="4.4717538356781006e-01" nType="0">
            <Node pos="l" depth="3" NCoef="0" IVar="-1" Cut="0.0000000000000000e+00" cType="1" res="2.6301275938749313e-03" rms="4.6765327453613281e-01" purity="5.8737546205520630e-01" nType="-99"/>
            <Node pos="r" depth="3" NCoef="0" IVar="-1" Cut="0.0000000000000000e+00" cType="1" res="-1.0480549186468124e-02" rms="3.4781941771507263e-01" purity="1.5691241621971130e-01" nType="-99"/>
          </Node>
          <Node pos="r" depth="2" NCoef="0" IVar="0" Cut="2.9343347549438477e+00" cType="1" res="-1.0614764690399170e-01" rms="3.2022401690483093e-01" purity="1.4274816215038300e-01" nType="0">
            <Node pos="l" depth="3" NCoef="0" IVar="-1" Cut="0.0000000000000000e+00" cType="1" res="-1.3203410431742668e-02" rms="2.9773873090744019e-01" purity="1.1724861711263657e-01" nType="-99"/>
            <Node pos="r" depth="3" NCoef="0" IVar="-1" Cut="0.0000000000000000e+00" cType="1" res="-8.5960770957171917e-04" rms="4.2273619771003723e-01" purity="2.9861044883728027e-01" nType="-99"/>
          </Node>
        </Node>
      </Node>
    </BinaryTree>
    <BinaryTree type="DecisionTree" boostWeight="1.0000000000000000e+00" itree="31">
      <Node pos="s" depth="0" NCoef="0" IVar="3" Cut="1.4836184978485107e+00" cType="1" res="8.9519746601581573e-02" rms="3.9693957567214966e-01" purity="5.0000000000000000e-01" nType="0">
        <Node pos="l" depth="1" NCoef="0" IVar="4" Cut="1.6399292945861816e+00" cType="1" res="3.1133115291595459e-01" rms="3.1211805343627930e-01" purity="8.8693577051162720e-01" nType="0">
          <Node pos="l" depth="2" NCoef="0" IVar="-1" Cut="0.0000000000000000e+00" cType="1" res="5.0614895299077034e-03" rms="2.4377466738224030e-01" purity="9.3575000762939453e-01" nType="-99"/>
          <Node pos="r" depth="2" NCoef="0" IVar="-1" Cut="0.0000000000000000e+00" cType="1" res="2.9558753594756126e-03" rms="4.4026976823806763e-01" purity="7.2692829370498657e-01" nType="-99"/>
        </Node>
        <Node pos="r" depth="1" NCoef="0" IVar="4" Cut="1.9244227409362793e+00" cType="1" res="-4.6066779643297195e-02" rms="3.8192468881607056e-01" purity="2.6347801089286804e-01" nType="0">
          <Node pos="l" depth="2" NCoef="0" IVar="3" Cut="1.9514796733856201e+00" cType="1" res="2.9192060232162476e-02" rms="4.4655886292457581e-01" purity="4.3402794003486633e-01" nType="0">
            <Node pos="l" depth="3" NCoef="0" IVar="-1" Cut="0.0000000000000000e+00" cType="1" res="2.9028537683188915e-03" rms="4.5914822816848755e-01" purity="6.0275650024414062e-01" nType="-99"/>
            <Node pos="r" depth="3" NCoef="0" IVar="-1" Cut="0.0000000000000000e+00" cType="1" res="-2.8150381986051798e-03" rms="4.1362082958221436e-01" purity="2.8651204705238342e-01" nType="-99"/>
          </Node>
          <Node pos="r" depth="2" NCoef="0" IVar="2" Cut="2.5121579170227051e+00" cType="1" res="-1.1122812330722809e-01" rms="3.0058735609054565e-01" purity="1.1581081897020340e-01" nType="0">
            <Node pos="l" depth="3" NCoef="0" IVar="-1" Cut="0.0000000000000000e+00" cType="1" res="-2.0908426493406296e-02" rms="2.5594249367713928e-01" purity="8.0086745321750641e-02" nType="-99"/>
            <Node pos="r" depth="3" NCoef="0" IVar="-1" Cut="0.0000000000000000e+00" cType="1" res="-4.9032913520932198e-03" rms="3.6426737904548645e-01" purity="1.8193860352039337e-01" nType="-99"/>
          </Node>
        </Node>
      </Node>
    </BinaryTree>
    <BinaryTree type="DecisionTree" boostWeight="1.0000000000000000e+00" itree="32">
      <Node pos="s" depth="0" NCoef="0" IVar="3" Cut="1.4836184978485107e+00" cType="1" res="9.0338900685310364e-02" rms="3.9545583724975586e-01" purity="5.0000000000000000e-01" nType="0">
        <Node pos="l" depth="1" NCoef="0" IVar="1" Cut="7.9857367277145386e-01" cType="1" res="3.0910348892211914e-01" rms="3.1200963258743286e-01" purity="8.8693577051162720e-01" nType="0">
          <Node pos="l" depth="2" NCoef="0" IVar="-1" Cut="0.0000000000000000e+00" cType="1" res="5.0609516911208630e-03" rms="2.3624834418296814e-01" purity="9.3982911109924316e-01" nType="-99"/>
          <Node pos="r" depth="2" NCoef="0" IVar="-1" Cut="0.0000000000000000e+00" cType="1" res="3.0470995698124170e-03" rms="4.3810647726058960e-01" purity="7.3396277427673340e-01" nType="-99"/>
        </Node>
        <Node pos="r" depth="1" NCoef="0" IVar="3" Cut="1.9434421062469482e+00" cType="1" res="-4.3385185301303864e-02" rms="3.8122901320457458e-01" purity="2.6347801089286804e-01" nType="0">
          <Node pos="l" depth="2" NCoef="0" IVar="4" Cut="1.9588613510131836e+00" cType="1" res="5.4049506783485413e-02" rms="4.5341578125953674e-01" purity="4.7465997934341431e-01" nType="0">
            <Node pos="l" depth="3" NCoef="0" IVar="-1" Cut="0.0000000000000000e+00" cType="1" res="2.9204662423580885e-03" rms="4.6101635694503784e-01" purity="5.9979844093322754e-01" nType="-99"/>
            <Node pos="r" depth="3" NCoef="0" IVar="-1" Cut="0.0000000000000000e+00" cType="1" res="-5.8078104630112648e-03" rms="3.9195659756660461e-01" purity="2.2766582667827606e-01" nType="-99"/>
          </Node>
          <Node pos="r" depth="2" NCoef="0" IVar="4" Cut="1.4029575586318970e+00" cType="1" res="-9.1574884951114655e-02" rms="3.2942232489585876e-01" purity="1.5903064608573914e-01" nType="0">
            <Node pos="l" depth="3" NCoef="0" IVar="-1" Cut="0.0000000000000000e+00" cType="1" res="6.8372342502698302e-04" rms="4.7806704044342041e-01" purity="4.6986201405525208e-01" nType="-99"/>
            <Node pos="r" depth="3" NCoef="0" IVar="-1" Cut="0.0000000000000000e+00" cType="1" res="-1.2841098941862583e-02" rms="2.9737672209739685e-01" purity="1.1302014440298080e-01" nType="-99"/>
          </Node>
        </Node>
      </Node>
    </BinaryTree>
    <BinaryTree type="DecisionTree" boostWeight="1.0000000000000000e+00" itree="33">
      <Node pos="s" depth="0" NCoef="0" IVar="3" Cut="1.4169747829437256e+00" cType="1" res="9.0990036725997925e-02" rms="3.9411720633506775e-01" purity="5.0000000000000000e-01" nType="0">
        <Node pos="l" depth="1" NCoef="0" IVar="-1" Cut="0.0000000000000000e+00" cType="1" res="4.7768834047019482e-03" rms="2.8779059648513794e-01" purity="9.0587830543518066e-01" nType="-99"/>
        <Node pos="r" depth="1" NCoef="0" IVar="4" Cut="1.5417776107788086e+00" cType="1" res="-3.0716106295585632e-02" rms="3.8688775897026062e-01" purity="2.8910607099533081e-01" nType="0">
          <Node pos="l" depth="2" NCoef="0" IVar="3" Cut="2.0413782596588135e+00" cType="1" res="9.9148742854595184e-02" rms="4.5567393302917480e-01" purity="5.8005553483963013e-01" nType="0">
            <Node pos="l" depth="3" NCoef="0" IVar="-1" Cut="0.0000000000000000e+00" cType="1" res="3.2720405142754316e-03" rms="4.3195074796676636e-01" purity="6.9659733772277832e-01" nType="-99"/>
            <Node pos="r" depth="3" NCoef="0" IVar="-1" Cut="0.0000000000000000e+00" cType="1" res="-1.1850458104163408e-03" rms="4.6511912345886230e-01" purity="3.7542119622230530e-01" nType="-99"/>
          </Node>
          <Node pos="r" depth="2" NCoef="0" IVar="1" Cut="4.4756233692169189e-01" cType="1" res="-7.9202882945537567e-02" rms="3.4553667902946472e-01" purity="1.8047621846199036e-01" nType="0">
            <Node pos="l" depth="3" NCoef="0" IVar="-1" Cut="0.0000000000000000e+00" cType="1" res="1.3216688530519605e-03" rms="4.5723801851272583e-01" purity="4.3552887439727783e-01" nType="-99"/>
            <Node pos="r" depth="3" NCoef="0" IVar="-1" Cut="0.0000000000000000e+00" cType="1" res="-9.9536422640085220e-03" rms="3.1671088933944702e-01" purity="1.3522487878799438e-01" nType="-99"/>
          </Node>
        </Node>
      </Node>
    </BinaryTree>
    <BinaryTree type="DecisionTree" boostWeight="1.0000000000000000e+00" itree="34">
      <Node pos="s" depth="0" NCoef="0" IVar="3" Cut="1.4169747829437256e+00" cType="1" res="9.1372162103652954e-02" rms="3.9296165108680725e-01" purity="5.0000000000000000e-01" nType="0">
        <Node pos="l" depth="1" NCoef="0" IVar="-1" Cut="0.0000000000000000e+00" cType="1" res="4.7503006644546986e-03" rms="2.8779605031013489e-01" purity="9.0587830543518066e-01" nType="-99"/>
        <Node pos="r" depth="1" NCoef="0" IVar="4" Cut="1.7945013046264648e+00" cType="1" res="-2.8928376734256744e-02" rms="3.8638484477996826e-01" purity="2.8910607099533081e-01" nType="0">
          <Node pos="l" depth="2" NCoef="0" IVar="3" Cut="2.1635394096374512e+00" cType="1" res="6.3814066350460052e-02" rms="4.5052573084831238e-01" purity="5.0544321537017822e-01" nType="0">
            <Node pos="l" depth="3" NCoef="0" IVar="-1" Cut="0.0000000000000000e+00" cType="1" res="2.8830098453909159e-03" rms="4.4931322336196899e-01" purity="6.2407606840133667e-01" nType="-99"/>
            <Node pos="r" depth="3" NCoef="0" IVar="-1" Cut="0.0000000000000000e+00" cType="1" res="-4.2223613709211349e-03" rms="4.1331312060356140e-01" purity="2.6341828703880310e-01" nType="-99"/>
          </Node>
          <Node pos="r" depth="2" NCoef="0" IVar="1" Cut="4.4128257036209106e-01" cType="1" res="-9.4348460435867310e-02" rms="3.1793156266212463e-01" purity="1.3650284707546234e-01" nType="0">
            <Node pos="l" depth="3" NCoef="0" IVar="-1" Cut="0.0000000000000000e+00" cType="1" res="-7.2185562203230802e-06" rms="4.4899103045463562e-01" purity="3.6067551374435425e-01" nType="-99"/>
            <Node pos="r" depth="3" NCoef="0" IVar="-1" Cut="0.0000000000000000e+00" cType="1" res="-1.4273867011070251e-02" rms="2.9077598452568054e-01" purity="1.0302928835153580e-01" nType="-99"/>
          </Node>
        </Node>
      </Node>
    </BinaryTree>
    <BinaryTree type="DecisionTree" boostWeight="1.0000000000000000e+00" itree="35">
      <Node pos="s" depth="0" NCoef="0" IVar="3" Cut="1.4169747829437256e+00" cType="1" res="9.2006750404834747e-02" rms="3.9164042472839355e-01" purity="5.0000000000000000e-01" nType="0">
        <Node pos="l" depth="1" NCoef="0" IVar="-1" Cut="0.0000000000000000e+00" cType="1" res="4.7240313142538071e-03" rms="2.8780162334442139e-01" purity="9.0587830543518066e-01" nType="-99"/>
        <Node pos="r" depth="1" NCoef="0" IVar="4" Cut="1.5417776107788086e+00" cType="1" res="-2.6765603572130203e-02" rms="3.8572627305984497e-01" purity="2.8910607099533081e-01" nType="0">
          <Node pos="l" depth="2" NCoef="0" IVar="3" Cut="2.0413782596588135e+00" cType="1" res="9.7934491932392120e-02" rms="4.5511245727539062e-01" purity="5.8005553483963013e-01" nType="0">
            <Node pos="l" depth="3" NCoef="0" IVar="-1" Cut="0.0000000000000000e+00" cType="1" res="3.2192359212785959e-03" rms="4.3192970752716064e-01" purity="6.9659733772277832e-01" nType="-99"/>
            <Node pos="r" depth="3" NCoef="0" IVar="-1" Cut="0.0000000000000000e+00" cType="1" res="-1.1204819893464446e-03" rms="4.6505355834960938e-01" purity="3.7542119622230530e-01" nType="-99"/>
          </Node>
          <Node pos="r" depth="2" NCoef="0" IVar="1" Cut="4.4756233692169189e-01" cType="1" res="-7.3324047029018402e-02" rms="3.4500470757484436e-01" purity="1.8047621846199036e-01" nType="0">
            <Node pos="l" depth="3" NCoef="0" IVar="-1" Cut="0.0000000000000000e+00" cType="1" res="1.2992891715839505e-03" rms="4.5702567696571350e-01" purity="4.3552887439727783e-01" nType="-99"/>
            <Node pos="r" depth="3" NCoef="0" IVar="-1" Cut="0.0000000000000000e+00" cType="1" res="-9.3868784606456757e-03" rms="3.1660673022270203e-01" purity="1.3522487878799438e-01" nType="-99"/>
          </Node>
        </Node>
      </Node>
    </BinaryTree>
    <BinaryTree type="DecisionTree" boostWeight="1.0000000000000000e+00" itree="36">
