<?xml version="1.0"?>
<MethodSetup Method="BDT::BDT_full_mass_iso_nodrbbsv">
  <GeneralInfo>
    <Info name="TMVA Release" value="4.2.1 [262657]"/>
    <Info name="ROOT Release" value="6.06/01 [394753]"/>
    <Info name="Creator" value="fbrivio"/>
    <Info name="Date" value="Wed Nov  2 16:11:43 2016"/>
    <Info name="Host" value="Linux vocms029.cern.ch 2.6.32-573.22.1.el6.x86_64 #1 SMP Wed Mar 23 17:13:03 CET 2016 x86_64 x86_64 x86_64 GNU/Linux"/>
    <Info name="Dir" value="/afs/cern.ch/work/f/fbrivio/Hhh_Run2/CMSSW_8_0_7/src/h-tautau/Studies/test/BDT_full_iso_V/vars_tests"/>
    <Info name="Training events" value="446459"/>
    <Info name="TrainingTime" value="8.02510909e+02"/>
    <Info name="AnalysisType" value="Classification"/>
  </GeneralInfo>
  <Options>
    <Option name="V" modified="Yes">True</Option>
    <Option name="VerbosityLevel" modified="No">Verbose</Option>
    <Option name="VarTransform" modified="No">None</Option>
    <Option name="H" modified="Yes">True</Option>
    <Option name="CreateMVAPdfs" modified="No">False</Option>
    <Option name="IgnoreNegWeightsInTraining" modified="No">False</Option>
    <Option name="NTrees" modified="Yes">1000</Option>
    <Option name="MaxDepth" modified="Yes">3</Option>
    <Option name="MinNodeSize" modified="Yes">0.15</Option>
    <Option name="nCuts" modified="Yes">500</Option>
    <Option name="BoostType" modified="Yes">Grad</Option>
    <Option name="AdaBoostR2Loss" modified="No">quadratic</Option>
    <Option name="UseBaggedBoost" modified="Yes">True</Option>
    <Option name="Shrinkage" modified="Yes">8.000000e-02</Option>
    <Option name="AdaBoostBeta" modified="No">5.000000e-01</Option>
    <Option name="UseRandomisedTrees" modified="No">False</Option>
    <Option name="UseNvars" modified="No">3</Option>
    <Option name="UsePoissonNvars" modified="No">True</Option>
    <Option name="BaggedSampleFraction" modified="Yes">5.000000e-01</Option>
    <Option name="UseYesNoLeaf" modified="No">True</Option>
    <Option name="NegWeightTreatment" modified="Yes">nonegweightsintraining</Option>
    <Option name="Css" modified="No">1.000000e+00</Option>
    <Option name="Cts_sb" modified="No">1.000000e+00</Option>
    <Option name="Ctb_ss" modified="No">1.000000e+00</Option>
    <Option name="Cbb" modified="No">1.000000e+00</Option>
    <Option name="NodePurityLimit" modified="No">5.000000e-01</Option>
    <Option name="SeparationType" modified="No">giniindex</Option>
    <Option name="DoBoostMonitor" modified="No">False</Option>
    <Option name="UseFisherCuts" modified="No">False</Option>
    <Option name="MinLinCorrForFisher" modified="No">8.000000e-01</Option>
    <Option name="UseExclusiveVars" modified="No">False</Option>
    <Option name="DoPreselection" modified="No">False</Option>
    <Option name="SigToBkgFraction" modified="No">1.000000e+00</Option>
    <Option name="PruneMethod" modified="No">nopruning</Option>
    <Option name="PruneStrength" modified="No">0.000000e+00</Option>
    <Option name="PruningValFraction" modified="No">5.000000e-01</Option>
    <Option name="nEventsMin" modified="No">0</Option>
    <Option name="UseBaggedGrad" modified="No">False</Option>
    <Option name="GradBaggingFraction" modified="No">5.000000e-01</Option>
    <Option name="UseNTrainEvents" modified="No">0</Option>
    <Option name="NNodesMax" modified="No">0</Option>
  </Options>
  <Variables NVar="8">
    <Variable VarIndex="0" Expression="dphi_mumet" Label="dphi_mumet" Title="dphi_mumet" Unit="" Internal="dphi_mumet" Type="F" Min="0.00000000e+00" Max="3.14158821e+00"/>
    <Variable VarIndex="1" Expression="dphi_metsv" Label="dphi_metsv" Title="dphi_metsv" Unit="" Internal="dphi_metsv" Type="F" Min="1.19209290e-06" Max="3.14159179e+00"/>
    <Variable VarIndex="2" Expression="dR_bb" Label="dR_bb" Title="dR_bb" Unit="" Internal="dR_bb" Type="F" Min="-9.90000000e+01" Max="5.44296789e+00"/>
    <Variable VarIndex="3" Expression="dR_taumu" Label="dR_taumu" Title="dR_taumu" Unit="" Internal="dR_taumu" Type="F" Min="5.00017583e-01" Max="5.29642296e+00"/>
    <Variable VarIndex="4" Expression="pfmt_1" Label="pfmt_1" Title="pfmt_1" Unit="" Internal="pfmt_1" Type="F" Min="1.04801741e-03" Max="1.09476050e+03"/>
    <Variable VarIndex="5" Expression="pfmt_2" Label="pfmt_2" Title="pfmt_2" Unit="" Internal="pfmt_2" Type="F" Min="1.06102278e-04" Max="1.56482727e+03"/>
    <Variable VarIndex="6" Expression="dphi_bbmet" Label="dphi_bbmet" Title="dphi_bbmet" Unit="" Internal="dphi_bbmet" Type="F" Min="-9.90000000e+01" Max="3.14158154e+00"/>
    <Variable VarIndex="7" Expression="dphi_bbsv" Label="dphi_bbsv" Title="dphi_bbsv" Unit="" Internal="dphi_bbsv" Type="F" Min="-9.90000000e+01" Max="3.14159131e+00"/>
  </Variables>
  <Spectators NSpec="0"/>
  <Classes NClass="2">
    <Class Name="Signal" Index="0"/>
    <Class Name="Background" Index="1"/>
  </Classes>
  <Transformations NTransformations="0"/>
  <MVAPdfs/>
  <Weights NTrees="1000" AnalysisType="1">
    <BinaryTree type="DecisionTree" boostWeight="1.0000000000000000e+00" itree="0">
      <Node pos="s" depth="0" NCoef="0" IVar="4" Cut="6.3517990112304688e+01" cType="1" res="-8.8305980898439884e-04" rms="4.9999922513961792e-01" purity="4.9911692738533020e-01" nType="0">
        <Node pos="l" depth="1" NCoef="0" IVar="0" Cut="7.6501560211181641e-01" cType="1" res="1.9025005400180817e-01" rms="4.6239042282104492e-01" purity="6.9025003910064697e-01" nType="0">
          <Node pos="l" depth="2" NCoef="0" IVar="5" Cut="1.2372599029541016e+02" cType="1" res="3.6193513870239258e-01" rms="3.4496805071830750e-01" purity="8.6193507909774780e-01" nType="0">
            <Node pos="l" depth="3" NCoef="0" IVar="-1" Cut="0.0000000000000000e+00" cType="1" res="2.0989442709833384e-03" rms="3.2827487587928772e-01" purity="8.7714135646820068e-01" nType="-99"/>
            <Node pos="r" depth="3" NCoef="0" IVar="-1" Cut="0.0000000000000000e+00" cType="1" res="-1.2488818028941751e-03" rms="4.9652987718582153e-01" purity="4.4119456410408020e-01" nType="-99"/>
          </Node>
          <Node pos="r" depth="2" NCoef="0" IVar="4" Cut="3.3724281311035156e+01" cType="1" res="3.3509016036987305e-02" rms="4.9887588620185852e-01" purity="5.3350901603698730e-01" nType="0">
            <Node pos="l" depth="3" NCoef="0" IVar="-1" Cut="0.0000000000000000e+00" cType="1" res="9.6704316092655063e-04" rms="4.7849956154823303e-01" purity="6.4504539966583252e-01" nType="-99"/>
            <Node pos="r" depth="3" NCoef="0" IVar="-1" Cut="0.0000000000000000e+00" cType="1" res="-1.0918873595073819e-03" rms="4.8437681794166565e-01" purity="3.7598747014999390e-01" nType="-99"/>
          </Node>
        </Node>
        <Node pos="r" depth="1" NCoef="0" IVar="5" Cut="2.9305583953857422e+01" cType="1" res="-3.2655331492424011e-01" rms="3.7863296270370483e-01" purity="1.7344667017459869e-01" nType="0">
          <Node pos="l" depth="2" NCoef="0" IVar="4" Cut="1.0391854095458984e+02" cType="1" res="-7.8412376344203949e-02" rms="4.9381321668624878e-01" purity="4.2158761620521545e-01" nType="0">
            <Node pos="l" depth="3" NCoef="0" IVar="-1" Cut="0.0000000000000000e+00" cType="1" res="4.9288215814158320e-04" rms="4.9500030279159546e-01" purity="5.7053154706954956e-01" nType="-99"/>
            <Node pos="r" depth="3" NCoef="0" IVar="-1" Cut="0.0000000000000000e+00" cType="1" res="-1.7493966966867447e-02" rms="2.9984939098358154e-01" purity="9.9887080490589142e-02" nType="-99"/>
          </Node>
          <Node pos="r" depth="2" NCoef="0" IVar="0" Cut="6.9604849815368652e-01" cType="1" res="-4.1156402230262756e-01" rms="2.8392788767814636e-01" purity="8.8435977697372437e-02" nType="0">
            <Node pos="l" depth="3" NCoef="0" IVar="-1" Cut="0.0000000000000000e+00" cType="1" res="-4.7129234299063683e-03" rms="4.1715076565742493e-01" purity="2.2434581816196442e-01" nType="-99"/>
            <Node pos="r" depth="3" NCoef="0" IVar="-1" Cut="0.0000000000000000e+00" cType="1" res="-1.8747868016362190e-02" rms="2.1957291662693024e-01" purity="5.0792101770639420e-02" nType="-99"/>
          </Node>
        </Node>
      </Node>
    </BinaryTree>
    <BinaryTree type="DecisionTree" boostWeight="1.0000000000000000e+00" itree="1">
      <Node pos="s" depth="0" NCoef="0" IVar="4" Cut="5.2444614410400391e+01" cType="1" res="5.3124576807022095e-03" rms="4.9759557843208313e-01" purity="5.0328999757766724e-01" nType="0">
        <Node pos="l" depth="1" NCoef="0" IVar="0" Cut="9.4059288501739502e-01" cType="1" res="2.2875700891017914e-01" rms="4.4407320022583008e-01" purity="7.2934186458587646e-01" nType="0">
          <Node pos="l" depth="2" NCoef="0" IVar="5" Cut="1.2824485778808594e+02" cType="1" res="3.7338650226593018e-01" rms="3.3141478896141052e-01" purity="8.7430083751678467e-01" nType="0">
            <Node pos="l" depth="3" NCoef="0" IVar="-1" Cut="0.0000000000000000e+00" cType="1" res="2.0046280696988106e-03" rms="3.1642374396324158e-01" purity="8.8710117340087891e-01" nType="-99"/>
            <Node pos="r" depth="3" NCoef="0" IVar="-1" Cut="0.0000000000000000e+00" cType="1" res="-1.4150532661005855e-03" rms="4.9513828754425049e-01" purity="4.3001836538314819e-01" nType="-99"/>
          </Node>
          <Node pos="r" depth="2" NCoef="0" IVar="5" Cut="9.5141670227050781e+01" cType="1" res="4.0778096765279770e-02" rms="4.9822548031806946e-01" purity="5.4093462228775024e-01" nType="0">
            <Node pos="l" depth="3" NCoef="0" IVar="-1" Cut="0.0000000000000000e+00" cType="1" res="6.7464477615430951e-04" rms="4.9010357260704041e-01" purity="5.9849518537521362e-01" nType="-99"/>
            <Node pos="r" depth="3" NCoef="0" IVar="-1" Cut="0.0000000000000000e+00" cType="1" res="-3.3041194546967745e-03" rms="4.3866223096847534e-01" purity="2.6019516587257385e-01" nType="-99"/>
          </Node>
        </Node>
        <Node pos="r" depth="1" NCoef="0" IVar="5" Cut="3.0046043395996094e+01" cType="1" res="-2.7061977982521057e-01" rms="4.1478511691093445e-01" purity="2.2413802146911621e-01" nType="0">
          <Node pos="l" depth="2" NCoef="0" IVar="4" Cut="9.5826240539550781e+01" cType="1" res="9.9628400057554245e-03" rms="4.9821326136589050e-01" purity="5.0794547796249390e-01" nType="0">
            <Node pos="l" depth="3" NCoef="0" IVar="-1" Cut="0.0000000000000000e+00" cType="1" res="9.1273203724995255e-04" rms="4.7607612609863281e-01" purity="6.5232551097869873e-01" nType="-99"/>
            <Node pos="r" depth="3" NCoef="0" IVar="-1" Cut="0.0000000000000000e+00" cType="1" res="-7.4291867204010487e-03" rms="3.7160608172416687e-01" purity="1.6625680029392242e-01" nType="-99"/>
          </Node>
          <Node pos="r" depth="2" NCoef="0" IVar="0" Cut="4.9538570642471313e-01" cType="1" res="-3.8757702708244324e-01" rms="3.0626976490020752e-01" purity="1.0583657771348953e-01" nType="0">
            <Node pos="l" depth="3" NCoef="0" IVar="-1" Cut="0.0000000000000000e+00" cType="1" res="-2.4078385904431343e-03" rms="4.6760457754135132e-01" purity="3.2401823997497559e-01" nType="-99"/>
            <Node pos="r" depth="3" NCoef="0" IVar="-1" Cut="0.0000000000000000e+00" cType="1" res="-1.8258253112435341e-02" rms="2.3575809597969055e-01" purity="5.9509452432394028e-02" nType="-99"/>
          </Node>
        </Node>
      </Node>
    </BinaryTree>
    <BinaryTree type="DecisionTree" boostWeight="1.0000000000000000e+00" itree="2">
      <Node pos="s" depth="0" NCoef="0" IVar="4" Cut="5.9000061035156250e+01" cType="1" res="-7.3157175211235881e-04" rms="4.9512133002281189e-01" purity="4.9489125609397888e-01" nType="0">
        <Node pos="l" depth="1" NCoef="0" IVar="0" Cut="9.1554409265518188e-01" cType="1" res="2.0492294430732727e-01" rms="4.5488542318344116e-01" purity="7.0558273792266846e-01" nType="0">
          <Node pos="l" depth="2" NCoef="0" IVar="5" Cut="1.1135282897949219e+02" cType="1" res="3.5958960652351379e-01" rms="3.4529227018356323e-01" purity="8.6127972602844238e-01" nType="0">
            <Node pos="l" depth="3" NCoef="0" IVar="-1" Cut="0.0000000000000000e+00" cType="1" res="1.9599893130362034e-03" rms="3.2452598214149475e-01" purity="8.8017737865447998e-01" nType="-99"/>
            <Node pos="r" depth="3" NCoef="0" IVar="-1" Cut="0.0000000000000000e+00" cType="1" res="2.1408296015579253e-04" rms="4.9909812211990356e-01" purity="5.1642537117004395e-01" nType="-99"/>
          </Node>
          <Node pos="r" depth="2" NCoef="0" IVar="5" Cut="9.5164146423339844e+01" cType="1" res="2.2609615698456764e-02" rms="4.9885278940200806e-01" purity="5.2205497026443481e-01" nType="0">
            <Node pos="l" depth="3" NCoef="0" IVar="-1" Cut="0.0000000000000000e+00" cType="1" res="5.5449089268222451e-04" rms="4.9353170394897461e-01" purity="5.7727903127670288e-01" nType="-99"/>
            <Node pos="r" depth="3" NCoef="0" IVar="-1" Cut="0.0000000000000000e+00" cType="1" res="-3.4392075613141060e-03" rms="4.3530815839767456e-01" purity="2.5491917133331299e-01" nType="-99"/>
          </Node>
        </Node>
        <Node pos="r" depth="1" NCoef="0" IVar="0" Cut="6.4587008953094482e-01" cType="1" res="-3.1990438699722290e-01" rms="3.7007859349250793e-01" purity="1.6790117323398590e-01" nType="0">
          <Node pos="l" depth="2" NCoef="0" IVar="5" Cut="2.8114492416381836e+01" cType="1" res="-8.3297550678253174e-02" rms="4.9076068401336670e-01" purity="4.1272467374801636e-01" nType="0">
            <Node pos="l" depth="3" NCoef="0" IVar="-1" Cut="0.0000000000000000e+00" cType="1" res="1.5417034737765789e-03" rms="4.5354390144348145e-01" purity="7.0551383495330811e-01" nType="-99"/>
            <Node pos="r" depth="3" NCoef="0" IVar="-1" Cut="0.0000000000000000e+00" cType="1" res="-4.0570576675236225e-03" rms="4.4110479950904846e-01" purity="2.6545810699462891e-01" nType="-99"/>
          </Node>
          <Node pos="r" depth="2" NCoef="0" IVar="5" Cut="3.8461769104003906e+01" cType="1" res="-3.9635705947875977e-01" rms="2.8187862038612366e-01" purity="8.8793531060218811e-02" nType="0">
            <Node pos="l" depth="3" NCoef="0" IVar="-1" Cut="0.0000000000000000e+00" cType="1" res="-4.0344926528632641e-03" rms="4.1987094283103943e-01" purity="2.3209357261657715e-01" nType="-99"/>
            <Node pos="r" depth="3" NCoef="0" IVar="-1" Cut="0.0000000000000000e+00" cType="1" res="-2.8800198808312416e-02" rms="1.7402905225753784e-01" purity="3.1365986913442612e-02" nType="-99"/>
          </Node>
        </Node>
      </Node>
    </BinaryTree>
    <BinaryTree type="DecisionTree" boostWeight="1.0000000000000000e+00" itree="3">
      <Node pos="s" depth="0" NCoef="0" IVar="4" Cut="5.3909694671630859e+01" cType="1" res="1.2624731287360191e-02" rms="4.9189838767051697e-01" purity="5.0543648004531860e-01" nType="0">
        <Node pos="l" depth="1" NCoef="0" IVar="0" Cut="9.4686323404312134e-01" cType="1" res="2.2698490321636200e-01" rms="4.4382700324058533e-01" purity="7.2852289676666260e-01" nType="0">
          <Node pos="l" depth="2" NCoef="0" IVar="5" Cut="1.3206047058105469e+02" cType="1" res="3.6997330188751221e-01" rms="3.3304107189178467e-01" purity="8.7271267175674438e-01" nType="0">
            <Node pos="l" depth="3" NCoef="0" IVar="-1" Cut="0.0000000000000000e+00" cType="1" res="1.8439044943079352e-03" rms="3.1966051459312439e-01" purity="8.8436889648437500e-01" nType="-99"/>
            <Node pos="r" depth="3" NCoef="0" IVar="-1" Cut="0.0000000000000000e+00" cType="1" res="-1.7432585591450334e-03" rms="4.9123471975326538e-01" purity="4.0709692239761353e-01" nType="-99"/>
          </Node>
          <Node pos="r" depth="2" NCoef="0" IVar="5" Cut="9.5159622192382812e+01" cType="1" res="4.6190060675144196e-02" rms="4.9725866317749023e-01" purity="5.4620903730392456e-01" nType="0">
            <Node pos="l" depth="3" NCoef="0" IVar="-1" Cut="0.0000000000000000e+00" cType="1" res="6.3923752168193460e-04" rms="4.8869702219963074e-01" purity="6.0478228330612183e-01" nType="-99"/>
            <Node pos="r" depth="3" NCoef="0" IVar="-1" Cut="0.0000000000000000e+00" cType="1" res="-4.5505184680223465e-03" rms="4.1923248767852783e-01" purity="2.2786659002304077e-01" nType="-99"/>
          </Node>
        </Node>
        <Node pos="r" depth="1" NCoef="0" IVar="5" Cut="3.4357589721679688e+01" cType="1" res="-2.7173227071762085e-01" rms="3.9977511763572693e-01" purity="2.0950374007225037e-01" nType="0">
          <Node pos="l" depth="2" NCoef="0" IVar="4" Cut="1.0443740844726562e+02" cType="1" res="-3.7762727588415146e-02" rms="4.9448132514953613e-01" purity="4.5738503336906433e-01" nType="0">
            <Node pos="l" depth="3" NCoef="0" IVar="-1" Cut="0.0000000000000000e+00" cType="1" res="6.1668077250942588e-04" rms="4.9142616987228394e-01" purity="5.8283925056457520e-01" nType="-99"/>
            <Node pos="r" depth="3" NCoef="0" IVar="-1" Cut="0.0000000000000000e+00" cType="1" res="-1.7915120348334312e-02" rms="2.8736829757690430e-01" purity="9.1382458806037903e-02" nType="-99"/>
          </Node>
          <Node pos="r" depth="2" NCoef="0" IVar="0" Cut="2.5710663199424744e-01" cType="1" res="-3.7826225161552429e-01" rms="2.9152244329452515e-01" purity="9.6639536321163177e-02" nType="0">
            <Node pos="l" depth="3" NCoef="0" IVar="-1" Cut="0.0000000000000000e+00" cType="1" res="-1.0458063334226608e-03" rms="4.8633882403373718e-01" purity="3.8653272390365601e-01" nType="-99"/>
            <Node pos="r" depth="3" NCoef="0" IVar="-1" Cut="0.0000000000000000e+00" cType="1" res="-1.7452716827392578e-02" rms="2.4435319006443024e-01" purity="6.5054237842559814e-02" nType="-99"/>
          </Node>
        </Node>
      </Node>
    </BinaryTree>
    <BinaryTree type="DecisionTree" boostWeight="1.0000000000000000e+00" itree="4">
      <Node pos="s" depth="0" NCoef="0" IVar="4" Cut="5.2444702148437500e+01" cType="1" res="7.1597103960812092e-03" rms="4.8957574367523193e-01" purity="4.9728679656982422e-01" nType="0">
        <Node pos="l" depth="1" NCoef="0" IVar="0" Cut="9.4059151411056519e-01" cType="1" res="2.2153471410274506e-01" rms="4.4619017839431763e-01" purity="7.2349244356155396e-01" nType="0">
          <Node pos="l" depth="2" NCoef="0" IVar="5" Cut="1.3206120300292969e+02" cType="1" res="3.6465409398078918e-01" rms="3.3787283301353455e-01" purity="8.6830514669418335e-01" nType="0">
            <Node pos="l" depth="3" NCoef="0" IVar="-1" Cut="0.0000000000000000e+00" cType="1" res="1.9181295065209270e-03" rms="3.2312589883804321e-01" purity="8.8150119781494141e-01" nType="-99"/>
            <Node pos="r" depth="3" NCoef="0" IVar="-1" Cut="0.0000000000000000e+00" cType="1" res="-3.5622932482510805e-03" rms="4.8045969009399414e-01" purity="3.6152368783950806e-01" nType="-99"/>
          </Node>
          <Node pos="r" depth="2" NCoef="0" IVar="5" Cut="1.1631021881103516e+02" cType="1" res="4.8704452812671661e-02" rms="4.9702936410903931e-01" purity="5.4861730337142944e-01" nType="0">
            <Node pos="l" depth="3" NCoef="0" IVar="-1" Cut="0.0000000000000000e+00" cType="1" res="6.0425640549510717e-04" rms="4.9238646030426025e-01" purity="5.8570462465286255e-01" nType="-99"/>
            <Node pos="r" depth="3" NCoef="0" IVar="-1" Cut="0.0000000000000000e+00" cType="1" res="-6.3008056022226810e-03" rms="3.8816091418266296e-01" purity="1.8496493995189667e-01" nType="-99"/>
          </Node>
        </Node>
        <Node pos="r" depth="1" NCoef="0" IVar="0" Cut="4.7030636668205261e-01" cType="1" res="-2.5559791922569275e-01" rms="4.0506258606910706e-01" purity="2.2002848982810974e-01" nType="0">
          <Node pos="l" depth="2" NCoef="0" IVar="5" Cut="3.1274065017700195e+01" cType="1" res="5.6389100849628448e-02" rms="4.9420520663261414e-01" purity="5.5105763673782349e-01" nType="0">
            <Node pos="l" depth="3" NCoef="0" IVar="-1" Cut="0.0000000000000000e+00" cType="1" res="1.5303582185879350e-03" rms="3.9974823594093323e-01" purity="7.9608458280563354e-01" nType="-99"/>
            <Node pos="r" depth="3" NCoef="0" IVar="-1" Cut="0.0000000000000000e+00" cType="1" res="-1.3348431093618274e-03" rms="4.7679936885833740e-01" purity="3.5265636444091797e-01" nType="-99"/>
          </Node>
          <Node pos="r" depth="2" NCoef="0" IVar="5" Cut="2.0147035598754883e+01" cType="1" res="-3.4210044145584106e-01" rms="3.2768741250038147e-01" purity="1.2824627757072449e-01" nType="0">
            <Node pos="l" depth="3" NCoef="0" IVar="-1" Cut="0.0000000000000000e+00" cType="1" res="-8.8571902597323060e-04" rms="4.8648169636726379e-01" purity="4.0396729111671448e-01" nType="-99"/>
            <Node pos="r" depth="3" NCoef="0" IVar="-1" Cut="0.0000000000000000e+00" cType="1" res="-1.7539612948894501e-02" rms="2.5357592105865479e-01" purity="7.0782013237476349e-02" nType="-99"/>
          </Node>
        </Node>
      </Node>
    </BinaryTree>
    <BinaryTree type="DecisionTree" boostWeight="1.0000000000000000e+00" itree="5">
      <Node pos="s" depth="0" NCoef="0" IVar="4" Cut="5.2987693786621094e+01" cType="1" res="1.1257752776145935e-02" rms="4.8723602294921875e-01" purity="4.9901530146598816e-01" nType="0">
        <Node pos="l" depth="1" NCoef="0" IVar="0" Cut="1.1976865530014038e+00" cType="1" res="2.2495019435882568e-01" rms="4.4388368725776672e-01" purity="7.2731184959411621e-01" nType="0">
          <Node pos="l" depth="2" NCoef="0" IVar="5" Cut="1.1960186004638672e+02" cType="1" res="3.4487929940223694e-01" rms="3.5753268003463745e-01" purity="8.4884166717529297e-01" nType="0">
            <Node pos="l" depth="3" NCoef="0" IVar="-1" Cut="0.0000000000000000e+00" cType="1" res="1.8482767045497894e-03" rms="3.3983135223388672e-01" purity="8.6648827791213989e-01" nType="-99"/>
            <Node pos="r" depth="3" NCoef="0" IVar="-1" Cut="0.0000000000000000e+00" cType="1" res="-5.3792004473507404e-04" rms="4.9712920188903809e-01" purity="4.5594111084938049e-01" nType="-99"/>
          </Node>
          <Node pos="r" depth="2" NCoef="0" IVar="4" Cut="3.5852844238281250e+01" cType="1" res="3.2270912081003189e-02" rms="4.9797788262367249e-01" purity="5.3206098079681396e-01" nType="0">
            <Node pos="l" depth="3" NCoef="0" IVar="-1" Cut="0.0000000000000000e+00" cType="1" res="7.2091247420758009e-04" rms="4.8772391676902771e-01" purity="6.0643380880355835e-01" nType="-99"/>
            <Node pos="r" depth="3" NCoef="0" IVar="-1" Cut="0.0000000000000000e+00" cType="1" res="-1.9368132343515754e-03" rms="4.7117555141448975e-01" purity="3.3538278937339783e-01" nType="-99"/>
          </Node>
        </Node>
        <Node pos="r" depth="1" NCoef="0" IVar="5" Cut="2.7474693298339844e+01" cType="1" res="-2.6046121120452881e-01" rms="3.9601868391036987e-01" purity="2.0872655510902405e-01" nType="0">
          <Node pos="l" depth="2" NCoef="0" IVar="0" Cut="4.8924574255943298e-01" cType="1" res="-3.8454658351838589e-03" rms="4.9441120028495789e-01" purity="4.8896560072898865e-01" nType="0">
            <Node pos="l" depth="3" NCoef="0" IVar="-1" Cut="0.0000000000000000e+00" cType="1" res="1.8642442300915718e-03" rms="4.0084841847419739e-01" purity="7.9471564292907715e-01" nType="-99"/>
            <Node pos="r" depth="3" NCoef="0" IVar="-1" Cut="0.0000000000000000e+00" cType="1" res="-1.6944750677794218e-03" rms="4.7162213921546936e-01" purity="3.4792935848236084e-01" nType="-99"/>
          </Node>
          <Node pos="r" depth="2" NCoef="0" IVar="0" Cut="2.5083327293395996e-01" cType="1" res="-3.5010457038879395e-01" rms="3.0852174758911133e-01" purity="1.1083088815212250e-01" nType="0">
            <Node pos="l" depth="3" NCoef="0" IVar="-1" Cut="0.0000000000000000e+00" cType="1" res="-9.5402490114793181e-04" rms="4.8858469724655151e-01" purity="3.9737308025360107e-01" nType="-99"/>
            <Node pos="r" depth="3" NCoef="0" IVar="-1" Cut="0.0000000000000000e+00" cType="1" res="-1.3200424611568451e-02" rms="2.7007642388343811e-01" purity="8.1088498234748840e-02" nType="-99"/>
          </Node>
        </Node>
      </Node>
    </BinaryTree>
    <BinaryTree type="DecisionTree" boostWeight="1.0000000000000000e+00" itree="6">
      <Node pos="s" depth="0" NCoef="0" IVar="4" Cut="6.3370357513427734e+01" cType="1" res="1.5911810100078583e-02" rms="4.8549643158912659e-01" purity="5.0207978487014771e-01" nType="0">
        <Node pos="l" depth="1" NCoef="0" IVar="0" Cut="9.3432229757308960e-01" cType="1" res="1.9344942271709442e-01" rms="4.5689716935157776e-01" purity="6.9372791051864624e-01" nType="0">
          <Node pos="l" depth="2" NCoef="0" IVar="5" Cut="1.3206047058105469e+02" cType="1" res="3.5066926479339600e-01" rms="3.5064873099327087e-01" purity="8.5463428497314453e-01" nType="0">
            <Node pos="l" depth="3" NCoef="0" IVar="-1" Cut="0.0000000000000000e+00" cType="1" res="1.9443774363026023e-03" rms="3.3714801073074341e-01" purity="8.6788570880889893e-01" nType="-99"/>
            <Node pos="r" depth="3" NCoef="0" IVar="-1" Cut="0.0000000000000000e+00" cType="1" res="-1.2293106410652399e-03" rms="4.8818787932395935e-01" purity="3.9789107441902161e-01" nType="-99"/>
          </Node>
          <Node pos="r" depth="2" NCoef="0" IVar="4" Cut="3.5289966583251953e+01" cType="1" res="1.0152808390557766e-02" rms="4.9635773897171021e-01" purity="5.0613331794738770e-01" nType="0">
            <Node pos="l" depth="3" NCoef="0" IVar="-1" Cut="0.0000000000000000e+00" cType="1" res="7.3543534381315112e-04" rms="4.8686194419860840e-01" purity="6.1026579141616821e-01" nType="-99"/>
            <Node pos="r" depth="3" NCoef="0" IVar="-1" Cut="0.0000000000000000e+00" cType="1" res="-1.4152188086882234e-03" rms="4.7149437665939331e-01" purity="3.4639343619346619e-01" nType="-99"/>
          </Node>
        </Node>
        <Node pos="r" depth="1" NCoef="0" IVar="5" Cut="2.9304401397705078e+01" cType="1" res="-2.9318779706954956e-01" rms="3.6360892653465271e-01" purity="1.6841329634189606e-01" nType="0">
          <Node pos="l" depth="2" NCoef="0" IVar="4" Cut="9.8486503601074219e+01" cType="1" res="-7.1267560124397278e-02" rms="4.8706620931625366e-01" purity="4.1857936978340149e-01" nType="0">
            <Node pos="l" depth="3" NCoef="0" IVar="-1" Cut="0.0000000000000000e+00" cType="1" res="6.2759098364040256e-04" rms="4.9085566401481628e-01" purity="5.8420521020889282e-01" nType="-99"/>
            <Node pos="r" depth="3" NCoef="0" IVar="-1" Cut="0.0000000000000000e+00" cType="1" res="-1.0809102095663548e-02" rms="3.3887830376625061e-01" purity="1.3410125672817230e-01" nType="-99"/>
          </Node>
          <Node pos="r" depth="2" NCoef="0" IVar="0" Cut="2.5083485245704651e-01" cType="1" res="-3.6821293830871582e-01" rms="2.7281498908996582e-01" purity="8.3839029073715210e-02" nType="0">
            <Node pos="l" depth="3" NCoef="0" IVar="-1" Cut="0.0000000000000000e+00" cType="1" res="-2.9221924487501383e-03" rms="4.6725922822952271e-01" purity="3.2204386591911316e-01" nType="-99"/>
            <Node pos="r" depth="3" NCoef="0" IVar="-1" Cut="0.0000000000000000e+00" cType="1" res="-1.7091453075408936e-02" rms="2.3773902654647827e-01" purity="6.0994643718004227e-02" nType="-99"/>
          </Node>
        </Node>
      </Node>
    </BinaryTree>
    <BinaryTree type="DecisionTree" boostWeight="1.0000000000000000e+00" itree="7">
      <Node pos="s" depth="0" NCoef="0" IVar="4" Cut="5.9548740386962891e+01" cType="1" res="1.3561475090682507e-02" rms="4.8326832056045532e-01" purity="4.9740776419639587e-01" nType="0">
        <Node pos="l" depth="1" NCoef="0" IVar="0" Cut="1.0346522331237793e+00" cType="1" res="2.0159135758876801e-01" rms="4.5329234004020691e-01" purity="7.0348280668258667e-01" nType="0">
          <Node pos="l" depth="2" NCoef="0" IVar="5" Cut="1.1547696685791016e+02" cType="1" res="3.4642314910888672e-01" rms="3.5392236709594727e-01" purity="8.5162395238876343e-01" nType="0">
            <Node pos="l" depth="3" NCoef="0" IVar="-1" Cut="0.0000000000000000e+00" cType="1" res="1.8583739874884486e-03" rms="3.3515974879264832e-01" purity="8.7007939815521240e-01" nType="-99"/>
            <Node pos="r" depth="3" NCoef="0" IVar="-1" Cut="0.0000000000000000e+00" cType="1" res="-9.6450734417885542e-04" rms="4.9462363123893738e-01" purity="4.4709154963493347e-01" nType="-99"/>
          </Node>
          <Node pos="r" depth="2" NCoef="0" IVar="4" Cut="3.4707721710205078e+01" cType="1" res="3.1653773039579391e-03" rms="4.9725034832954407e-01" purity="5.0052279233932495e-01" nType="0">
            <Node pos="l" depth="3" NCoef="0" IVar="-1" Cut="0.0000000000000000e+00" cType="1" res="7.5898505747318268e-04" rms="4.8805660009384155e-01" purity="6.0493844747543335e-01" nType="-99"/>
            <Node pos="r" depth="3" NCoef="0" IVar="-1" Cut="0.0000000000000000e+00" cType="1" res="-2.2033955901861191e-03" rms="4.6244993805885315e-01" purity="3.1659919023513794e-01" nType="-99"/>
          </Node>
        </Node>
        <Node pos="r" depth="1" NCoef="0" IVar="0" Cut="7.0858263969421387e-01" cType="1" res="-2.7108418941497803e-01" rms="3.7616890668869019e-01" purity="1.8544474244117737e-01" nType="0">
          <Node pos="l" depth="2" NCoef="0" IVar="5" Cut="4.5069927215576172e+01" cType="1" res="-6.0891073197126389e-02" rms="4.8542794585227966e-01" purity="4.2054143548011780e-01" nType="0">
            <Node pos="l" depth="3" NCoef="0" IVar="-1" Cut="0.0000000000000000e+00" cType="1" res="9.5039285952225327e-04" rms="4.7451809048652649e-01" purity="6.3553768396377563e-01" nType="-99"/>
            <Node pos="r" depth="3" NCoef="0" IVar="-1" Cut="0.0000000000000000e+00" cType="1" res="-3.1543509103357792e-03" rms="4.1880297660827637e-01" purity="2.3182764649391174e-01" nType="-99"/>
          </Node>
          <Node pos="r" depth="2" NCoef="0" IVar="5" Cut="1.7613323211669922e+01" cType="1" res="-3.4838744997978210e-01" rms="2.9095968604087830e-01" purity="9.8982587456703186e-02" nType="0">
            <Node pos="l" depth="3" NCoef="0" IVar="-1" Cut="0.0000000000000000e+00" cType="1" res="-1.5395432710647583e-03" rms="4.6623861789703369e-01" purity="3.3489316701889038e-01" nType="-99"/>
            <Node pos="r" depth="3" NCoef="0" IVar="-1" Cut="0.0000000000000000e+00" cType="1" res="-1.7174584791064262e-02" rms="2.3713375627994537e-01" purity="6.1093397438526154e-02" nType="-99"/>
          </Node>
        </Node>
      </Node>
    </BinaryTree>
    <BinaryTree type="DecisionTree" boostWeight="1.0000000000000000e+00" itree="8">
      <Node pos="s" depth="0" NCoef="0" IVar="4" Cut="6.7257820129394531e+01" cType="1" res="1.8090240657329559e-02" rms="4.8120969533920288e-01" purity="5.0030654668807983e-01" nType="0">
        <Node pos="l" depth="1" NCoef="0" IVar="0" Cut="7.9640161991119385e-01" cType="1" res="1.8263176083564758e-01" rms="4.5961391925811768e-01" purity="6.8163347244262695e-01" nType="0">
          <Node pos="l" depth="2" NCoef="0" IVar="5" Cut="9.3966453552246094e+01" cType="1" res="3.5395082831382751e-01" rms="3.4519410133361816e-01" purity="8.5933762788772583e-01" nType="0">
            <Node pos="l" depth="3" NCoef="0" IVar="-1" Cut="0.0000000000000000e+00" cType="1" res="1.9765410106629133e-03" rms="3.1642195582389832e-01" purity="8.8565450906753540e-01" nType="-99"/>
            <Node pos="r" depth="3" NCoef="0" IVar="-1" Cut="0.0000000000000000e+00" cType="1" res="1.1177484411746264e-03" rms="4.7954759001731873e-01" purity="6.2904262542724609e-01" nType="-99"/>
          </Node>
          <Node pos="r" depth="2" NCoef="0" IVar="5" Cut="9.7898483276367188e+01" cType="1" res="2.4231893941760063e-02" rms="4.9412474036216736e-01" purity="5.1732999086380005e-01" nType="0">
            <Node pos="l" depth="3" NCoef="0" IVar="-1" Cut="0.0000000000000000e+00" cType="1" res="4.8251877888105810e-04" rms="4.9015212059020996e-01" purity="5.7205134630203247e-01" nType="-99"/>
            <Node pos="r" depth="3" NCoef="0" IVar="-1" Cut="0.0000000000000000e+00" cType="1" res="-3.6498073022812605e-03" rms="4.1637343168258667e-01" purity="2.2918270528316498e-01" nType="-99"/>
          </Node>
        </Node>
        <Node pos="r" depth="1" NCoef="0" IVar="0" Cut="3.2611602544784546e-01" cType="1" res="-3.1127023696899414e-01" rms="3.3099976181983948e-01" purity="1.3734692335128784e-01" nType="0">
          <Node pos="l" depth="2" NCoef="0" IVar="5" Cut="5.6325225830078125e+01" cType="1" res="7.8321322798728943e-03" rms="4.9582895636558533e-01" purity="4.9758687615394592e-01" nType="0">
            <Node pos="l" depth="3" NCoef="0" IVar="-1" Cut="0.0000000000000000e+00" cType="1" res="8.9524954091757536e-04" rms="4.6638381481170654e-01" purity="6.6854298114776611e-01" nType="-99"/>
            <Node pos="r" depth="3" NCoef="0" IVar="-1" Cut="0.0000000000000000e+00" cType="1" res="-4.1086790151894093e-03" rms="4.4606333971023560e-01" purity="2.7518099546432495e-01" nType="-99"/>
          </Node>
          <Node pos="r" depth="2" NCoef="0" IVar="5" Cut="3.1135873794555664e+01" cType="1" res="-3.6424034833908081e-01" rms="2.5928574800491333e-01" purity="7.7548094093799591e-02" nType="0">
            <Node pos="l" depth="3" NCoef="0" IVar="-1" Cut="0.0000000000000000e+00" cType="1" res="-4.9465419724583626e-03" rms="4.0418964624404907e-01" purity="2.1468612551689148e-01" nType="-99"/>
            <Node pos="r" depth="3" NCoef="0" IVar="-1" Cut="0.0000000000000000e+00" cType="1" res="-2.4944365024566650e-02" rms="1.8836331367492676e-01" purity="3.7660885602235794e-02" nType="-99"/>
          </Node>
        </Node>
      </Node>
    </BinaryTree>
    <BinaryTree type="DecisionTree" boostWeight="1.0000000000000000e+00" itree="9">
      <Node pos="s" depth="0" NCoef="0" IVar="4" Cut="5.4629764556884766e+01" cType="1" res="2.6398213580250740e-02" rms="4.7853329777717590e-01" purity="5.0607860088348389e-01" nType="0">
        <Node pos="l" depth="1" NCoef="0" IVar="0" Cut="9.6567511558532715e-01" cType="1" res="2.2289958596229553e-01" rms="4.4276228547096252e-01" purity="7.2693210840225220e-01" nType="0">
          <Node pos="l" depth="2" NCoef="0" IVar="5" Cut="1.2953036499023438e+02" cType="1" res="3.5821521282196045e-01" rms="3.3973518013954163e-01" purity="8.6602270603179932e-01" nType="0">
            <Node pos="l" depth="3" NCoef="0" IVar="-1" Cut="0.0000000000000000e+00" cType="1" res="1.9323882879689336e-03" rms="3.2543134689331055e-01" purity="8.7925130128860474e-01" nType="-99"/>
            <Node pos="r" depth="3" NCoef="0" IVar="-1" Cut="0.0000000000000000e+00" cType="1" res="-1.1177748674526811e-03" rms="4.9208721518516541e-01" purity="4.1326552629470825e-01" nType="-99"/>
          </Node>
          <Node pos="r" depth="2" NCoef="0" IVar="5" Cut="1.1718264770507812e+02" cType="1" res="4.9908347427845001e-02" rms="4.9575087428092957e-01" purity="5.4911482334136963e-01" nType="0">
            <Node pos="l" depth="3" NCoef="0" IVar="-1" Cut="0.0000000000000000e+00" cType="1" res="5.5606343084946275e-04" rms="4.9120756983757019e-01" purity="5.8761388063430786e-01" nType="-99"/>
            <Node pos="r" depth="3" NCoef="0" IVar="-1" Cut="0.0000000000000000e+00" cType="1" res="-8.8502503931522369e-03" rms="3.3262479305267334e-01" purity="1.2709736824035645e-01" nType="-99"/>
          </Node>
        </Node>
        <Node pos="r" depth="1" NCoef="0" IVar="5" Cut="2.8113819122314453e+01" cType="1" res="-2.3971500992774963e-01" rms="3.8796481490135193e-01" purity="2.0698636770248413e-01" nType="0">
          <Node pos="l" depth="2" NCoef="0" IVar="4" Cut="9.5576683044433594e+01" cType="1" res="-1.5650749206542969e-02" rms="4.9046549201011658e-01" purity="4.7173467278480530e-01" nType="0">
            <Node pos="l" depth="3" NCoef="0" IVar="-1" Cut="0.0000000000000000e+00" cType="1" res="8.8102236622944474e-04" rms="4.8053872585296631e-01" purity="6.2671315670013428e-01" nType="-99"/>
            <Node pos="r" depth="3" NCoef="0" IVar="-1" Cut="0.0000000000000000e+00" cType="1" res="-9.1076614335179329e-03" rms="3.4619045257568359e-01" purity="1.4290750026702881e-01" nType="-99"/>
          </Node>
          <Node pos="r" depth="2" NCoef="0" IVar="0" Cut="6.9613200426101685e-01" cType="1" res="-3.1774076819419861e-01" rms="3.0917862057685852e-01" purity="1.1479319632053375e-01" nType="0">
            <Node pos="l" depth="3" NCoef="0" IVar="-1" Cut="0.0000000000000000e+00" cType="1" res="-2.0208500791341066e-03" rms="4.5382064580917358e-01" purity="3.0304807424545288e-01" nType="-99"/>
            <Node pos="r" depth="3" NCoef="0" IVar="-1" Cut="0.0000000000000000e+00" cType="1" res="-1.7056763172149658e-02" rms="2.2986161708831787e-01" purity="5.7396549731492996e-02" nType="-99"/>
          </Node>
        </Node>
      </Node>
    </BinaryTree>
    <BinaryTree type="DecisionTree" boostWeight="1.0000000000000000e+00" itree="10">
      <Node pos="s" depth="0" NCoef="0" IVar="4" Cut="6.3370357513427734e+01" cType="1" res="1.7877420410513878e-02" rms="4.7643762826919556e-01" purity="4.9513608217239380e-01" nType="0">
        <Node pos="l" depth="1" NCoef="0" IVar="0" Cut="9.2806732654571533e-01" cType="1" res="1.8964174389839172e-01" rms="4.5619589090347290e-01" purity="6.9093674421310425e-01" nType="0">
          <Node pos="l" depth="2" NCoef="0" IVar="5" Cut="1.2862326049804688e+02" cType="1" res="3.4780779480934143e-01" rms="3.4956440329551697e-01" purity="8.5524082183837891e-01" nType="0">
            <Node pos="l" depth="3" NCoef="0" IVar="-1" Cut="0.0000000000000000e+00" cType="1" res="1.8719910876825452e-03" rms="3.3422142267227173e-01" purity="8.7033104896545410e-01" nType="-99"/>
            <Node pos="r" depth="3" NCoef="0" IVar="-1" Cut="0.0000000000000000e+00" cType="1" res="-5.5620209313929081e-03" rms="4.6645626425743103e-01" purity="3.2212260365486145e-01" nType="-99"/>
          </Node>
          <Node pos="r" depth="2" NCoef="0" IVar="5" Cut="9.7898483276367188e+01" cType="1" res="1.7386786639690399e-03" rms="4.9513679742813110e-01" purity="4.9574172496795654e-01" nType="0">
            <Node pos="l" depth="3" NCoef="0" IVar="-1" Cut="0.0000000000000000e+00" cType="1" res="4.2092791409231722e-04" rms="4.9371212720870972e-01" purity="5.5320668220520020e-01" nType="-99"/>
            <Node pos="r" depth="3" NCoef="0" IVar="-1" Cut="0.0000000000000000e+00" cType="1" res="-8.6948713287711143e-03" rms="3.8094967603683472e-01" purity="1.8030220270156860e-01" nType="-99"/>
          </Node>
        </Node>
        <Node pos="r" depth="1" NCoef="0" IVar="5" Cut="1.8741266250610352e+01" cType="1" res="-2.7913689613342285e-01" rms="3.4699112176895142e-01" purity="1.5655812621116638e-01" nType="0">
          <Node pos="l" depth="2" NCoef="0" IVar="4" Cut="9.3468353271484375e+01" cType="1" res="-3.2756175845861435e-02" rms="4.8937740921974182e-01" purity="4.5475220680236816e-01" nType="0">
            <Node pos="l" depth="3" NCoef="0" IVar="-1" Cut="0.0000000000000000e+00" cType="1" res="9.3662342987954617e-04" rms="4.7879773378372192e-01" purity="6.3817721605300903e-01" nType="-99"/>
            <Node pos="r" depth="3" NCoef="0" IVar="-1" Cut="0.0000000000000000e+00" cType="1" res="-1.2592935934662819e-02" rms="3.6576113104820251e-01" purity="1.6309371590614319e-01" nType="-99"/>
          </Node>
          <Node pos="r" depth="2" NCoef="0" IVar="0" Cut="4.8911818861961365e-01" cType="1" res="-3.2998377084732056e-01" rms="2.8410047292709351e-01" purity="9.5018304884433746e-02" nType="0">
            <Node pos="l" depth="3" NCoef="0" IVar="-1" Cut="0.0000000000000000e+00" cType="1" res="-3.1302983406931162e-03" rms="4.5535460114479065e-01" purity="3.0183312296867371e-01" nType="-99"/>
            <Node pos="r" depth="3" NCoef="0" IVar="-1" Cut="0.0000000000000000e+00" cType="1" res="-1.7581118270754814e-02" rms="2.2389242053031921e-01" purity="5.4302517324686050e-02" nType="-99"/>
          </Node>
        </Node>
      </Node>
    </BinaryTree>
    <BinaryTree type="DecisionTree" boostWeight="1.0000000000000000e+00" itree="11">
      <Node pos="s" depth="0" NCoef="0" IVar="4" Cut="6.3205272674560547e+01" cType="1" res="2.2461742162704468e-02" rms="4.7422447800636292e-01" purity="4.9746510386466980e-01" nType="0">
        <Node pos="l" depth="1" NCoef="0" IVar="0" Cut="8.1518054008483887e-01" cType="1" res="1.9228538870811462e-01" rms="4.5479929447174072e-01" purity="6.9356089830398560e-01" nType="0">
          <Node pos="l" depth="2" NCoef="0" IVar="5" Cut="1.1547864532470703e+02" cType="1" res="3.5360765457153320e-01" rms="3.4250652790069580e-01" purity="8.6217677593231201e-01" nType="0">
            <Node pos="l" depth="3" NCoef="0" IVar="-1" Cut="0.0000000000000000e+00" cType="1" res="1.9165830453857780e-03" rms="3.2344058156013489e-01" purity="8.8008421659469604e-01" nType="-99"/>
            <Node pos="r" depth="3" NCoef="0" IVar="-1" Cut="0.0000000000000000e+00" cType="1" res="-3.9605284109711647e-04" rms="4.9610215425491333e-01" purity="4.7603866457939148e-01" nType="-99"/>
          </Node>
          <Node pos="r" depth="2" NCoef="0" IVar="4" Cut="3.7216869354248047e+01" cType="1" res="3.2305419445037842e-02" rms="4.9419346451759338e-01" purity="5.2634793519973755e-01" nType="0">
            <Node pos="l" depth="3" NCoef="0" IVar="-1" Cut="0.0000000000000000e+00" cType="1" res="7.9727853881195188e-04" rms="4.8205128312110901e-01" purity="6.2647348642349243e-01" nType="-99"/>
            <Node pos="r" depth="3" NCoef="0" IVar="-1" Cut="0.0000000000000000e+00" cType="1" res="-1.3841363834217191e-03" rms="4.7192415595054626e-01" purity="3.4941023588180542e-01" nType="-99"/>
          </Node>
        </Node>
        <Node pos="r" depth="1" NCoef="0" IVar="5" Cut="2.8145679473876953e+01" cType="1" res="-2.7142053842544556e-01" rms="3.4618422389030457e-01" purity="1.5811860561370850e-01" nType="0">
          <Node pos="l" depth="2" NCoef="0" IVar="0" Cut="1.0095924139022827e+00" cType="1" res="-7.1437902748584747e-02" rms="4.7957780957221985e-01" purity="4.0798833966255188e-01" nType="0">
            <Node pos="l" depth="3" NCoef="0" IVar="-1" Cut="0.0000000000000000e+00" cType="1" res="1.0977321071550250e-03" rms="4.6713709831237793e-01" purity="6.4959949254989624e-01" nType="-99"/>
            <Node pos="r" depth="3" NCoef="0" IVar="-1" Cut="0.0000000000000000e+00" cType="1" res="-5.6535140611231327e-03" rms="3.8747414946556091e-01" purity="1.9326491653919220e-01" nType="-99"/>
          </Node>
          <Node pos="r" depth="2" NCoef="0" IVar="0" Cut="5.0165593624114990e-01" cType="1" res="-3.3529442548751831e-01" rms="2.6039966940879822e-01" purity="7.8310944139957428e-02" nType="0">
            <Node pos="l" depth="3" NCoef="0" IVar="-1" Cut="0.0000000000000000e+00" cType="1" res="-2.6604302693158388e-03" rms="4.4483551383018494e-01" purity="2.7595418691635132e-01" nType="-99"/>
            <Node pos="r" depth="3" NCoef="0" IVar="-1" Cut="0.0000000000000000e+00" cType="1" res="-2.3749185726046562e-02" rms="1.9397966563701630e-01" purity="3.9378434419631958e-02" nType="-99"/>
          </Node>
        </Node>
      </Node>
    </BinaryTree>
    <BinaryTree type="DecisionTree" boostWeight="1.0000000000000000e+00" itree="12">
      <Node pos="s" depth="0" NCoef="0" IVar="4" Cut="5.9001346588134766e+01" cType="1" res="2.4308804422616959e-02" rms="4.7181946039199829e-01" purity="4.9724015593528748e-01" nType="0">
        <Node pos="l" depth="1" NCoef="0" IVar="0" Cut="8.0892205238342285e-01" cType="1" res="2.0277456939220428e-01" rms="4.5046570897102356e-01" purity="7.0647692680358887e-01" nType="0">
          <Node pos="l" depth="2" NCoef="0" IVar="5" Cut="1.3197351074218750e+02" cType="1" res="3.6081886291503906e-01" rms="3.3384177088737488e-01" purity="8.7088096141815186e-01" nType="0">
            <Node pos="l" depth="3" NCoef="0" IVar="-1" Cut="0.0000000000000000e+00" cType="1" res="1.8902549054473639e-03" rms="3.2104125618934631e-01" purity="8.8262003660202026e-01" nType="-99"/>
            <Node pos="r" depth="3" NCoef="0" IVar="-1" Cut="0.0000000000000000e+00" cType="1" res="-3.8298036088235676e-04" rms="4.9739378690719604e-01" purity="4.5878285169601440e-01" nType="-99"/>
          </Node>
          <Node pos="r" depth="2" NCoef="0" IVar="5" Cut="9.6356544494628906e+01" cType="1" res="3.9653245359659195e-02" rms="4.9491187930107117e-01" purity="5.3679156303405762e-01" nType="0">
            <Node pos="l" depth="3" NCoef="0" IVar="-1" Cut="0.0000000000000000e+00" cType="1" res="6.3344807131215930e-04" rms="4.8952510952949524e-01" purity="5.9208905696868896e-01" nType="-99"/>
            <Node pos="r" depth="3" NCoef="0" IVar="-1" Cut="0.0000000000000000e+00" cType="1" res="-3.5359545145183802e-03" rms="4.2666977643966675e-01" purity="2.4488705396652222e-01" nType="-99"/>
          </Node>
        </Node>
        <Node pos="r" depth="1" NCoef="0" IVar="5" Cut="1.5810278892517090e+01" cType="1" res="-2.5217276811599731e-01" rms="3.5684677958488464e-01" purity="1.7308771610260010e-01" nType="0">
          <Node pos="l" depth="2" NCoef="0" IVar="4" Cut="1.0388156127929688e+02" cType="1" res="2.7214748784899712e-02" rms="4.8919448256492615e-01" purity="5.1386475563049316e-01" nType="0">
            <Node pos="l" depth="3" NCoef="0" IVar="-1" Cut="0.0000000000000000e+00" cType="1" res="9.9689769558608532e-04" rms="4.7426721453666687e-01" purity="6.4830905199050903e-01" nType="-99"/>
            <Node pos="r" depth="3" NCoef="0" IVar="-1" Cut="0.0000000000000000e+00" cType="1" res="-1.9652040675282478e-02" rms="3.1090557575225830e-01" purity="1.0990866273641586e-01" nType="-99"/>
          </Node>
          <Node pos="r" depth="2" NCoef="0" IVar="0" Cut="4.9538213014602661e-01" cType="1" res="-3.0381965637207031e-01" rms="2.9923895001411438e-01" purity="1.1009255051612854e-01" nType="0">
            <Node pos="l" depth="3" NCoef="0" IVar="-1" Cut="0.0000000000000000e+00" cType="1" res="-2.5077357422560453e-03" rms="4.6568107604980469e-01" purity="3.3280140161514282e-01" nType="-99"/>
            <Node pos="r" depth="3" NCoef="0" IVar="-1" Cut="0.0000000000000000e+00" cType="1" res="-1.5324322506785393e-02" rms="2.3735420405864716e-01" purity="6.3404098153114319e-02" nType="-99"/>
          </Node>
        </Node>
      </Node>
    </BinaryTree>
    <BinaryTree type="DecisionTree" boostWeight="1.0000000000000000e+00" itree="13">
      <Node pos="s" depth="0" NCoef="0" IVar="4" Cut="5.2444702148437500e+01" cType="1" res="3.6279208958148956e-02" rms="4.6993646025657654e-01" purity="5.0790339708328247e-01" nType="0">
        <Node pos="l" depth="1" NCoef="0" IVar="0" Cut="1.2415665388107300e+00" cType="1" res="2.2787442803382874e-01" rms="4.3819493055343628e-01" purity="7.3402512073516846e-01" nType="0">
          <Node pos="l" depth="2" NCoef="0" IVar="5" Cut="9.6636848449707031e+01" cType="1" res="3.4327447414398193e-01" rms="3.5197329521179199e-01" purity="8.5346722602844238e-01" nType="0">
            <Node pos="l" depth="3" NCoef="0" IVar="-1" Cut="0.0000000000000000e+00" cType="1" res="1.8884624587371945e-03" rms="3.2472443580627441e-01" purity="8.7971496582031250e-01" nType="-99"/>
            <Node pos="r" depth="3" NCoef="0" IVar="-1" Cut="0.0000000000000000e+00" cType="1" res="8.4454857278615236e-04" rms="4.8690819740295410e-01" purity="5.9659713506698608e-01" nType="-99"/>
          </Node>
          <Node pos="r" depth="2" NCoef="0" IVar="2" Cut="7.6977258920669556e-01" cType="1" res="2.6564272120594978e-02" rms="4.9709841609001160e-01" purity="5.2566373348236084e-01" nType="0">
            <Node pos="l" depth="3" NCoef="0" IVar="-1" Cut="0.0000000000000000e+00" cType="1" res="6.5528054255992174e-04" rms="4.8762282729148865e-01" purity="6.0009229183197021e-01" nType="-99"/>
            <Node pos="r" depth="3" NCoef="0" IVar="-1" Cut="0.0000000000000000e+00" cType="1" res="-1.9240120891481638e-03" rms="4.7101631760597229e-01" purity="3.3769389986991882e-01" nType="-99"/>
          </Node>
        </Node>
        <Node pos="r" depth="1" NCoef="0" IVar="5" Cut="3.7482788085937500e+01" cType="1" res="-2.1197615563869476e-01" rms="3.8599866628646851e-01" purity="2.1491104364395142e-01" nType="0">
          <Node pos="l" depth="2" NCoef="0" IVar="4" Cut="9.3508216857910156e+01" cType="1" res="-2.1034274250268936e-02" rms="4.7941383719444275e-01" purity="4.4908979535102844e-01" nType="0">
            <Node pos="l" depth="3" NCoef="0" IVar="-1" Cut="0.0000000000000000e+00" cType="1" res="8.1229797797277570e-04" rms="4.7848835587501526e-01" purity="6.0195279121398926e-01" nType="-99"/>
            <Node pos="r" depth="3" NCoef="0" IVar="-1" Cut="0.0000000000000000e+00" cType="1" res="-9.3470225110650063e-03" rms="3.4860464930534363e-01" purity="1.4918662607669830e-01" nType="-99"/>
          </Node>
          <Node pos="r" depth="2" NCoef="0" IVar="0" Cut="2.6964497566223145e-01" cType="1" res="-3.0932065844535828e-01" rms="2.8234249353408813e-01" purity="9.5523864030838013e-02" nType="0">
            <Node pos="l" depth="3" NCoef="0" IVar="-1" Cut="0.0000000000000000e+00" cType="1" res="-8.5454410873353481e-04" rms="4.8444166779518127e-01" purity="3.8903820514678955e-01" nType="-99"/>
            <Node pos="r" depth="3" NCoef="0" IVar="-1" Cut="0.0000000000000000e+00" cType="1" res="-1.6242261976003647e-02" rms="2.3824070394039154e-01" purity="6.2646113336086273e-02" nType="-99"/>
          </Node>
        </Node>
      </Node>
    </BinaryTree>
    <BinaryTree type="DecisionTree" boostWeight="1.0000000000000000e+00" itree="14">
      <Node pos="s" depth="0" NCoef="0" IVar="4" Cut="5.0260765075683594e+01" cType="1" res="3.0211681500077248e-02" rms="4.6818491816520691e-01" purity="4.9880015850067139e-01" nType="0">
        <Node pos="l" depth="1" NCoef="0" IVar="0" Cut="7.7129203081130981e-01" cType="1" res="2.2577416896820068e-01" rms="4.3869373202323914e-01" purity="7.3262155055999756e-01" nType="0">
          <Node pos="l" depth="2" NCoef="0" IVar="5" Cut="1.1174365997314453e+02" cType="1" res="3.7755542993545532e-01" rms="3.1178471446037292e-01" purity="8.9023870229721069e-01" nType="0">
            <Node pos="l" depth="3" NCoef="0" IVar="-1" Cut="0.0000000000000000e+00" cType="1" res="1.9300701096653938e-03" rms="2.9162818193435669e-01" purity="9.0613281726837158e-01" nType="-99"/>
            <Node pos="r" depth="3" NCoef="0" IVar="-1" Cut="0.0000000000000000e+00" cType="1" res="7.2951277252286673e-04" rms="4.9370431900024414e-01" purity="5.7355403900146484e-01" nType="-99"/>
          </Node>
          <Node pos="r" depth="2" NCoef="0" IVar="5" Cut="9.4929466247558594e+01" cType="1" res="6.4266942441463470e-02" rms="4.9315246939659119e-01" purity="5.6490445137023926e-01" nType="0">
            <Node pos="l" depth="3" NCoef="0" IVar="-1" Cut="0.0000000000000000e+00" cType="1" res="7.5969455065205693e-04" rms="4.8466953635215759e-01" purity="6.1987233161926270e-01" nType="-99"/>
            <Node pos="r" depth="3" NCoef="0" IVar="-1" Cut="0.0000000000000000e+00" cType="1" res="-2.2850225213915110e-03" rms="4.4871652126312256e-01" purity="2.8297147154808044e-01" nType="-99"/>
          </Node>
        </Node>
        <Node pos="r" depth="1" NCoef="0" IVar="0" Cut="4.4525584578514099e-01" cType="1" res="-1.9458515942096710e-01" rms="3.9426469802856445e-01" purity="2.3002518713474274e-01" nType="0">
          <Node pos="l" depth="2" NCoef="0" IVar="5" Cut="3.4543830871582031e+01" cType="1" res="7.6926440000534058e-02" rms="4.8572900891304016e-01" purity="5.6301486492156982e-01" nType="0">
            <Node pos="l" depth="3" NCoef="0" IVar="-1" Cut="0.0000000000000000e+00" cType="1" res="1.8181185005232692e-03" rms="3.9334321022033691e-01" purity="7.9872101545333862e-01" nType="-99"/>
            <Node pos="r" depth="3" NCoef="0" IVar="-1" Cut="0.0000000000000000e+00" cType="1" res="-1.0710868518799543e-03" rms="4.7383305430412292e-01" purity="3.5488447546958923e-01" nType="-99"/>
          </Node>
          <Node pos="r" depth="2" NCoef="0" IVar="5" Cut="3.7574150085449219e+01" cType="1" res="-2.6469948887825012e-01" rms="3.3272632956504822e-01" purity="1.4403495192527771e-01" nType="0">
            <Node pos="l" depth="3" NCoef="0" IVar="-1" Cut="0.0000000000000000e+00" cType="1" res="-1.5356236835941672e-03" rms="4.5801487565040588e-01" purity="3.3539175987243652e-01" nType="-99"/>
            <Node pos="r" depth="3" NCoef="0" IVar="-1" Cut="0.0000000000000000e+00" cType="1" res="-1.3790925033390522e-02" rms="2.3738539218902588e-01" purity="6.2283348292112350e-02" nType="-99"/>
          </Node>
        </Node>
      </Node>
    </BinaryTree>
    <BinaryTree type="DecisionTree" boostWeight="1.0000000000000000e+00" itree="15">
      <Node pos="s" depth="0" NCoef="0" IVar="4" Cut="5.6815910339355469e+01" cType="1" res="2.8795067220926285e-02" rms="4.6638762950897217e-01" purity="4.9594390392303467e-01" nType="0">
        <Node pos="l" depth="1" NCoef="0" IVar="0" Cut="8.5911411046981812e-01" cType="1" res="2.0609237253665924e-01" rms="4.4709172844886780e-01" purity="7.1163588762283325e-01" nType="0">
          <Node pos="l" depth="2" NCoef="0" IVar="5" Cut="1.3206120300292969e+02" cType="1" res="3.6191695928573608e-01" rms="3.2969254255294800e-01" purity="8.7446838617324829e-01" nType="0">
            <Node pos="l" depth="3" NCoef="0" IVar="-1" Cut="0.0000000000000000e+00" cType="1" res="1.8267678096890450e-03" rms="3.1675097346305847e-01" purity="8.8613545894622803e-01" nType="-99"/>
            <Node pos="r" depth="3" NCoef="0" IVar="-1" Cut="0.0000000000000000e+00" cType="1" res="-6.3201133161783218e-04" rms="4.9498087167739868e-01" purity="4.3478202819824219e-01" nType="-99"/>
          </Node>
          <Node pos="r" depth="2" NCoef="0" IVar="4" Cut="2.3135805130004883e+01" cType="1" res="2.6542231440544128e-02" rms="4.9472546577453613e-01" purity="5.2401089668273926e-01" nType="0">
            <Node pos="l" depth="3" NCoef="0" IVar="-1" Cut="0.0000000000000000e+00" cType="1" res="1.0307831689715385e-03" rms="4.7257322072982788e-01" purity="6.5698868036270142e-01" nType="-99"/>
            <Node pos="r" depth="3" NCoef="0" IVar="-1" Cut="0.0000000000000000e+00" cType="1" res="-7.9670606646686792e-04" rms="4.8611453175544739e-01" purity="4.0693485736846924e-01" nType="-99"/>
          </Node>
        </Node>
        <Node pos="r" depth="1" NCoef="0" IVar="0" Cut="4.0132310986518860e-01" cType="1" res="-2.2562168538570404e-01" rms="3.6465808749198914e-01" purity="1.8643176555633545e-01" nType="0">
          <Node pos="l" depth="2" NCoef="0" IVar="5" Cut="2.8432201385498047e+01" cType="1" res="3.2274872064590454e-02" rms="4.9088770151138306e-01" purity="5.1520544290542603e-01" nType="0">
            <Node pos="l" depth="3" NCoef="0" IVar="-1" Cut="0.0000000000000000e+00" cType="1" res="1.7102954443544149e-03" rms="4.0524971485137939e-01" purity="7.8251445293426514e-01" nType="-99"/>
            <Node pos="r" depth="3" NCoef="0" IVar="-1" Cut="0.0000000000000000e+00" cType="1" res="-1.5354623319581151e-03" rms="4.7461357712745667e-01" purity="3.5461539030075073e-01" nType="-99"/>
          </Node>
          <Node pos="r" depth="2" NCoef="0" IVar="4" Cut="7.0236503601074219e+01" cType="1" res="-2.7936509251594543e-01" rms="3.0613994598388672e-01" purity="1.1791819334030151e-01" nType="0">
            <Node pos="l" depth="3" NCoef="0" IVar="-1" Cut="0.0000000000000000e+00" cType="1" res="-1.4943956630304456e-03" rms="4.3786391615867615e-01" purity="2.9378193616867065e-01" nType="-99"/>
            <Node pos="r" depth="3" NCoef="0" IVar="-1" Cut="0.0000000000000000e+00" cType="1" res="-1.5454064123332500e-02" rms="2.4566456675529480e-01" purity="7.0965401828289032e-02" nType="-99"/>
          </Node>
        </Node>
      </Node>
    </BinaryTree>
    <BinaryTree type="DecisionTree" boostWeight="1.0000000000000000e+00" itree="16">
      <Node pos="s" depth="0" NCoef="0" IVar="4" Cut="4.8768016815185547e+01" cType="1" res="3.9830312132835388e-02" rms="4.6456855535507202e-01" purity="5.0602763891220093e-01" nType="0">
        <Node pos="l" depth="1" NCoef="0" IVar="0" Cut="8.0891698598861694e-01" cType="1" res="2.3322449624538422e-01" rms="4.3368619680404663e-01" purity="7.4123078584671021e-01" nType="0">
          <Node pos="l" depth="2" NCoef="0" IVar="5" Cut="1.3197351074218750e+02" cType="1" res="3.7707221508026123e-01" rms="3.1014186143875122e-01" purity="8.9150208234786987e-01" nType="0">
            <Node pos="l" depth="3" NCoef="0" IVar="-1" Cut="0.0000000000000000e+00" cType="1" res="1.9142985111102462e-03" rms="2.9678484797477722e-01" purity="9.0230846405029297e-01" nType="-99"/>
            <Node pos="r" depth="3" NCoef="0" IVar="-1" Cut="0.0000000000000000e+00" cType="1" res="-1.9565557886380702e-04" rms="4.9922460317611694e-01" purity="4.7318387031555176e-01" nType="-99"/>
          </Node>
          <Node pos="r" depth="2" NCoef="0" IVar="5" Cut="1.1799041748046875e+02" cType="1" res="7.0489868521690369e-02" rms="4.9209105968475342e-01" purity="5.7122910022735596e-01" nType="0">
            <Node pos="l" depth="3" NCoef="0" IVar="-1" Cut="0.0000000000000000e+00" cType="1" res="6.8315764656290412e-04" rms="4.8702514171600342e-01" purity="6.0732579231262207e-01" nType="-99"/>
            <Node pos="r" depth="3" NCoef="0" IVar="-1" Cut="0.0000000000000000e+00" cType="1" res="-4.3128747493028641e-03" rms="3.8988265395164490e-01" purity="1.8802917003631592e-01" nType="-99"/>
          </Node>
        </Node>
        <Node pos="r" depth="1" NCoef="0" IVar="5" Cut="3.9058219909667969e+01" cType="1" res="-1.7372155189514160e-01" rms="3.9943894743919373e-01" purity="2.4630901217460632e-01" nType="0">
          <Node pos="l" depth="2" NCoef="0" IVar="4" Cut="9.2942260742187500e+01" cType="1" res="1.6857620328664780e-02" rms="4.7916427254676819e-01" purity="4.8319965600967407e-01" nType="0">
            <Node pos="l" depth="3" NCoef="0" IVar="-1" Cut="0.0000000000000000e+00" cType="1" res="9.2741730622947216e-04" rms="4.7286689281463623e-01" purity="6.2382853031158447e-01" nType="-99"/>
            <Node pos="r" depth="3" NCoef="0" IVar="-1" Cut="0.0000000000000000e+00" cType="1" res="-6.2960572540760040e-03" rms="3.5998013615608215e-01" purity="1.6387343406677246e-01" nType="-99"/>
          </Node>
          <Node pos="r" depth="2" NCoef="0" IVar="0" Cut="3.1352964043617249e-01" cType="1" res="-2.8249272704124451e-01" rms="2.9497832059860229e-01" purity="1.1110603064298630e-01" nType="0">
            <Node pos="l" depth="3" NCoef="0" IVar="-1" Cut="0.0000000000000000e+00" cType="1" res="-6.0149788623675704e-04" rms="4.8861572146415710e-01" purity="4.1020262241363525e-01" nType="-99"/>
            <Node pos="r" depth="3" NCoef="0" IVar="-1" Cut="0.0000000000000000e+00" cType="1" res="-1.2947327457368374e-02" rms="2.4337895214557648e-01" purity="7.0018567144870758e-02" nType="-99"/>
          </Node>
        </Node>
      </Node>
    </BinaryTree>
    <BinaryTree type="DecisionTree" boostWeight="1.0000000000000000e+00" itree="17">
      <Node pos="s" depth="0" NCoef="0" IVar="4" Cut="4.6474018096923828e+01" cType="1" res="3.0564328655600548e-02" rms="4.6272319555282593e-01" purity="4.9465376138687134e-01" nType="0">
        <Node pos="l" depth="1" NCoef="0" IVar="0" Cut="9.4059938192367554e-01" cType="1" res="2.3719067871570587e-01" rms="4.3080538511276245e-01" purity="7.4604099988937378e-01" nType="0">
          <Node pos="l" depth="2" NCoef="0" IVar="5" Cut="1.4492617797851562e+02" cType="1" res="3.7117779254913330e-01" rms="3.1644135713577271e-01" purity="8.8626044988632202e-01" nType="0">
            <Node pos="l" depth="3" NCoef="0" IVar="-1" Cut="0.0000000000000000e+00" cType="1" res="1.9052338320761919e-03" rms="3.0565753579139709e-01" purity="8.9539086818695068e-01" nType="-99"/>
            <Node pos="r" depth="3" NCoef="0" IVar="-1" Cut="0.0000000000000000e+00" cType="1" res="-1.3584566302597523e-02" rms="4.1976863145828247e-01" purity="2.2884084284305573e-01" nType="-99"/>
          </Node>
          <Node pos="r" depth="2" NCoef="0" IVar="5" Cut="9.7933288574218750e+01" cType="1" res="5.4093126207590103e-02" rms="4.9428442120552063e-01" purity="5.5442672967910767e-01" nType="0">
            <Node pos="l" depth="3" NCoef="0" IVar="-1" Cut="0.0000000000000000e+00" cType="1" res="7.5397134060040116e-04" rms="4.8792216181755066e-01" purity="6.0651665925979614e-01" nType="-99"/>
            <Node pos="r" depth="3" NCoef="0" IVar="-1" Cut="0.0000000000000000e+00" cType="1" res="-2.6875026524066925e-03" rms="4.3927595019340515e-01" purity="2.6457706093788147e-01" nType="-99"/>
          </Node>
        </Node>
        <Node pos="r" depth="1" NCoef="0" IVar="0" Cut="7.0861893892288208e-01" cType="1" res="-1.8945525586605072e-01" rms="3.8808551430702209e-01" purity="2.2697192430496216e-01" nType="0">
          <Node pos="l" depth="2" NCoef="0" IVar="5" Cut="3.4361289978027344e+01" cType="1" res="3.0435342341661453e-02" rms="4.7992190718650818e-01" purity="5.0184041261672974e-01" nType="0">
            <Node pos="l" depth="3" NCoef="0" IVar="-1" Cut="0.0000000000000000e+00" cType="1" res="1.5773196937516332e-03" rms="4.1912281513214111e-01" purity="7.5327771902084351e-01" nType="-99"/>
            <Node pos="r" depth="3" NCoef="0" IVar="-1" Cut="0.0000000000000000e+00" cType="1" res="-1.7442097887396812e-03" rms="4.4916710257530212e-01" purity="3.0623504519462585e-01" nType="-99"/>
          </Node>
          <Node pos="r" depth="2" NCoef="0" IVar="5" Cut="2.1556838989257812e+01" cType="1" res="-2.8096678853034973e-01" rms="2.9822599887847900e-01" purity="1.1258032172918320e-01" nType="0">
            <Node pos="l" depth="3" NCoef="0" IVar="-1" Cut="0.0000000000000000e+00" cType="1" res="-1.7374751623719931e-03" rms="4.5660969614982605e-01" purity="3.2511430978775024e-01" nType="-99"/>
            <Node pos="r" depth="3" NCoef="0" IVar="-1" Cut="0.0000000000000000e+00" cType="1" res="-1.3152899220585823e-02" rms="2.4523395299911499e-01" purity="6.9563977420330048e-02" nType="-99"/>
          </Node>
        </Node>
      </Node>
    </BinaryTree>
    <BinaryTree type="DecisionTree" boostWeight="1.0000000000000000e+00" itree="18">
      <Node pos="s" depth="0" NCoef="0" IVar="4" Cut="6.3517990112304688e+01" cType="1" res="4.2087007313966751e-02" rms="4.6196639537811279e-01" purity="5.0519907474517822e-01" nType="0">
        <Node pos="l" depth="1" NCoef="0" IVar="0" Cut="8.5907489061355591e-01" cType="1" res="1.9364567101001740e-01" rms="4.5018601417541504e-01" purity="6.9543522596359253e-01" nType="0">
          <Node pos="l" depth="2" NCoef="0" IVar="5" Cut="1.1547834014892578e+02" cType="1" res="3.4766477346420288e-01" rms="3.4218114614486694e-01" purity="8.6077964305877686e-01" nType="0">
            <Node pos="l" depth="3" NCoef="0" IVar="-1" Cut="0.0000000000000000e+00" cType="1" res="1.9406188512220979e-03" rms="3.2394504547119141e-01" purity="8.7853407859802246e-01" nType="-99"/>
            <Node pos="r" depth="3" NCoef="0" IVar="-1" Cut="0.0000000000000000e+00" cType="1" res="1.1321542115183547e-04" rms="4.9358603358268738e-01" purity="4.9997261166572571e-01" nType="-99"/>
          </Node>
          <Node pos="r" depth="2" NCoef="0" IVar="5" Cut="7.8463386535644531e+01" cType="1" res="3.5907451063394547e-02" rms="4.9105748534202576e-01" purity="5.2609819173812866e-01" nType="0">
            <Node pos="l" depth="3" NCoef="0" IVar="-1" Cut="0.0000000000000000e+00" cType="1" res="6.9645966868847609e-04" rms="4.8396041989326477e-01" purity="6.0600119829177856e-01" nType="-99"/>
            <Node pos="r" depth="3" NCoef="0" IVar="-1" Cut="0.0000000000000000e+00" cType="1" res="-2.4056723341345787e-03" rms="4.5070087909698486e-01" purity="3.0715188384056091e-01" nType="-99"/>
          </Node>
        </Node>
        <Node pos="r" depth="1" NCoef="0" IVar="0" Cut="3.0099347233772278e-01" cType="1" res="-2.2901308536529541e-01" rms="3.4358564019203186e-01" purity="1.6491469740867615e-01" nType="0">
          <Node pos="l" depth="2" NCoef="0" IVar="5" Cut="4.0583980560302734e+01" cType="1" res="3.6531526595354080e-02" rms="4.9206408858299255e-01" purity="5.2124840021133423e-01" nType="0">
            <Node pos="l" depth="3" NCoef="0" IVar="-1" Cut="0.0000000000000000e+00" cType="1" res="1.5180481132119894e-03" rms="4.1841772198677063e-01" purity="7.6130992174148560e-01" nType="-99"/>
            <Node pos="r" depth="3" NCoef="0" IVar="-1" Cut="0.0000000000000000e+00" cType="1" res="-2.6570074260234833e-03" rms="4.5026409626007080e-01" purity="2.8396862745285034e-01" nType="-99"/>
          </Node>
          <Node pos="r" depth="2" NCoef="0" IVar="5" Cut="2.7307746887207031e+01" cType="1" res="-2.7072498202323914e-01" rms="2.9282236099243164e-01" purity="1.0894159972667694e-01" nType="0">
            <Node pos="l" depth="3" NCoef="0" IVar="-1" Cut="0.0000000000000000e+00" cType="1" res="-1.9124939572066069e-03" rms="4.5608270168304443e-01" purity="3.2253000140190125e-01" nType="-99"/>
            <Node pos="r" depth="3" NCoef="0" IVar="-1" Cut="0.0000000000000000e+00" cType="1" res="-1.6605608165264130e-02" rms="2.1330240368843079e-01" purity="5.0111468881368637e-02" nType="-99"/>
          </Node>
        </Node>
      </Node>
    </BinaryTree>
    <BinaryTree type="DecisionTree" boostWeight="1.0000000000000000e+00" itree="19">
      <Node pos="s" depth="0" NCoef="0" IVar="4" Cut="5.6814910888671875e+01" cType="1" res="3.3592782914638519e-02" rms="4.5967128872871399e-01" purity="4.9410080909729004e-01" nType="0">
        <Node pos="l" depth="1" NCoef="0" IVar="0" Cut="7.9638123512268066e-01" cType="1" res="2.0681369304656982e-01" rms="4.4493767619132996e-01" purity="7.1332913637161255e-01" nType="0">
          <Node pos="l" depth="2" NCoef="0" IVar="5" Cut="1.2824536132812500e+02" cType="1" res="3.5950523614883423e-01" rms="3.2798603177070618e-01" purity="8.7557369470596313e-01" nType="0">
            <Node pos="l" depth="3" NCoef="0" IVar="-1" Cut="0.0000000000000000e+00" cType="1" res="1.9974841270595789e-03" rms="3.1328606605529785e-01" purity="8.8894820213317871e-01" nType="-99"/>
            <Node pos="r" depth="3" NCoef="0" IVar="-1" Cut="0.0000000000000000e+00" cType="1" res="-3.2240946311503649e-03" rms="4.8474088311195374e-01" purity="3.8299486041069031e-01" nType="-99"/>
          </Node>
          <Node pos="r" depth="2" NCoef="0" IVar="4" Cut="3.4701347351074219e+01" cType="1" res="5.2962027490139008e-02" rms="4.9182197451591492e-01" purity="5.4985195398330688e-01" nType="0">
            <Node pos="l" depth="3" NCoef="0" IVar="-1" Cut="0.0000000000000000e+00" cType="1" res="9.0070284204557538e-04" rms="4.7810012102127075e-01" purity="6.3722270727157593e-01" nType="-99"/>
            <Node pos="r" depth="3" NCoef="0" IVar="-1" Cut="0.0000000000000000e+00" cType="1" res="-1.0947255650535226e-03" rms="4.7829908132553101e-01" purity="3.7605765461921692e-01" nType="-99"/>
          </Node>
        </Node>
        <Node pos="r" depth="1" NCoef="0" IVar="5" Cut="2.9304401397705078e+01" cType="1" res="-2.1297869086265564e-01" rms="3.5603493452072144e-01" purity="1.8204000592231750e-01" nType="0">
          <Node pos="l" depth="2" NCoef="0" IVar="0" Cut="7.7146655321121216e-01" cType="1" res="-3.1348906457424164e-02" rms="4.7774720191955566e-01" purity="4.3721666932106018e-01" nType="0">
            <Node pos="l" depth="3" NCoef="0" IVar="-1" Cut="0.0000000000000000e+00" cType="1" res="1.4252495020627975e-03" rms="4.5003670454025269e-01" purity="6.8997526168823242e-01" nType="-99"/>
            <Node pos="r" depth="3" NCoef="0" IVar="-1" Cut="0.0000000000000000e+00" cType="1" res="-2.7243914082646370e-03" rms="4.3174913525581360e-01" purity="2.6893058419227600e-01" nType="-99"/>
          </Node>
          <Node pos="r" depth="2" NCoef="0" IVar="1" Cut="5.2046543359756470e-01" cType="1" res="-2.7619877457618713e-01" rms="2.7560597658157349e-01" purity="9.3220375478267670e-02" nType="0">
            <Node pos="l" depth="3" NCoef="0" IVar="-1" Cut="0.0000000000000000e+00" cType="1" res="-3.6216888111084700e-03" rms="4.0676665306091309e-01" purity="2.3406732082366943e-01" nType="-99"/>
            <Node pos="r" depth="3" NCoef="0" IVar="-1" Cut="0.0000000000000000e+00" cType="1" res="-1.9113941118121147e-02" rms="1.9381846487522125e-01" purity="4.1506078094244003e-02" nType="-99"/>
          </Node>
        </Node>
      </Node>
    </BinaryTree>
    <BinaryTree type="DecisionTree" boostWeight="1.0000000000000000e+00" itree="20">
      <Node pos="s" depth="0" NCoef="0" IVar="4" Cut="4.8074882507324219e+01" cType="1" res="4.3731477111577988e-02" rms="4.5812404155731201e-01" purity="5.0275331735610962e-01" nType="0">
        <Node pos="l" depth="1" NCoef="0" IVar="0" Cut="9.4060450792312622e-01" cType="1" res="2.3656871914863586e-01" rms="4.2971029877662659e-01" purity="7.4661993980407715e-01" nType="0">
          <Node pos="l" depth="2" NCoef="0" IVar="5" Cut="1.3657975769042969e+02" cType="1" res="3.6637222766876221e-01" rms="3.1879636645317078e-01" purity="8.8396680355072021e-01" nType="0">
            <Node pos="l" depth="3" NCoef="0" IVar="-1" Cut="0.0000000000000000e+00" cType="1" res="1.9078638870269060e-03" rms="3.0652016401290894e-01" purity="8.9472329616546631e-01" nType="-99"/>
            <Node pos="r" depth="3" NCoef="0" IVar="-1" Cut="0.0000000000000000e+00" cType="1" res="-3.3321182709187269e-03" rms="4.8104143142700195e-01" purity="3.6694905161857605e-01" nType="-99"/>
          </Node>
          <Node pos="r" depth="2" NCoef="0" IVar="5" Cut="1.1569495391845703e+02" cType="1" res="6.9585040211677551e-02" rms="4.9182501435279846e-01" purity="5.6993228197097778e-01" nType="0">
            <Node pos="l" depth="3" NCoef="0" IVar="-1" Cut="0.0000000000000000e+00" cType="1" res="7.0681254146620631e-04" rms="4.8645842075347900e-01" purity="6.1023080348968506e-01" nType="-99"/>
            <Node pos="r" depth="3" NCoef="0" IVar="-1" Cut="0.0000000000000000e+00" cType="1" res="-5.6462557986378670e-03" rms="3.6472290754318237e-01" purity="1.5849532186985016e-01" nType="-99"/>
          </Node>
        </Node>
        <Node pos="r" depth="1" NCoef="0" IVar="0" Cut="5.3301256895065308e-01" cType="1" res="-1.6757224500179291e-01" rms="3.9003029465675354e-01" purity="2.3553350567817688e-01" nType="0">
          <Node pos="l" depth="2" NCoef="0" IVar="5" Cut="5.3104133605957031e+01" cType="1" res="6.9549582898616791e-02" rms="4.8105698823928833e-01" purity="5.4609787464141846e-01" nType="0">
            <Node pos="l" depth="3" NCoef="0" IVar="-1" Cut="0.0000000000000000e+00" cType="1" res="1.3222668785601854e-03" rms="4.3473291397094727e-01" purity="7.2452372312545776e-01" nType="-99"/>
            <Node pos="r" depth="3" NCoef="0" IVar="-1" Cut="0.0000000000000000e+00" cType="1" res="-2.0397391635924578e-03" rms="4.4949856400489807e-01" purity="2.9872030019760132e-01" nType="-99"/>
          </Node>
          <Node pos="r" depth="2" NCoef="0" IVar="5" Cut="4.4554508209228516e+01" cType="1" res="-2.3822799324989319e-01" rms="3.2672691345214844e-01" purity="1.4299388229846954e-01" nType="0">
            <Node pos="l" depth="3" NCoef="0" IVar="-1" Cut="0.0000000000000000e+00" cType="1" res="-1.7494842177256942e-03" rms="4.3836849927902222e-01" purity="3.0068492889404297e-01" nType="-99"/>
            <Node pos="r" depth="3" NCoef="0" IVar="-1" Cut="0.0000000000000000e+00" cType="1" res="-1.3800523243844509e-02" rms="2.2682443261146545e-01" purity="5.7411298155784607e-02" nType="-99"/>
          </Node>
        </Node>
      </Node>
    </BinaryTree>
    <BinaryTree type="DecisionTree" boostWeight="1.0000000000000000e+00" itree="21">
      <Node pos="s" depth="0" NCoef="0" IVar="4" Cut="4.8074405670166016e+01" cType="1" res="4.5956164598464966e-02" rms="4.5687517523765564e-01" purity="5.0422900915145874e-01" nType="0">
        <Node pos="l" depth="1" NCoef="0" IVar="0" Cut="9.4686162471771240e-01" cType="1" res="2.3700723052024841e-01" rms="4.2880776524543762e-01" purity="7.4772977828979492e-01" nType="0">
          <Node pos="l" depth="2" NCoef="0" IVar="5" Cut="1.2892915344238281e+02" cType="1" res="3.6441427469253540e-01" rms="3.1981021165847778e-01" purity="8.8299673795700073e-01" nType="0">
            <Node pos="l" depth="3" NCoef="0" IVar="-1" Cut="0.0000000000000000e+00" cType="1" res="1.9269633339717984e-03" rms="3.0556899309158325e-01" purity="8.9549863338470459e-01" nType="-99"/>
            <Node pos="r" depth="3" NCoef="0" IVar="-1" Cut="0.0000000000000000e+00" cType="1" res="-8.5259386105462909e-04" rms="4.9208167195320129e-01" purity="4.1873797774314880e-01" nType="-99"/>
          </Node>
          <Node pos="r" depth="2" NCoef="0" IVar="5" Cut="1.1273293304443359e+02" cType="1" res="7.4524372816085815e-02" rms="4.9075013399124146e-01" purity="5.7522332668304443e-01" nType="0">
            <Node pos="l" depth="3" NCoef="0" IVar="-1" Cut="0.0000000000000000e+00" cType="1" res="7.2466925485059619e-04" rms="4.8477771878242493e-01" purity="6.1728233098983765e-01" nType="-99"/>
            <Node pos="r" depth="3" NCoef="0" IVar="-1" Cut="0.0000000000000000e+00" cType="1" res="-8.4926960989832878e-03" rms="3.6402529478073120e-01" purity="1.5794093906879425e-01" nType="-99"/>
          </Node>
        </Node>
        <Node pos="r" depth="1" NCoef="0" IVar="0" Cut="5.5181372165679932e-01" cType="1" res="-1.6731661558151245e-01" rms="3.8762593269348145e-01" purity="2.3240588605403900e-01" nType="0">
          <Node pos="l" depth="2" NCoef="0" IVar="4" Cut="8.7777389526367188e+01" cType="1" res="5.2743613719940186e-02" rms="4.7924271225929260e-01" purity="5.2865225076675415e-01" nType="0">
            <Node pos="l" depth="3" NCoef="0" IVar="-1" Cut="0.0000000000000000e+00" cType="1" res="1.3046710519120097e-03" rms="4.4889655709266663e-01" purity="6.8726676702499390e-01" nType="-99"/>
            <Node pos="r" depth="3" NCoef="0" IVar="-1" Cut="0.0000000000000000e+00" cType="1" res="-7.8413682058453560e-03" rms="3.8728499412536621e-01" purity="1.9608046114444733e-01" nType="-99"/>
          </Node>
          <Node pos="r" depth="2" NCoef="0" IVar="5" Cut="4.4554477691650391e+01" cType="1" res="-2.3546652495861053e-01" rms="3.2560265064239502e-01" purity="1.4066213369369507e-01" nType="0">
            <Node pos="l" depth="3" NCoef="0" IVar="-1" Cut="0.0000000000000000e+00" cType="1" res="-2.0189166534692049e-03" rms="4.3614396452903748e-01" purity="2.9101321101188660e-01" nType="-99"/>
            <Node pos="r" depth="3" NCoef="0" IVar="-1" Cut="0.0000000000000000e+00" cType="1" res="-1.4604107476770878e-02" rms="2.2997681796550751e-01" purity="5.8894332498311996e-02" nType="-99"/>
          </Node>
        </Node>
      </Node>
    </BinaryTree>
    <BinaryTree type="DecisionTree" boostWeight="1.0000000000000000e+00" itree="22">
      <Node pos="s" depth="0" NCoef="0" IVar="4" Cut="4.8170780181884766e+01" cType="1" res="4.2327865958213806e-02" rms="4.5521864295005798e-01" purity="4.9903017282485962e-01" nType="0">
        <Node pos="l" depth="1" NCoef="0" IVar="0" Cut="9.2178761959075928e-01" cType="1" res="2.3168772459030151e-01" rms="4.3116223812103271e-01" purity="7.4286413192749023e-01" nType="0">
          <Node pos="l" depth="2" NCoef="0" IVar="5" Cut="1.3197648620605469e+02" cType="1" res="3.6501863598823547e-01" rms="3.1799402832984924e-01" purity="8.8455998897552490e-01" nType="0">
            <Node pos="l" depth="3" NCoef="0" IVar="-1" Cut="0.0000000000000000e+00" cType="1" res="1.9549003336578608e-03" rms="3.0519619584083557e-01" purity="8.9579743146896362e-01" nType="-99"/>
            <Node pos="r" depth="3" NCoef="0" IVar="-1" Cut="0.0000000000000000e+00" cType="1" res="-2.6454427279531956e-03" rms="4.8651498556137085e-01" purity="3.8869172334671021e-01" nType="-99"/>
          </Node>
          <Node pos="r" depth="2" NCoef="0" IVar="5" Cut="1.0002080535888672e+02" cType="1" res="6.4073681831359863e-02" rms="4.9197402596473694e-01" purity="5.6473422050476074e-01" nType="0">
            <Node pos="l" depth="3" NCoef="0" IVar="-1" Cut="0.0000000000000000e+00" cType="1" res="7.1490241680294275e-04" rms="4.8545092344284058e-01" purity="6.1611682176589966e-01" nType="-99"/>
            <Node pos="r" depth="3" NCoef="0" IVar="-1" Cut="0.0000000000000000e+00" cType="1" res="-3.4655926283448935e-03" rms="4.2666533589363098e-01" purity="2.4454896152019501e-01" nType="-99"/>
          </Node>
        </Node>
        <Node pos="r" depth="1" NCoef="0" IVar="0" Cut="7.9010224342346191e-01" cType="1" res="-1.6736337542533875e-01" rms="3.8361319899559021e-01" purity="2.2901599109172821e-01" nType="0">
          <Node pos="l" depth="2" NCoef="0" IVar="5" Cut="3.4385272979736328e+01" cType="1" res="9.7052315250039101e-03" rms="4.7100898623466492e-01" purity="4.6755859255790710e-01" nType="0">
            <Node pos="l" depth="3" NCoef="0" IVar="-1" Cut="0.0000000000000000e+00" cType="1" res="1.5749142039567232e-03" rms="4.3287223577499390e-01" purity="7.2286838293075562e-01" nType="-99"/>
            <Node pos="r" depth="3" NCoef="0" IVar="-1" Cut="0.0000000000000000e+00" cType="1" res="-1.9434009445831180e-03" rms="4.3392685055732727e-01" purity="2.8693366050720215e-01" nType="-99"/>
          </Node>
          <Node pos="r" depth="2" NCoef="0" IVar="5" Cut="1.7162672042846680e+01" cType="1" res="-2.4874854087829590e-01" rms="3.0297723412513733e-01" purity="1.1937583237886429e-01" nType="0">
            <Node pos="l" depth="3" NCoef="0" IVar="-1" Cut="0.0000000000000000e+00" cType="1" res="-7.9671118874102831e-04" rms="4.7782540321350098e-01" purity="3.8625076413154602e-01" nType="-99"/>
            <Node pos="r" depth="3" NCoef="0" IVar="-1" Cut="0.0000000000000000e+00" cType="1" res="-1.1655051261186600e-02" rms="2.4831801652908325e-01" purity="7.2005443274974823e-02" nType="-99"/>
          </Node>
        </Node>
      </Node>
    </BinaryTree>
    <BinaryTree type="DecisionTree" boostWeight="1.0000000000000000e+00" itree="23">
      <Node pos="s" depth="0" NCoef="0" IVar="4" Cut="4.8074317932128906e+01" cType="1" res="3.9825536310672760e-02" rms="4.5473536849021912e-01" purity="4.9378001689910889e-01" nType="0">
        <Node pos="l" depth="1" NCoef="0" IVar="0" Cut="8.7788671255111694e-01" cType="1" res="2.2257965803146362e-01" rms="4.3578103184700012e-01" purity="7.3388361930847168e-01" nType="0">
          <Node pos="l" depth="2" NCoef="0" IVar="5" Cut="1.2824540710449219e+02" cType="1" res="3.5935336351394653e-01" rms="3.2365158200263977e-01" purity="8.7979954481124878e-01" nType="0">
            <Node pos="l" depth="3" NCoef="0" IVar="-1" Cut="0.0000000000000000e+00" cType="1" res="1.9938612822443247e-03" rms="3.1007459759712219e-01" purity="8.9207923412322998e-01" nType="-99"/>
            <Node pos="r" depth="3" NCoef="0" IVar="-1" Cut="0.0000000000000000e+00" cType="1" res="1.2605456868186593e-04" rms="4.9848973751068115e-01" purity="4.9646091461181641e-01" nType="-99"/>
          </Node>
          <Node pos="r" depth="2" NCoef="0" IVar="5" Cut="1.0367938232421875e+02" cType="1" res="6.6518023610115051e-02" rms="4.9129226803779602e-01" purity="5.6739056110382080e-01" nType="0">
            <Node pos="l" depth="3" NCoef="0" IVar="-1" Cut="0.0000000000000000e+00" cType="1" res="7.1710470365360379e-04" rms="4.8471105098724365e-01" purity="6.1831879615783691e-01" nType="-99"/>
            <Node pos="r" depth="3" NCoef="0" IVar="-1" Cut="0.0000000000000000e+00" cType="1" res="-4.0282397530972958e-03" rms="4.0283092856407166e-01" purity="2.0575074851512909e-01" nType="-99"/>
          </Node>
        </Node>
        <Node pos="r" depth="1" NCoef="0" IVar="0" Cut="6.1452591419219971e-01" cType="1" res="-1.5394367277622223e-01" rms="3.8951522111892700e-01" purity="2.3920473456382751e-01" nType="0">
          <Node pos="l" depth="2" NCoef="0" IVar="5" Cut="4.5482101440429688e+01" cType="1" res="5.1362879574298859e-02" rms="4.7948959469795227e-01" purity="5.1943826675415039e-01" nType="0">
            <Node pos="l" depth="3" NCoef="0" IVar="-1" Cut="0.0000000000000000e+00" cType="1" res="1.2897223932668567e-03" rms="4.3375656008720398e-01" purity="7.2452020645141602e-01" nType="-99"/>
            <Node pos="r" depth="3" NCoef="0" IVar="-1" Cut="0.0000000000000000e+00" cType="1" res="-2.0234750118106604e-03" rms="4.4799366593360901e-01" purity="3.0034852027893066e-01" nType="-99"/>
          </Node>
          <Node pos="r" depth="2" NCoef="0" IVar="5" Cut="5.1984874725341797e+01" cType="1" res="-2.2486642003059387e-01" rms="3.2422405481338501e-01" purity="1.4239859580993652e-01" nType="0">
            <Node pos="l" depth="3" NCoef="0" IVar="-1" Cut="0.0000000000000000e+00" cType="1" res="-1.7888461006805301e-03" rms="4.2894300818443298e-01" purity="2.8346204757690430e-01" nType="-99"/>
            <Node pos="r" depth="3" NCoef="0" IVar="-1" Cut="0.0000000000000000e+00" cType="1" res="-1.9876811653375626e-02" rms="1.9308418035507202e-01" purity="3.9959032088518143e-02" nType="-99"/>
          </Node>
        </Node>
      </Node>
    </BinaryTree>
    <BinaryTree type="DecisionTree" boostWeight="1.0000000000000000e+00" itree="24">
      <Node pos="s" depth="0" NCoef="0" IVar="4" Cut="4.8075687408447266e+01" cType="1" res="4.2788542807102203e-02" rms="4.5210048556327820e-01" purity="4.9635165929794312e-01" nType="0">
        <Node pos="l" depth="1" NCoef="0" IVar="0" Cut="8.0265086889266968e-01" cType="1" res="2.2762461006641388e-01" rms="4.3235674500465393e-01" purity="7.3979574441909790e-01" nType="0">
          <Node pos="l" depth="2" NCoef="0" IVar="5" Cut="1.3081010437011719e+02" cType="1" res="3.6669635772705078e-01" rms="3.1310608983039856e-01" purity="8.8865172863006592e-01" nType="0">
            <Node pos="l" depth="3" NCoef="0" IVar="-1" Cut="0.0000000000000000e+00" cType="1" res="1.9402294419705868e-03" rms="3.0023217201232910e-01" purity="8.9973115921020508e-01" nType="-99"/>
            <Node pos="r" depth="3" NCoef="0" IVar="-1" Cut="0.0000000000000000e+00" cType="1" res="-3.1822314485907555e-03" rms="4.7976273298263550e-01" purity="3.6228311061859131e-01" nType="-99"/>
          </Node>
          <Node pos="r" depth="2" NCoef="0" IVar="5" Cut="1.2318959045410156e+02" cType="1" res="7.7856220304965973e-02" rms="4.8929300904273987e-01" purity="5.7949060201644897e-01" nType="0">
            <Node pos="l" depth="3" NCoef="0" IVar="-1" Cut="0.0000000000000000e+00" cType="1" res="7.8533584019169211e-04" rms="4.8463311791419983e-01" purity="6.1586159467697144e-01" nType="-99"/>
            <Node pos="r" depth="3" NCoef="0" IVar="-1" Cut="0.0000000000000000e+00" cType="1" res="-2.3654008284211159e-02" rms="2.6569205522537231e-01" purity="7.6289437711238861e-02" nType="-99"/>
          </Node>
        </Node>
        <Node pos="r" depth="1" NCoef="0" IVar="0" Cut="7.2113138437271118e-01" cType="1" res="-1.6055002808570862e-01" rms="3.8036105036735535e-01" purity="2.2853830456733704e-01" nType="0">
          <Node pos="l" depth="2" NCoef="0" IVar="5" Cut="4.6899692535400391e+01" cType="1" res="2.8542850166559219e-02" rms="4.7384858131408691e-01" purity="4.8998177051544189e-01" nType="0">
            <Node pos="l" depth="3" NCoef="0" IVar="-1" Cut="0.0000000000000000e+00" cType="1" res="1.3741393340751529e-03" rms="4.3993699550628662e-01" purity="7.0195931196212769e-01" nType="-99"/>
            <Node pos="r" depth="3" NCoef="0" IVar="-1" Cut="0.0000000000000000e+00" cType="1" res="-2.9988228343427181e-03" rms="4.2522269487380981e-01" purity="2.5683519244194031e-01" nType="-99"/>
          </Node>
          <Node pos="r" depth="2" NCoef="0" IVar="5" Cut="2.1977802276611328e+01" cType="1" res="-2.3996345698833466e-01" rms="2.9968902468681335e-01" purity="1.1873974651098251e-01" nType="0">
            <Node pos="l" depth="3" NCoef="0" IVar="-1" Cut="0.0000000000000000e+00" cType="1" res="-1.2767720036208630e-03" rms="4.6324709057807922e-01" purity="3.4616136550903320e-01" nType="-99"/>
            <Node pos="r" depth="3" NCoef="0" IVar="-1" Cut="0.0000000000000000e+00" cType="1" res="-1.2425155378878117e-02" rms="2.4293689429759979e-01" purity="6.9929227232933044e-02" nType="-99"/>
          </Node>
        </Node>
      </Node>
    </BinaryTree>
    <BinaryTree type="DecisionTree" boostWeight="1.0000000000000000e+00" itree="25">
      <Node pos="s" depth="0" NCoef="0" IVar="4" Cut="4.7639759063720703e+01" cType="1" res="4.6953383833169937e-02" rms="4.5042923092842102e-01" purity="4.9908003211021423e-01" nType="0">
        <Node pos="l" depth="1" NCoef="0" IVar="0" Cut="9.4059801101684570e-01" cType="1" res="2.3004028201103210e-01" rms="4.2981964349746704e-01" purity="7.4278104305267334e-01" nType="0">
          <Node pos="l" depth="2" NCoef="0" IVar="5" Cut="1.1443458557128906e+02" cType="1" res="3.6075714230537415e-01" rms="3.1953972578048706e-01" purity="8.8288104534149170e-01" nType="0">
            <Node pos="l" depth="3" NCoef="0" IVar="-1" Cut="0.0000000000000000e+00" cType="1" res="1.8676177132874727e-03" rms="3.0046632885932922e-01" purity="8.9942306280136108e-01" nType="-99"/>
            <Node pos="r" depth="3" NCoef="0" IVar="-1" Cut="0.0000000000000000e+00" cType="1" res="4.2322644731029868e-04" rms="4.9385899305343628e-01" purity="5.3123444318771362e-01" nType="-99"/>
          </Node>
          <Node pos="r" depth="2" NCoef="0" IVar="5" Cut="1.0086701965332031e+02" cType="1" res="5.6034881621599197e-02" rms="4.9165832996368408e-01" purity="5.5628508329391479e-01" nType="0">
            <Node pos="l" depth="3" NCoef="0" IVar="-1" Cut="0.0000000000000000e+00" cType="1" res="7.1492715505883098e-04" rms="4.8651522397994995e-01" purity="6.1121094226837158e-01" nType="-99"/>
            <Node pos="r" depth="3" NCoef="0" IVar="-1" Cut="0.0000000000000000e+00" cType="1" res="-6.6228928044438362e-03" rms="3.9427459239959717e-01" purity="1.9668066501617432e-01" nType="-99"/>
          </Node>
        </Node>
        <Node pos="r" depth="1" NCoef="0" IVar="5" Cut="2.9306161880493164e+01" cType="1" res="-1.5288029611110687e-01" rms="3.8231799006462097e-01" purity="2.3308791220188141e-01" nType="0">
          <Node pos="l" depth="2" NCoef="0" IVar="4" Cut="1.1246990966796875e+02" cType="1" res="4.7114878892898560e-02" rms="4.7928923368453979e-01" purity="5.1830667257308960e-01" nType="0">
            <Node pos="l" depth="3" NCoef="0" IVar="-1" Cut="0.0000000000000000e+00" cType="1" res="1.0000489419326186e-03" rms="4.7434920072555542e-01" purity="6.1308360099792480e-01" nType="-99"/>
            <Node pos="r" depth="3" NCoef="0" IVar="-1" Cut="0.0000000000000000e+00" cType="1" res="-1.8133994191884995e-02" rms="2.6595985889434814e-01" purity="7.9244077205657959e-02" nType="-99"/>
          </Node>
          <Node pos="r" depth="2" NCoef="0" IVar="4" Cut="7.2207580566406250e+01" cType="1" res="-2.3131898045539856e-01" rms="3.0258560180664062e-01" purity="1.2122430652379990e-01" nType="0">
            <Node pos="l" depth="3" NCoef="0" IVar="-1" Cut="0.0000000000000000e+00" cType="1" res="-1.9753864035010338e-03" rms="4.1441410779953003e-01" purity="2.5936090946197510e-01" nType="-99"/>
            <Node pos="r" depth="3" NCoef="0" IVar="-1" Cut="0.0000000000000000e+00" cType="1" res="-1.9374761730432510e-02" rms="2.1789941191673279e-01" purity="5.5032294243574142e-02" nType="-99"/>
          </Node>
        </Node>
      </Node>
    </BinaryTree>
    <BinaryTree type="DecisionTree" boostWeight="1.0000000000000000e+00" itree="26">
      <Node pos="s" depth="0" NCoef="0" IVar="4" Cut="4.8170223236083984e+01" cType="1" res="4.8861332237720490e-02" rms="4.4972580671310425e-01" purity="4.9840572476387024e-01" nType="0">
        <Node pos="l" depth="1" NCoef="0" IVar="0" Cut="9.2805057764053345e-01" cType="1" res="2.2445780038833618e-01" rms="4.3270227313041687e-01" purity="7.3725444078445435e-01" nType="0">
          <Node pos="l" depth="2" NCoef="0" IVar="5" Cut="1.4159648132324219e+02" cType="1" res="3.5645017027854919e-01" rms="3.2399079203605652e-01" purity="8.7925684452056885e-01" nType="0">
            <Node pos="l" depth="3" NCoef="0" IVar="-1" Cut="0.0000000000000000e+00" cType="1" res="1.8491111695766449e-03" rms="3.1309521198272705e-01" purity="8.8945007324218750e-01" nType="-99"/>
            <Node pos="r" depth="3" NCoef="0" IVar="-1" Cut="0.0000000000000000e+00" cType="1" res="-2.7723577804863453e-03" rms="4.7738486528396606e-01" purity="3.5611289739608765e-01" nType="-99"/>
          </Node>
          <Node pos="r" depth="2" NCoef="0" IVar="5" Cut="1.1717819976806641e+02" cType="1" res="6.0387857258319855e-02" rms="4.9082496762275696e-01" purity="5.6074178218841553e-01" nType="0">
            <Node pos="l" depth="3" NCoef="0" IVar="-1" Cut="0.0000000000000000e+00" cType="1" res="6.7813752684742212e-04" rms="4.8809421062469482e-01" purity="6.0095286369323730e-01" nType="-99"/>
            <Node pos="r" depth="3" NCoef="0" IVar="-1" Cut="0.0000000000000000e+00" cType="1" res="-2.1444244310259819e-02" rms="2.8594222664833069e-01" purity="9.0951181948184967e-02" nType="-99"/>
          </Node>
        </Node>
        <Node pos="r" depth="1" NCoef="0" IVar="0" Cut="4.8914656043052673e-01" cType="1" res="-1.3815586268901825e-01" rms="3.8786262273788452e-01" purity="2.4402236938476562e-01" nType="0">
          <Node pos="l" depth="2" NCoef="0" IVar="4" Cut="8.8747627258300781e+01" cType="1" res="9.9994555115699768e-02" rms="4.7631821036338806e-01" purity="5.7428508996963501e-01" nType="0">
            <Node pos="l" depth="3" NCoef="0" IVar="-1" Cut="0.0000000000000000e+00" cType="1" res="1.2653028825297952e-03" rms="4.4182828068733215e-01" purity="7.0713704824447632e-01" nType="-99"/>
            <Node pos="r" depth="3" NCoef="0" IVar="-1" Cut="0.0000000000000000e+00" cType="1" res="-1.6903043724596500e-03" rms="4.4569265842437744e-01" purity="2.8296780586242676e-01" nType="-99"/>
          </Node>
          <Node pos="r" depth="2" NCoef="0" IVar="4" Cut="7.0813339233398438e+01" cType="1" res="-2.0737931132316589e-01" rms="3.2701766490936279e-01" purity="1.4802451431751251e-01" nType="0">
            <Node pos="l" depth="3" NCoef="0" IVar="-1" Cut="0.0000000000000000e+00" cType="1" res="-1.2441524304449558e-03" rms="4.4015502929687500e-01" purity="3.1302523612976074e-01" nType="-99"/>
            <Node pos="r" depth="3" NCoef="0" IVar="-1" Cut="0.0000000000000000e+00" cType="1" res="-1.2580351904034615e-02" rms="2.4313814938068390e-01" purity="7.2112888097763062e-02" nType="-99"/>
          </Node>
        </Node>
      </Node>
    </BinaryTree>
    <BinaryTree type="DecisionTree" boostWeight="1.0000000000000000e+00" itree="27">
      <Node pos="s" depth="0" NCoef="0" IVar="4" Cut="5.3594028472900391e+01" cType="1" res="4.8300106078386307e-02" rms="4.4701084494590759e-01" purity="4.9688082933425903e-01" nType="0">
        <Node pos="l" depth="1" NCoef="0" IVar="0" Cut="8.5280400514602661e-01" cType="1" res="2.1246363222599030e-01" rms="4.3755942583084106e-01" purity="7.2282493114471436e-01" nType="0">
          <Node pos="l" depth="2" NCoef="0" IVar="5" Cut="1.5117829895019531e+02" cType="1" res="3.5522961616516113e-01" rms="3.2419213652610779e-01" purity="8.7847495079040527e-01" nType="0">
            <Node pos="l" depth="3" NCoef="0" IVar="-1" Cut="0.0000000000000000e+00" cType="1" res="1.9219907699152827e-03" rms="3.1605866551399231e-01" purity="8.8619959354400635e-01" nType="-99"/>
            <Node pos="r" depth="3" NCoef="0" IVar="-1" Cut="0.0000000000000000e+00" cType="1" res="-9.0559208765625954e-03" rms="4.5248332619667053e-01" purity="2.8977149724960327e-01" nType="-99"/>
          </Node>
          <Node pos="r" depth="2" NCoef="0" IVar="5" Cut="1.0608760833740234e+02" cType="1" res="5.2717596292495728e-02" rms="4.8965489864349365e-01" purity="5.4866254329681396e-01" nType="0">
            <Node pos="l" depth="3" NCoef="0" IVar="-1" Cut="0.0000000000000000e+00" cType="1" res="6.6450971644371748e-04" rms="4.8715022206306458e-01" purity="5.9743463993072510e-01" nType="-99"/>
            <Node pos="r" depth="3" NCoef="0" IVar="-1" Cut="0.0000000000000000e+00" cType="1" res="-5.9090955182909966e-03" rms="3.8224434852600098e-01" purity="1.8562707304954529e-01" nType="-99"/>
          </Node>
        </Node>
        <Node pos="r" depth="1" NCoef="0" IVar="0" Cut="5.7690799236297607e-01" cType="1" res="-1.6381081938743591e-01" rms="3.6167538166046143e-01" purity="2.0494504272937775e-01" nType="0">
          <Node pos="l" depth="2" NCoef="0" IVar="5" Cut="5.8588592529296875e+01" cType="1" res="3.7541072815656662e-02" rms="4.7847479581832886e-01" purity="4.9863117933273315e-01" nType="0">
            <Node pos="l" depth="3" NCoef="0" IVar="-1" Cut="0.0000000000000000e+00" cType="1" res="1.1437220964580774e-03" rms="4.5496919751167297e-01" purity="6.6689860820770264e-01" nType="-99"/>
            <Node pos="r" depth="3" NCoef="0" IVar="-1" Cut="0.0000000000000000e+00" cType="1" res="-4.7083403915166855e-03" rms="4.1872766613960266e-01" purity="2.3916321992874146e-01" nType="-99"/>
          </Node>
          <Node pos="r" depth="2" NCoef="0" IVar="5" Cut="1.4268968582153320e+01" cType="1" res="-2.2727166116237640e-01" rms="2.8822931647300720e-01" purity="1.1238286644220352e-01" nType="0">
            <Node pos="l" depth="3" NCoef="0" IVar="-1" Cut="0.0000000000000000e+00" cType="1" res="-3.6289606941863894e-04" rms="4.7863399982452393e-01" purity="4.1861203312873840e-01" nType="-99"/>
            <Node pos="r" depth="3" NCoef="0" IVar="-1" Cut="0.0000000000000000e+00" cType="1" res="-1.1938364244997501e-02" rms="2.3901923000812531e-01" purity="6.9607026875019073e-02" nType="-99"/>
          </Node>
        </Node>
      </Node>
    </BinaryTree>
    <BinaryTree type="DecisionTree" boostWeight="1.0000000000000000e+00" itree="28">
      <Node pos="s" depth="0" NCoef="0" IVar="4" Cut="6.3204376220703125e+01" cType="1" res="5.3947642445564270e-02" rms="4.4663962721824646e-01" purity="5.0167626142501831e-01" nType="0">
        <Node pos="l" depth="1" NCoef="0" IVar="0" Cut="7.9011076688766479e-01" cType="1" res="1.9327358901500702e-01" rms="4.4390848278999329e-01" purity="6.9619655609130859e-01" nType="0">
          <Node pos="l" depth="2" NCoef="0" IVar="5" Cut="1.1547696685791016e+02" cType="1" res="3.4289392828941345e-01" rms="3.3673402667045593e-01" purity="8.6430358886718750e-01" nType="0">
            <Node pos="l" depth="3" NCoef="0" IVar="-1" Cut="0.0000000000000000e+00" cType="1" res="1.8515487900003791e-03" rms="3.1964439153671265e-01" purity="8.8122707605361938e-01" nType="-99"/>
            <Node pos="r" depth="3" NCoef="0" IVar="-1" Cut="0.0000000000000000e+00" cType="1" res="4.2583476169966161e-04" rms="4.9105125665664673e-01" purity="5.1504123210906982e-01" nType="-99"/>
          </Node>
          <Node pos="r" depth="2" NCoef="0" IVar="4" Cut="3.5324020385742188e+01" cType="1" res="4.8800114542245865e-02" rms="4.8513182997703552e-01" purity="5.3387236595153809e-01" nType="0">
            <Node pos="l" depth="3" NCoef="0" IVar="-1" Cut="0.0000000000000000e+00" cType="1" res="8.5712538566440344e-04" rms="4.7424075007438660e-01" purity="6.4084059000015259e-01" nType="-99"/>
            <Node pos="r" depth="3" NCoef="0" IVar="-1" Cut="0.0000000000000000e+00" cType="1" res="-1.0205274447798729e-03" rms="4.6667936444282532e-01" purity="3.5651442408561707e-01" nType="-99"/>
          </Node>
        </Node>
        <Node pos="r" depth="1" NCoef="0" IVar="4" Cut="9.0929000854492188e+01" cType="1" res="-1.9013985991477966e-01" rms="3.3190599083900452e-01" purity="1.6089288890361786e-01" nType="0">
          <Node pos="l" depth="2" NCoef="0" IVar="5" Cut="2.8112575531005859e+01" cType="1" res="-9.9352389574050903e-02" rms="4.0012410283088684e-01" purity="2.7292931079864502e-01" nType="0">
            <Node pos="l" depth="3" NCoef="0" IVar="-1" Cut="0.0000000000000000e+00" cType="1" res="9.4250979600474238e-04" rms="4.7865501046180725e-01" purity="5.9461492300033569e-01" nType="-99"/>
            <Node pos="r" depth="3" NCoef="0" IVar="-1" Cut="0.0000000000000000e+00" cType="1" res="-4.7659217379987240e-03" rms="3.2591578364372253e-01" purity="1.4283794164657593e-01" nType="-99"/>
          </Node>
          <Node pos="r" depth="2" NCoef="0" IVar="1" Cut="1.6305214166641235e-01" cType="1" res="-2.6702257990837097e-01" rms="2.3448076844215393e-01" purity="6.6015616059303284e-02" nType="0">
            <Node pos="l" depth="3" NCoef="0" IVar="-1" Cut="0.0000000000000000e+00" cType="1" res="-4.1290079243481159e-03" rms="3.9374485611915588e-01" purity="2.1947738528251648e-01" nType="-99"/>
            <Node pos="r" depth="3" NCoef="0" IVar="-1" Cut="0.0000000000000000e+00" cType="1" res="-1.9973738119006157e-02" rms="2.0700715482234955e-01" purity="4.9477349966764450e-02" nType="-99"/>
          </Node>
        </Node>
      </Node>
    </BinaryTree>
    <BinaryTree type="DecisionTree" boostWeight="1.0000000000000000e+00" itree="29">
      <Node pos="s" depth="0" NCoef="0" IVar="4" Cut="3.9699138641357422e+01" cType="1" res="5.1073018461465836e-02" rms="4.4427058100700378e-01" purity="4.9689060449600220e-01" nType="0">
        <Node pos="l" depth="1" NCoef="0" IVar="0" Cut="1.1726058721542358e+00" cType="1" res="2.5521352887153625e-01" rms="4.1305378079414368e-01" purity="7.7025473117828369e-01" nType="0">
          <Node pos="l" depth="2" NCoef="0" IVar="5" Cut="1.5396888732910156e+02" cType="1" res="3.5747173428535461e-01" rms="3.2083421945571899e-01" purity="8.8089609146118164e-01" nType="0">
            <Node pos="l" depth="3" NCoef="0" IVar="-1" Cut="0.0000000000000000e+00" cType="1" res="1.8519398290663958e-03" rms="3.1310692429542542e-01" purity="8.8836163282394409e-01" nType="-99"/>
            <Node pos="r" depth="3" NCoef="0" IVar="-1" Cut="0.0000000000000000e+00" cType="1" res="-9.4134630635380745e-03" rms="4.2401033639907837e-01" purity="2.3968519270420074e-01" nType="-99"/>
          </Node>
          <Node pos="r" depth="2" NCoef="0" IVar="5" Cut="1.0086784362792969e+02" cType="1" res="7.4369527399539948e-02" rms="4.8898503184318542e-01" purity="5.7458513975143433e-01" nType="0">
            <Node pos="l" depth="3" NCoef="0" IVar="-1" Cut="0.0000000000000000e+00" cType="1" res="7.7216932550072670e-04" rms="4.8387363553047180e-01" purity="6.2425857782363892e-01" nType="-99"/>
            <Node pos="r" depth="3" NCoef="0" IVar="-1" Cut="0.0000000000000000e+00" cType="1" res="-2.7720080688595772e-03" rms="4.3622803688049316e-01" purity="2.6261565089225769e-01" nType="-99"/>
          </Node>
        </Node>
        <Node pos="r" depth="1" NCoef="0" IVar="0" Cut="6.1451739072799683e-01" cType="1" res="-1.2473624199628830e-01" rms="3.9195194840431213e-01" purity="2.6146480441093445e-01" nType="0">
          <Node pos="l" depth="2" NCoef="0" IVar="5" Cut="5.7430488586425781e+01" cType="1" res="9.0153589844703674e-02" rms="4.6727114915847778e-01" purity="5.6232476234436035e-01" nType="0">
            <Node pos="l" depth="3" NCoef="0" IVar="-1" Cut="0.0000000000000000e+00" cType="1" res="1.4194489922374487e-03" rms="4.2631942033767700e-01" purity="7.2690021991729736e-01" nType="-99"/>
            <Node pos="r" depth="3" NCoef="0" IVar="-1" Cut="0.0000000000000000e+00" cType="1" res="-2.9396414756774902e-03" rms="4.2711895704269409e-01" purity="2.7658009529113770e-01" nType="-99"/>
          </Node>
          <Node pos="r" depth="2" NCoef="0" IVar="5" Cut="3.7365795135498047e+01" cType="1" res="-2.0631785690784454e-01" rms="3.2383742928504944e-01" purity="1.4724513888359070e-01" nType="0">
            <Node pos="l" depth="3" NCoef="0" IVar="-1" Cut="0.0000000000000000e+00" cType="1" res="-1.2216557515785098e-03" rms="4.4705876708030701e-01" purity="3.2902595400810242e-01" nType="-99"/>
            <Node pos="r" depth="3" NCoef="0" IVar="-1" Cut="0.0000000000000000e+00" cType="1" res="-1.1783679947257042e-02" rms="2.3860067129135132e-01" purity="6.7672602832317352e-02" nType="-99"/>
          </Node>
        </Node>
      </Node>
    </BinaryTree>
    <BinaryTree type="DecisionTree" boostWeight="1.0000000000000000e+00" itree="30">
